{
  "version": "mlp-v2",
  "inputDim": 53,
  "hiddenDims": [
    64,
    64
  ],
  "outputDim": 41,
  "layers": [
    {
      "weights": [
        [
          -0.14964726451748903,
          0.630451318583268,
          0.5818353231526505,
          -0.4172564468788239,
          -0.3180514890939957,
          0.2737620363634723,
          0.0037260918283522106,
          0.11479934245016288,
          0.5019825380371441,
          -0.13768041615837073,
          0.3278911005747879,
          0.04773943436194296,
          0.20110841380112096,
          -0.18074483413589063,
          0.28657141800666147,
          0.16231235152859577,
          -0.10608779944314403,
          -0.034016372389376555,
          0.2736012182988636,
          0.18945163043991126,
          -0.24530212000959956,
          0.00466885528318481,
          0.06743507698768067,
          -0.3075464516167765,
          0.23187980580907278,
          -0.1497896701866022,
          -0.5395059003228301,
          -0.09330312437441582,
          0.13854448491991078,
          0.16804358475491443,
          0.08371091244498108,
          0.006935852283438956,
          -0.02840909144301541,
          0.206466641252566,
          0.04566317543291946,
          -0.05192054969483257,
          -0.3993221993814115,
          -0.03260972705472227,
          0.03139255525008677,
          0.30534675398152816,
          0.05913425918105471,
          -0.001943181129528002,
          0.08106370720043785,
          0.2118823607356565,
          -0.49554532702275683,
          0.11309257394696039,
          -0.12345837303070042,
          0.04540194218527516,
          -0.060853941996267674,
          0.2788305642242129,
          0.6074356210609585,
          0.04872918781110448,
          -0.10222314811917729
        ],
        [
          -0.022432611979881556,
          -0.44865330842610507,
          -0.014206192531783585,
          0.3058617406773796,
          0.37125692146589734,
          -0.1957647843845673,
          -0.11329955676910503,
          -0.030753790058549512,
          -0.6665328929249195,
          -0.06074548950771248,
          -0.03946800576934398,
          0.45307298742238045,
          0.1688185062578569,
          -0.007375072756735246,
          -0.265534043612234,
          0.4058655722901075,
          0.2537523494043715,
          0.23905689250508352,
          0.40567603033508165,
          0.013632281046472607,
          0.27501672112256936,
          0.1641332470701537,
          0.04111550718265871,
          -0.007629419988148978,
          0.039251649506407735,
          -0.0022276372965198527,
          0.29646391788509296,
          -0.0684135159022312,
          -0.05344569103011296,
          -0.09889778092817673,
          -0.09838477421718317,
          -0.08779233992131594,
          -0.045054764801405835,
          0.07471208780023417,
          -0.034580293446689274,
          0.0010896452572243724,
          -0.10516665529449777,
          0.07546292462357786,
          0.19842274061116622,
          -0.014934838472090173,
          -0.15349879295279847,
          -0.17535216862951616,
          -0.08409230546952368,
          0.00014402754946995366,
          2.502347997235798,
          0.2145438010306304,
          0.2710566292779125,
          0.17481392982449326,
          0.10838547722405847,
          0.06257211336193552,
          -0.5440830315694789,
          -0.09179532779451824,
          -0.05701976037350381
        ],
        [
          -0.2511551834999905,
          -0.1495556190242488,
          -0.11432638555651839,
          -0.1967751723466154,
          0.45984422659176005,
          -0.07288545038210101,
          0.06963080488057162,
          0.12217243858019056,
          0.27902818773687654,
          0.07598211443031708,
          0.31801278983122366,
          0.2395965518037579,
          0.11210970037392962,
          0.1607104351184114,
          -0.5955290488490816,
          -0.1751869404573221,
          -0.20284930419211783,
          -0.09018921427513936,
          -0.07212540642382846,
          -0.26738157595963963,
          -0.13743741964013748,
          -0.24652681086553946,
          -0.03309958167818435,
          -0.13513977741409072,
          0.0005910709524133176,
          -0.09624647466370666,
          -0.1459689385152769,
          0.17346121773606635,
          -0.09958491583686291,
          0.1340394933170089,
          -0.12061465253211895,
          -0.13349844128352908,
          0.31594953819532823,
          -0.03830711147781434,
          0.2728842350882722,
          0.08158310753255832,
          0.1449815789935099,
          -0.05903343181480149,
          0.18556140908875907,
          0.2891234808964402,
          -0.04792961945108056,
          0.08306956829121115,
          0.02057307841929839,
          -0.030427483936500417,
          0.47887864160546384,
          0.13683816222538955,
          -0.0455442961959722,
          0.3847874081007973,
          0.2625400335318449,
          0.10399408402682328,
          0.01615895822707003,
          0.2384885524347792,
          -0.3549384814213357
        ],
        [
          -0.005580621424110906,
          0.05729960324342925,
          -0.09671844262742278,
          0.5798601736767129,
          -0.11612320593177751,
          0.2004351465076826,
          -0.05349532760469547,
          0.35499631897206674,
          0.022941219463685738,
          0.1692679048713304,
          -0.06688985663389399,
          -0.26219585874436113,
          0.004212481068159941,
          0.016152212546978642,
          -0.1100681858657771,
          -0.33931331900193823,
          0.32064222284953403,
          -0.16407361390305633,
          -0.30976982590148927,
          0.3883161420498547,
          -0.040866815685762,
          -0.25689161995549226,
          0.31813590767043637,
          0.11775052289984349,
          0.12316701018723077,
          -0.3092777622190682,
          -0.07444794116239367,
          -0.21308136119092258,
          -0.29267411575398145,
          0.1184107482961408,
          0.18925157501753231,
          -0.20743870995343106,
          0.1881470628769042,
          0.1378756627205984,
          -0.19176389901239355,
          0.2189366758470396,
          0.07962462065050464,
          -0.12870987444750456,
          0.10317601606663282,
          0.0015381228100368868,
          -0.09279867606948673,
          -0.29137825164202685,
          0.05956783951328125,
          -0.0751869534961697,
          -0.0588898071991695,
          0.09175496187467436,
          0.09276027650934009,
          -0.0455741487390359,
          -0.27365373698671536,
          -0.15773837344899602,
          -0.1785447510778108,
          -0.1531815139626242,
          0.17970949232670544
        ],
        [
          0.2378543672487358,
          -0.11033658175412699,
          -0.14720996604467537,
          0.07816500876511413,
          -0.1417218537452105,
          0.24528745774526986,
          0.007411437622033661,
          -0.07561397184270326,
          -0.08515835119391597,
          -0.34404732006229055,
          0.09936799005943125,
          -0.011233079442497282,
          0.21226879496703543,
          -0.13385315171259654,
          -0.17541719057495722,
          0.13715494716842652,
          -0.038657715488752034,
          0.19114473181467695,
          0.12141407325838229,
          -0.13172926799803994,
          -0.09731639339064362,
          -0.1365074296007091,
          -0.19920459438755558,
          0.07566923250732391,
          -0.3416275243426331,
          -0.043955133210670946,
          -0.0909727019816445,
          -0.37328065954099066,
          0.28070287006576206,
          -0.006908642876026249,
          0.3434776645758774,
          -0.16004254240272375,
          -0.014210915766729577,
          -0.2118882558921956,
          0.28506667133168356,
          0.004488568752531185,
          0.36511249960211617,
          0.12271613008770418,
          -0.11400596225072569,
          0.4101266187824659,
          0.07412075025474579,
          -0.36617627140785114,
          0.28534777436089476,
          -0.2395933723315695,
          0.1632767015429457,
          -0.3762942051277961,
          0.03977444132835337,
          0.13896130969420303,
          -0.08759726672151806,
          -0.07095921362111388,
          -0.022174398806830573,
          -0.2694969622735667,
          -0.30575311435840613
        ],
        [
          -0.3774933089278731,
          -0.14587691655465537,
          0.4385139437030814,
          0.5560216320556618,
          0.275319956355654,
          -0.09010506183628585,
          -0.260096680064855,
          0.0500468151041845,
          -0.3126322132709903,
          -0.260500728898811,
          -0.28590016860580125,
          -0.10917209894650011,
          -0.002890520328483781,
          -0.08227662375957759,
          0.3942827423884953,
          0.27040127678853176,
          0.3139992307897914,
          -0.051299944454896544,
          0.113445059915376,
          0.009607236901315857,
          -0.010550198358522798,
          0.2754841222281113,
          0.10584257952908717,
          0.1888165712545929,
          0.06896009058008702,
          -0.0021108427123417654,
          -0.6752943599860035,
          -0.004316791064034352,
          -0.4377136083704962,
          -0.01817491408511982,
          -0.23259974073855116,
          -0.23578499151273188,
          0.14897468896213772,
          -0.00243338858115063,
          -0.0012505169034694283,
          0.12022031636314143,
          0.10450260131027136,
          -0.13039399765967669,
          -0.09347233522813328,
          0.06756874503743082,
          -0.2558676475633985,
          -0.24661211933300034,
          0.11046145439660685,
          0.24631155075881195,
          0.46410380363556103,
          0.09071660664166716,
          -0.008217762913247727,
          0.11519794869087684,
          -0.2659261478752703,
          -0.3686620551597296,
          0.046480580539614326,
          0.28486924877833103,
          -0.1935038115674365
        ],
        [
          -0.0857172023450486,
          0.10722470970077717,
          -0.10882934742825767,
          0.07461932830305179,
          -0.2877512465448171,
          -0.11888437257463906,
          -0.13862004300012695,
          -0.01289139503268283,
          -0.0931962268451381,
          -0.007367779760846221,
          0.09649848340518641,
          0.139227804245141,
          -0.22149549454390977,
          -0.008260914878586042,
          0.46585284153563405,
          -0.35504852672045134,
          0.12251433556578085,
          -0.2687387127713542,
          -0.1674394024602426,
          -0.17303575206002902,
          -0.10904746818476732,
          0.1788056075296249,
          0.11602089010142116,
          0.2074046681726822,
          -0.33490680069706935,
          0.08011976966516475,
          -0.14632503316798043,
          -0.029429348820921696,
          0.0428284235938639,
          0.2086064819856275,
          -0.010144267152633665,
          -0.3090456235397729,
          -0.31309434637909483,
          0.17471409090074466,
          0.06232823984152865,
          0.24271054964512476,
          0.5144909481762373,
          -0.047746073044421876,
          -0.01350829586963169,
          -0.21544446546899085,
          0.03562250655801595,
          0.3280550741169568,
          0.18305180402644344,
          -0.13960540609065236,
          0.1812966151542871,
          -0.3095735029636859,
          -0.04088403205659435,
          0.02532737413785445,
          0.11300683104057135,
          -0.25576896356519835,
          0.08950405807276272,
          -0.00580248424898671,
          -0.23632650201272076
        ],
        [
          0.6050113915192681,
          0.4254129625619274,
          -0.6483335715319934,
          0.2184479180055833,
          0.06623291818095137,
          -0.10926131186438043,
          -0.26193087683157423,
          -0.3525638753639783,
          -0.3507197201684316,
          -0.025609292935077556,
          0.2608107341944029,
          0.003005208398318506,
          -0.6758122986509348,
          0.031046600441406814,
          -0.48798564298772396,
          0.15486795901741693,
          0.002875438635069902,
          -0.12054808750803377,
          -0.12290409236310589,
          -0.06413737278881816,
          0.2632017939212413,
          -0.19667587563420122,
          -0.09302514838150544,
          0.06766241583545268,
          0.1637503316186183,
          0.17473827718992926,
          0.6074152149263544,
          0.25943083031776515,
          0.1639715715239103,
          0.15176002019953924,
          0.050744880009431725,
          -0.01975206853889452,
          0.07733676338837375,
          0.28399121965671126,
          -0.06862386658131937,
          -0.14820703218004977,
          -0.5739859206902324,
          0.15767231996562517,
          0.11907703569015363,
          -0.16689767168906644,
          -0.21038012049085858,
          0.05658204465019328,
          0.1486665956874734,
          0.15517965690315122,
          0.5961221101232524,
          -0.1027335691697621,
          -0.12995302933781414,
          -0.31130514931176645,
          0.05920772722964099,
          -0.004767153066140747,
          0.11490278007399357,
          0.19102685250165222,
          -0.2494906802056739
        ],
        [
          0.1373292888647501,
          0.5215124971778964,
          0.7610808436157739,
          0.3378983083795108,
          0.09006815232051034,
          -0.30169635872816264,
          0.2178404276329697,
          -0.19067353943761983,
          0.28551869138286495,
          -0.43202246425337126,
          0.334340548455658,
          -0.3365142058083849,
          0.0661589943238814,
          -0.35766681670917627,
          0.052626180962561026,
          -0.07616470064455533,
          -0.24836550177444913,
          0.27589198576189533,
          0.02211696856972104,
          0.16691826680551392,
          -0.14340696361177802,
          -0.026135657079003193,
          0.059782085966041745,
          0.17356178728674235,
          0.10091885679946619,
          -0.024760244304309512,
          0.4003023837813673,
          0.14835354699826125,
          -0.19954046824299168,
          0.08108996569913605,
          0.29164352520222525,
          0.07184829983681748,
          -0.5232538838971132,
          -0.04492011187496214,
          0.13944240914940215,
          -0.009018407444747299,
          -0.18709768683336728,
          -0.3576025527471435,
          -0.29646189614015905,
          -0.06870442699440764,
          0.2013275637544149,
          -0.13428695377588912,
          -0.0586262579082942,
          0.3623028667730118,
          1.8266096867861061,
          0.024944669930955406,
          0.12490279690693218,
          0.1437387572851389,
          -0.16822844681279112,
          -0.06412268213452524,
          -0.12799296274591157,
          -0.2145226975602833,
          -0.29324581321832927
        ],
        [
          0.3068945807253572,
          0.3034406903369785,
          0.3302318628631851,
          0.026515906550590787,
          -0.17315239944966476,
          -0.11540791970640178,
          0.044292727211490336,
          0.26143648397026265,
          0.05755211330020705,
          0.1624401157938147,
          -0.13068851978702414,
          0.04090219412881191,
          0.024354607328248994,
          0.11664695072947816,
          -0.17884458784002202,
          0.000934149442574839,
          0.014988686433159013,
          0.004424517633900692,
          0.3331332060776125,
          0.08900131609173502,
          -0.047715573542391206,
          -0.04085010128069305,
          0.10425679042805282,
          -0.03235583756771631,
          -0.03489279011161778,
          -0.020115541720397336,
          -0.15729434769833464,
          -0.14429435183532238,
          -0.2052154022743279,
          -0.042997164329813084,
          0.09087243139860804,
          -0.318253715165638,
          0.17231844656980783,
          0.12106064204430207,
          -0.2553174696509042,
          -0.21595126501601866,
          0.1681775740028844,
          0.06621290700759395,
          0.1672514790413285,
          -0.20350266534645897,
          0.07136182924934668,
          0.17040671685796138,
          0.26540286367857985,
          -0.1771562968354677,
          -0.14164067317338352,
          0.2412896342009411,
          0.1652366784567294,
          -0.018743272550749965,
          0.30747851292592493,
          -0.010592717853299058,
          0.07812916565231756,
          0.05331348752126965,
          0.00023102485488904836
        ],
        [
          0.022245702265531225,
          0.46849349850213534,
          0.2995895782658047,
          -0.17734420040984902,
          -0.31820469598681567,
          -0.41107229281458063,
          -0.3217320301285822,
          -0.3823492324228953,
          -0.2239136007002875,
          -0.5574877555474791,
          0.19503555456855118,
          0.01339738939955923,
          0.4337324891841164,
          0.3769186428332187,
          0.6921181969605987,
          0.07399863140398971,
          -0.09524152299690583,
          -0.13494095911516096,
          -0.10327491074628208,
          0.19623634073485458,
          -0.03739337971489721,
          0.27211760102975174,
          0.29288935033163144,
          0.219121818071124,
          -0.06390777183709527,
          0.1978696159043193,
          0.19159033435683478,
          -0.06707262557778645,
          -0.011159088586006453,
          0.07954218669720788,
          -0.0846858696139137,
          -0.03265512700926099,
          -0.19009688662481597,
          -0.04293025431772352,
          0.05295486879677269,
          -0.0749005466800259,
          -0.057834121263673044,
          0.08106189502166196,
          -0.08095428539833961,
          0.20630630860795066,
          -0.09575237822199764,
          0.0877713954958339,
          0.1520984932609862,
          0.10878955784679833,
          1.5539094460126535,
          -0.13638456695327802,
          -0.06468401626888598,
          -0.06520920573814784,
          -0.08024377720747265,
          0.27349450777982004,
          -0.03781258283137323,
          0.4566921964582785,
          -0.05506392307772503
        ],
        [
          0.2174715262027392,
          0.21057694128226967,
          -0.03497409329935156,
          -0.2801767036408498,
          -0.19446461597842324,
          0.2545994338043216,
          -0.1723273429165186,
          0.1190272989786425,
          0.21471961299684,
          0.33922684855693946,
          -0.23287219304376433,
          -0.05362085266597115,
          -0.22890981874015498,
          0.3066097385949039,
          -0.28136041078238616,
          -0.15738657818273907,
          -0.5074610974951934,
          -0.0519588106212102,
          0.05569312885557376,
          -0.3210442547080184,
          0.1436120274425511,
          0.043144605385299094,
          -0.125286031111372,
          0.0047561590170970775,
          -0.3251944470052892,
          0.0063931902435468676,
          -0.04480963708847517,
          -0.0023184229784162153,
          0.11915077890434292,
          -0.18621757636168476,
          -0.19192926867236337,
          -0.18988422517308468,
          -0.3580046757679141,
          -0.10706677253211563,
          -0.39018016156043445,
          0.22731588655417956,
          0.23747222310485464,
          0.304917353148403,
          -0.25891253626857563,
          0.2553216521569094,
          -0.14982147350770633,
          -0.1079764660565073,
          -0.19354337898191762,
          -0.10940389631773495,
          -0.0068451137207290345,
          0.054627872184273965,
          0.3109595436541449,
          -0.2618611441771581,
          0.21372824289582013,
          -0.12901591238319593,
          0.30847306540782743,
          -0.1942236213929662,
          -0.006991993443400446
        ],
        [
          -0.1774536680317336,
          -0.2337278628544959,
          0.012802289819791033,
          -0.16870364126488535,
          0.11875275913448226,
          0.10708209978310226,
          0.5269104919498433,
          -0.06365372555940765,
          -0.20785464633647022,
          0.09654368571686955,
          0.274943655058781,
          -0.11137914068448244,
          -0.1053614395455297,
          -0.22474192090673187,
          -0.0296530764665715,
          0.04426351033615834,
          0.02273664443308321,
          0.009446905815684439,
          -0.19724677736195864,
          0.18682158946201347,
          -0.32074246377784044,
          -0.521246354034047,
          -0.29876591786673656,
          -0.21212002811123787,
          -0.09808989672460053,
          -0.33249875921427524,
          0.06772066537720661,
          0.18195709312340025,
          -0.2018034556861527,
          0.011487809618812813,
          -0.09335787056162904,
          0.011262439555689974,
          0.016462574279874,
          0.12723266356390328,
          -0.04197034027701123,
          -0.14992957925239525,
          -0.12506794247170283,
          0.09233076541406604,
          0.004650578950276572,
          -0.03935845595627252,
          0.009896802677007165,
          0.020948670344284305,
          0.14915658733664947,
          -0.19990391580690064,
          0.06954754392085309,
          0.04444035765046609,
          0.03546344694459018,
          0.012272917793804882,
          -0.37285824052788563,
          -0.005164913089765815,
          -0.14019301340950174,
          0.12913913695510848,
          0.14184415356459795
        ],
        [
          0.6536886371563333,
          0.16612778549286783,
          0.10280981742878678,
          -0.2638669470897311,
          -0.7639287542891099,
          -0.33816195703142404,
          -0.04977040498311306,
          0.297311510260788,
          0.10940203252912639,
          0.16892368987738032,
          0.1889406807149496,
          -0.12876034241199893,
          0.8374883265526727,
          0.5058540790140176,
          -0.3074348162941453,
          -0.17969452368682004,
          0.08325576255466503,
          -0.06103383332454469,
          -0.4984248605084765,
          0.24322815341706572,
          -0.006979096881829119,
          0.42783009578546066,
          0.20413545214760737,
          0.26369702650114774,
          -0.3193763633745532,
          0.21585099413415437,
          0.33202693513132914,
          -0.04448305044060667,
          0.09336108560164684,
          0.057649801558025036,
          0.2051610126486913,
          -0.005994331790918978,
          0.12202511959771069,
          -0.021109550882421172,
          -0.12328199990764196,
          0.13654072292371286,
          -0.3479152836933913,
          -0.18246829261690684,
          0.08977642123910852,
          0.08345333456088476,
          0.11693728752404589,
          0.24820817984104415,
          0.16697344711299056,
          0.18168258092825718,
          0.3714457756805839,
          -0.024639205473033304,
          0.04410576262659818,
          0.1150578158677687,
          0.05345135498247202,
          -0.10958563335963044,
          0.021797040019530863,
          -0.06068130645714523,
          -0.08103982200660352
        ],
        [
          0.20337034685461383,
          0.053114109851218394,
          0.12192987552246093,
          0.23170615515316523,
          -0.23602731134149627,
          0.34437277025512353,
          -0.062226755549733906,
          0.43004648494810166,
          0.25781962148689136,
          -0.2412264872495816,
          0.19839075329568615,
          -0.22921713249905698,
          0.03148079638757149,
          0.1813635293636383,
          -0.10527239412878707,
          -0.01029591055657562,
          0.2574480970203817,
          -0.37548686893099426,
          -0.22839014261793572,
          -0.07302132378009753,
          0.46762516888483285,
          0.004749660417661694,
          0.19771821487884736,
          -0.16837808095913534,
          -0.15689044506277688,
          -0.06965684807147565,
          0.15757036613450826,
          0.12714371331857205,
          0.3168377858937778,
          0.5260851224859465,
          0.12011125368510556,
          0.048677866223731145,
          0.22819310488874373,
          -0.15734748155941328,
          -0.15657389954094858,
          -0.26621885373558846,
          0.04978603076892802,
          -0.43951390166569937,
          -0.14797640901415093,
          0.0984513639872129,
          0.27959290150579075,
          0.16658484513065905,
          0.1700485378949463,
          0.2253496922578615,
          -0.04882663331754904,
          -0.08860458151830675,
          -0.40484724846876124,
          -0.3093213557905304,
          0.01978193824274427,
          0.22868363118012822,
          -0.028677472245608817,
          -0.059277789668831314,
          -0.031212715979003457
        ],
        [
          0.28906722143418695,
          0.18472766759225184,
          -0.0696489643811646,
          0.044023447244071146,
          -0.13252268891006516,
          0.038367599880912685,
          0.15857834646415409,
          -0.3240926178732139,
          -0.1508172474307062,
          -0.10639818157068702,
          0.2484632319763796,
          -0.061209643513689134,
          0.0811394041393757,
          -0.12113071807511198,
          -0.08630518164848654,
          0.1423190015352435,
          -0.12105451533370856,
          0.38066391359099055,
          -0.049933777322418035,
          0.144091152700628,
          -0.15713773070925918,
          0.2096777742172083,
          -0.2327852652880776,
          0.11407568032085973,
          -0.1388467810094548,
          -0.04622282103494129,
          0.1790525328738087,
          0.02619028419564715,
          -0.29216785656781774,
          -0.33699838085609995,
          -0.010254784852071609,
          -0.05664008679409603,
          0.051120682397128754,
          -0.2527508427897432,
          0.2621699606311136,
          0.030461295120191467,
          -0.4107353978121228,
          -0.19256305232887372,
          -0.04030754653161762,
          0.15745133359846297,
          0.284068015106146,
          -0.042443549509284494,
          0.009113048103515804,
          0.2260932798309269,
          0.44151559385741157,
          -0.055287620565574555,
          -0.11036158136895968,
          -0.09761772628311643,
          0.08902372850109268,
          0.04957762901849973,
          -0.04669849733316628,
          0.05962046015171602,
          0.0002706485805980442
        ],
        [
          -0.18053019514389068,
          -0.04691873588135731,
          0.2545265535896268,
          -0.0067441393153567656,
          0.21703241332329565,
          -0.07499247567685717,
          0.2598742789226197,
          -0.04007447069939626,
          -0.20284230027320896,
          -0.045976639160437704,
          0.2873858720997631,
          0.03433372413879638,
          -0.08925980395147805,
          0.3720759636008643,
          0.13472184304209428,
          -0.24926730118412585,
          -0.027029380759689484,
          -0.21153657701122716,
          -0.21190573843283042,
          -0.10054162088284267,
          -0.21932871953577476,
          -0.02860842821203981,
          -0.1656578817768819,
          0.04893887178759247,
          -0.18567138082089382,
          -0.0038292698761788445,
          -0.002266752412877756,
          0.09455273961726995,
          -0.14204197367602966,
          -0.06258399035205277,
          -0.24474497454543415,
          0.12512329995490135,
          -0.009983617780032353,
          -0.016610137877880307,
          0.07597966637691804,
          -0.16816629269677674,
          -0.04365015955926113,
          0.14077375695281347,
          -0.06322920983381544,
          -0.10845982961021466,
          -0.03209191760365722,
          -0.12548691016966793,
          -0.14281996650911258,
          0.0039794124029539696,
          0.015661459404212933,
          -0.11375096281453374,
          -0.19940848686566207,
          0.02924062744094518,
          -0.27580495214010725,
          0.20901227310225792,
          -0.029623888878299465,
          -0.1651083417499841,
          0.058302614087863934
        ],
        [
          0.947382127547991,
          0.49058321757382134,
          -0.32134892968796563,
          -0.13161076931562904,
          0.2591110164826317,
          0.2459211472594295,
          0.023370032757416875,
          0.2753740234585597,
          0.10244042526189882,
          0.3985793318308911,
          0.7585117662004796,
          -0.17275452093604612,
          -0.08964086539417991,
          -0.2360629715789821,
          -0.24762683482260398,
          0.0621766093408788,
          -0.14639084608379238,
          -0.06853763397105454,
          0.11117163590102527,
          0.17067317727048534,
          -0.38721879775969636,
          0.11673343331055541,
          -0.006882604747863124,
          0.05872907358701037,
          0.6244347502307039,
          -0.0819206438310886,
          0.2398470336438172,
          0.2485151315691532,
          0.17778394188143576,
          0.3100666763725459,
          0.016840863215570944,
          -0.13713919928724466,
          0.21362401469215378,
          -0.03521693013104303,
          -0.049668989635903625,
          -0.003971365931741204,
          -0.22713506755287016,
          -0.10822701882364132,
          0.11420568248211503,
          0.002257772179805763,
          0.22463084097172795,
          0.12103913359435309,
          0.039184170218656306,
          0.49055396620107933,
          -1.6859171164136868,
          0.012284181954118362,
          0.06833424639494724,
          0.13971685366204506,
          0.4665581888153854,
          -0.244356020257536,
          -0.1315557249899919,
          -0.024773182298647174,
          0.12353615529719851
        ],
        [
          0.16206313022529012,
          -0.2440186877816784,
          -0.32112916925401286,
          -0.07098610626150399,
          -0.19753142994794692,
          0.4203044906923114,
          -0.1855064100606721,
          -0.09360806049784794,
          -0.03381611244879061,
          -0.01901025109079626,
          0.23780688833635133,
          -0.20325414290185168,
          0.12567399553198733,
          0.015395748989674309,
          -0.2678873609690754,
          -0.22671775924801255,
          -0.2858337680905402,
          0.11252127506870065,
          0.311587619007536,
          0.09295539934685218,
          0.23190958281466018,
          -0.05605876984687335,
          -0.10535188573658864,
          0.453690903708807,
          -0.1318721552319837,
          -0.22374576442620786,
          -0.15977792275175556,
          -0.22214360699451272,
          0.22409609985685375,
          -0.00382890497988732,
          -0.02378853225998666,
          -0.13285121338401829,
          -0.13541550392732637,
          -0.06056610022111536,
          -0.12210006191603935,
          -0.21915668850606762,
          0.1269621989168327,
          0.016608863339442507,
          -0.2706397548567604,
          0.07339765392499235,
          0.1588146453512764,
          -0.16477181464880572,
          0.03199651857349366,
          0.047988408900642966,
          0.034536982047576104,
          -0.396384585454445,
          0.3241387311322755,
          0.35643913375340885,
          0.08255383156509905,
          -0.34914660391382973,
          -0.03264508679465519,
          -0.25077870779554035,
          0.13252166990677103
        ],
        [
          -0.6407272581851048,
          -0.049817139250236765,
          0.3456725381131407,
          0.3920035450218257,
          -0.19261923494212396,
          -0.23989715770933798,
          -0.21144993062119102,
          -0.15526340710413056,
          0.2394024615376472,
          0.3599916058769144,
          -0.21217957993212988,
          0.1436730303723699,
          -0.35711252142652683,
          -0.1702787568979653,
          -0.17140406371502026,
          -0.0685305973262044,
          0.42000549465080395,
          0.19659395756219283,
          0.3211933951123292,
          -0.0017461403106006745,
          0.1672333734725068,
          -0.17203465179615188,
          -0.2528709774824757,
          -0.3099876232835773,
          -0.44751988226415734,
          0.053142618839491736,
          -0.7517915298024493,
          -0.07242974714677537,
          0.27118269330166367,
          -0.07160651824549959,
          0.11097650342229502,
          -0.021303497395179023,
          -0.006891019778659022,
          -0.14314566410456175,
          0.017438161927858648,
          0.03861359962828697,
          0.015667302214675237,
          0.2116545615850754,
          0.30058538484022745,
          -0.17559909319517258,
          -0.052099077558947444,
          0.01851039982520438,
          0.052315808159634845,
          0.0024011288475708713,
          0.9691871375314748,
          0.19258198914443636,
          0.17578118160904269,
          0.11773117754767852,
          0.13478603010765403,
          0.5788336320139741,
          0.3751318991952258,
          0.23905606447931058,
          -0.0931321641781289
        ],
        [
          0.28253591108579656,
          -0.05005125537046825,
          0.20575702470050483,
          -0.12835466776771248,
          0.36600315573028547,
          0.23626812366874309,
          0.07966100355342147,
          0.033207541663483164,
          -0.05046329188440553,
          0.10204914297206825,
          0.2260243530983726,
          0.14275295621197587,
          0.631554384667139,
          -0.9488366700303882,
          0.17702581622824634,
          -0.2023062401321521,
          -0.08892061541911803,
          -0.2567005339848547,
          -0.2024040923102496,
          -0.1668884166173382,
          0.1273672841638233,
          0.09772789068748652,
          0.021351546859730848,
          -0.06953723341205725,
          0.260681030050653,
          -0.20903594493821778,
          0.29684636456961283,
          -0.019068860372440967,
          0.11721228934843941,
          -0.2305790799605991,
          0.20075500247587882,
          0.1573676061096437,
          0.3684480694649719,
          0.0938226606788052,
          0.27597417887543,
          0.06813050433452779,
          0.2868304162948651,
          0.22753231597124177,
          0.26675600165638663,
          -0.23743874041367236,
          0.061748945023021425,
          0.19495967109950982,
          0.016784087352412543,
          0.2613344428497869,
          0.013354643976007833,
          0.0623596912917272,
          0.0047702216600607325,
          0.0824603185000573,
          -0.3002888409517263,
          0.04001563676863881,
          -0.05204161723199888,
          0.04491137815726575,
          -0.07262566159210053
        ],
        [
          0.3307787683720759,
          0.026951098393392978,
          0.019358930500391877,
          0.2017803175085249,
          0.24441030195970814,
          0.03881493116589537,
          0.18237474369293852,
          -0.06649294277888124,
          -0.3551147847858628,
          0.06732591631237675,
          0.19750964835083076,
          -0.23037821178854292,
          -0.42076082291130446,
          0.04698019860875781,
          -0.45696862648924796,
          -0.3506914416637291,
          -0.2833365991221906,
          0.0775780365430668,
          -0.16919946968482197,
          -0.2075862544298613,
          -0.11981462630297021,
          0.01733856257226613,
          -0.01772211162153178,
          0.05978939271716798,
          0.2000790601935468,
          -0.22043158304861352,
          0.29948612321159845,
          -0.08765346069136488,
          0.21377066725641752,
          0.11656338134949858,
          0.03693685418440985,
          0.23236577702497557,
          0.01149944647342489,
          -0.06689991795647651,
          0.31478601303150344,
          0.03119537827856807,
          -0.1363095037204151,
          -0.2585832911112342,
          0.17468653945619914,
          0.09922756692865303,
          0.16854521701554828,
          0.03244958965389997,
          0.09169001384298286,
          0.23921123063637806,
          0.20113956884514067,
          -0.01960790726815773,
          0.15505450393234288,
          -0.21898241490365952,
          0.03666109181739812,
          -0.35512004619410287,
          -0.1761444449320221,
          -0.04169122114234564,
          -0.33532182435509017
        ],
        [
          -0.21745948153385178,
          -0.11436132907661671,
          -0.11950577177959465,
          0.14449997646109863,
          -0.07778463919964287,
          0.5201308865350074,
          -0.024076942509889104,
          0.21846909923620583,
          0.1084444535507606,
          0.05598249762422526,
          0.12489692832335049,
          0.24065740301527747,
          -0.3394038647177104,
          -0.032454681831245606,
          -0.12468176977652048,
          -0.18891477577923685,
          0.06144492990363353,
          0.3922059922878063,
          -0.06479505208031296,
          0.07468497352652688,
          -0.15452782703104623,
          0.3120173618199047,
          -0.1359436299651601,
          0.03409665729452479,
          -0.3515078330702568,
          -0.010593071091188948,
          -0.263779993748216,
          0.33113924959656815,
          -0.1828976118887818,
          -0.18228477392595624,
          -0.05389704433375749,
          -0.03646440887583662,
          0.21616179639313127,
          -0.2949139101451831,
          0.2519315516373781,
          0.3468285909710739,
          -0.02524673808604687,
          -0.1997059973110079,
          0.029039774588504687,
          0.2982385938505208,
          -0.010716756866300135,
          -0.11177092120859333,
          -0.007205489575419088,
          0.15235378834075922,
          0.2136116488437523,
          -0.3478968805723545,
          -0.15148351617070993,
          0.1511037635275659,
          0.4190753749724605,
          -0.18542699675945226,
          -0.48725034560696157,
          0.14242049391200484,
          -0.022750317830976183
        ],
        [
          -0.23744820045011167,
          -0.030298800689511334,
          -0.050222296450044626,
          -0.03212807151191144,
          0.10084285873807466,
          0.33602273640071434,
          -0.2579336103944336,
          -0.2474365829662664,
          0.1900225216437207,
          -0.1232426193968637,
          -0.017190581794382983,
          -0.3444374329594949,
          0.6796032611728582,
          0.023258486675283154,
          0.178195990687341,
          -0.14926030385000122,
          0.062486339488777846,
          0.3868799361060437,
          0.022796678177084213,
          -0.08688692061341768,
          -0.12381608980507029,
          -0.3135304372620588,
          -0.0452055715851709,
          -0.23582594365792206,
          -0.08978184151636494,
          0.1853321456093341,
          -0.31852356658483616,
          -0.13025971307310708,
          0.0073653889795000016,
          -0.2600980557556838,
          -0.06558379575549142,
          -0.23342132310387104,
          0.03915257917858534,
          -0.03525037512235141,
          0.07299021603904748,
          0.02342506814868099,
          -0.17407274323524471,
          -0.08204309360727438,
          -0.11075617372186018,
          0.1313082691799747,
          0.004026614730340669,
          0.07440125179568734,
          0.1198478209657665,
          -0.16391241511151228,
          0.1899508656196689,
          0.5856341423948445,
          -0.15169386345464952,
          -0.2070017563359879,
          0.0800087688606164,
          0.09211522001659621,
          0.009702892635278935,
          0.18749224899155129,
          0.19051225779135353
        ],
        [
          -0.34864308356608414,
          -0.20590532416851146,
          -0.15449847999632463,
          -0.15708042945931,
          -0.05713459712985268,
          -0.05933419439991449,
          -0.06276939294794302,
          -0.017733813000785605,
          0.10572317004112594,
          0.2137130372016286,
          -0.020994553588645295,
          -0.24053313910741428,
          0.1342007167229126,
          -0.09705777095105812,
          0.13382099181209545,
          -0.03371506003375423,
          -0.07309134079605722,
          0.21251138527785052,
          -0.14926731960537643,
          0.21502757688050886,
          0.389760757794638,
          -0.21049948186889225,
          -0.2435453590135257,
          -0.1320803035848949,
          0.43673714858244456,
          0.5555186823930331,
          0.01512691836251263,
          -0.062107073890986936,
          0.06829792140610068,
          0.10434348559653166,
          -0.20406399669893216,
          -0.03545711434591363,
          -0.13367362536203783,
          -0.05362629888694529,
          -0.175160971987918,
          -0.11106438358027987,
          -0.21711793503472765,
          0.17707319957889342,
          0.07290803628600383,
          0.03785626901943187,
          0.014948393011292515,
          0.1707142454366072,
          -0.13638145630549273,
          -0.25783968236745824,
          -0.11805197439638258,
          -0.05814821435019673,
          0.12848340058906635,
          -0.03263443056838108,
          0.15172217124099013,
          -0.26809853051714205,
          -0.05616146256346603,
          0.07004395311014536,
          -0.10718681482624354
        ],
        [
          0.3521185997748958,
          -0.0879581759040203,
          -0.27478699588220873,
          -0.25684505442147715,
          0.07700825960191883,
          0.2344200570062026,
          0.09604706819861077,
          -0.17152376419442245,
          0.12445176285904012,
          0.1940187921546803,
          0.15148189528786163,
          -0.17658213449344132,
          0.4077990893109962,
          0.17969202330733175,
          -0.14141222522228492,
          -0.13853855560436892,
          -0.1183563981820738,
          0.11035310440184778,
          0.25287353856851574,
          -0.015812843649775542,
          0.44495358818598607,
          0.025996352121390884,
          -0.18601615170892574,
          0.004624610027070368,
          0.0920541928114544,
          0.16422511082955282,
          1.742276215168609,
          -0.12835672608492857,
          0.06016337159541528,
          0.04006873046840828,
          -0.032131037307403826,
          -0.1495765123249654,
          0.06803105146855347,
          0.09567249453692467,
          -0.07314161929946493,
          -0.07382686979798406,
          0.7168179206455598,
          -0.11369043330807344,
          0.08727000779452337,
          -0.26871669413115046,
          0.007174997696817056,
          0.03099120655034833,
          -0.18706631304637242,
          0.32820076227317874,
          0.6261945493568094,
          0.04829349135204436,
          -0.15530488116461819,
          -0.27746088840849387,
          -0.40217704120305786,
          0.26840519557275977,
          -0.47710049862723797,
          -0.05317038181597647,
          0.09202540768734882
        ],
        [
          -0.10219747610795431,
          0.08804845089981363,
          0.20628022933021134,
          0.3562184806293488,
          -0.32308275824096494,
          0.21622501903259755,
          0.16152259453021972,
          0.31817853559827797,
          -0.16695981581247996,
          0.09917427358420987,
          -0.4176951746815497,
          -0.032613250629758804,
          0.4135293072551608,
          0.2348279120199706,
          -0.6334067530630756,
          0.3706579762110781,
          -0.29148558452894063,
          -0.29237174687678824,
          0.33522384845973036,
          0.018669769820541155,
          -0.043536590462092885,
          0.049221114630832,
          0.13322431587375197,
          -0.036778066585622715,
          0.01308453722760243,
          0.22991495687417948,
          -0.5636159834456177,
          0.19846445968431997,
          -0.04279679255803472,
          0.030325284461760083,
          -0.3215365787314959,
          0.05109229891176851,
          -0.24443457175878905,
          0.1471101461784259,
          0.1852029113415677,
          -0.23761753918183884,
          -0.1542166310764067,
          -0.03706654697810724,
          0.023106963198591856,
          -0.08804218549446419,
          -0.26393029378498545,
          -0.30251141509638346,
          0.013948362521461248,
          0.19065171172945983,
          -1.2552851998196521,
          0.27583154308869323,
          0.42534758113967147,
          0.3320249943497861,
          0.08453003419885825,
          0.18364796688448196,
          0.5738834309527738,
          0.015388814758017358,
          -0.06609705728326808
        ],
        [
          -0.032585425715747525,
          -0.1672667698684015,
          0.4457584049340299,
          0.22876367449890306,
          -0.422926211094363,
          0.2394687140436481,
          0.03525616625837165,
          0.11758109844574041,
          0.1838169189958851,
          0.33581366430227244,
          -0.2282913031086181,
          -0.17582300436133574,
          -0.22640959613836004,
          -0.08331437411905558,
          0.016793112419606907,
          -0.02787781626458382,
          0.11924854365868072,
          0.04531061742383344,
          -0.1378388611637031,
          -0.24134148683078646,
          0.02265428789057033,
          -0.1368287020823392,
          -0.28428003955101644,
          -0.011947628081083272,
          -0.21602436352755963,
          -0.11597241012898926,
          -0.5484270142534168,
          0.23715777813195785,
          -0.21902816380548812,
          -0.04160941649837849,
          0.4445792118160729,
          0.04677130871211909,
          -0.10143641964459098,
          0.15173873846504296,
          -0.16914390749312272,
          0.06703498269161019,
          -0.16203788681359982,
          -0.04068874007585198,
          -0.010665727979301006,
          -0.02225125351968382,
          0.21456001049019688,
          0.0362943943395123,
          0.12150029954635269,
          0.3773081967383313,
          -1.4709147905670743,
          0.07717956576872737,
          -0.026649806533823803,
          -0.28398581286026614,
          -0.16605079180485446,
          0.09929442630646486,
          0.844225588099775,
          -0.025243050030617616,
          0.34909335838507344
        ],
        [
          -0.18553639798310512,
          0.017867063015465704,
          -0.08929839726945214,
          -0.48293836548123625,
          0.1866631850466399,
          0.022921197074186852,
          -0.3911969167144247,
          0.0000014264784405854382,
          -0.2501587350032572,
          -0.1651541860400699,
          -0.022384195051094062,
          -0.3375855963624607,
          -0.35278674147120415,
          0.8740592749394952,
          0.14964823828861906,
          0.044438201268639774,
          -0.03448786516536497,
          -0.12376163880602584,
          0.30097887538702095,
          -0.2527499776959769,
          0.010729993587138201,
          0.26590428509820274,
          0.30793092550789386,
          0.2875738025124275,
          0.2947771401526143,
          0.06687958850090499,
          -0.17835458909532234,
          0.3203495858053743,
          0.1755103971039672,
          -0.16738928304005316,
          0.3703183454629265,
          -0.044715816297108746,
          -0.15841453401494995,
          0.15541900122377245,
          -0.07804766949222405,
          -0.17405070051253327,
          -0.2413701971706051,
          0.3039306568213377,
          0.08747754894682003,
          0.06319042581396969,
          -0.04662789501385227,
          0.00261632884641049,
          -0.15207824491593072,
          -0.0571975698051442,
          1.0438497673789198,
          0.2349419883308566,
          0.07406448597648305,
          0.08875798864597736,
          -0.1111852246333143,
          0.07602947627916964,
          -0.19867672046869306,
          -0.07039235061745075,
          0.02391616905748376
        ],
        [
          -0.19597224972694877,
          -0.08265516056920598,
          0.019788780237036556,
          0.24542577687858141,
          -0.05144162662180659,
          -0.20353650986928834,
          -0.0370838792101994,
          -0.2450397188833604,
          -0.12837228997114064,
          -0.07398027012762125,
          -0.25301449354115935,
          0.06682170459758387,
          -0.20278636260987795,
          -0.2987764006796529,
          -0.26815521965477424,
          0.05593184154581558,
          -0.2248687572431399,
          -0.17739847020867514,
          0.1883687915332363,
          -0.2948987021408136,
          -0.23239077300076116,
          -0.4953972452920087,
          0.26084160514811777,
          -0.04446991100872533,
          -0.23267738781449657,
          -0.03897743547823198,
          -0.26129812071782366,
          0.0986171909686739,
          -0.0482975034367741,
          -0.08084304035943274,
          -0.44094824080604783,
          -0.18166475290405942,
          0.2674933134426836,
          0.08732425732728366,
          -0.11362392425910953,
          -0.016593444112358368,
          -0.02397211261479157,
          0.07060663443697587,
          -0.1364046787976425,
          -0.33384724215182165,
          -0.11755637918682332,
          -0.2162553997315011,
          0.001781484886164114,
          -0.24444478305655398,
          -0.12921223296061854,
          0.06460686678844366,
          -0.20036668280058229,
          -0.1607615443168635,
          -0.08536636268421455,
          -0.5506012355716015,
          0.19886406940618445,
          -0.05476063765064284,
          0.046011553731636054
        ],
        [
          -0.25781724777790976,
          0.09827015941967773,
          0.16658209735473622,
          -0.06790762260417994,
          -0.23388642364072,
          -0.034467284673669336,
          -0.6286116868942266,
          0.05819148287953525,
          0.1413204291005741,
          -0.12997163969069825,
          0.05499231434800839,
          0.5967814095197336,
          0.012084035080450289,
          0.3984959837633213,
          0.265523444882157,
          -0.4351638839928656,
          -0.25780297264721497,
          -0.024040415867904067,
          -0.2518319158915565,
          0.035694155043518014,
          0.2108882884718966,
          0.04943685751383402,
          0.25263500197779193,
          -0.1634856174831428,
          -0.4803707800568203,
          -0.15557818440262527,
          -0.14694512262950046,
          0.2362371006033826,
          -0.20472790887401685,
          -0.08957256113957938,
          0.2266535766911462,
          0.11844635073859523,
          -0.010941355251504794,
          0.026791785950265757,
          0.2817523883419819,
          -0.024848743963784357,
          0.2178051009213095,
          -0.006863511183800025,
          0.17678742727518737,
          -0.18488603363282172,
          0.23557084424739294,
          0.08586499659642008,
          -0.21447604815903906,
          0.4176031809575632,
          -0.2216333526558228,
          -0.15323528578102133,
          -0.09969305991018244,
          -0.023525581107072556,
          0.030090809487590086,
          -0.05897269733042936,
          -0.11708077660085903,
          -0.11666831165406107,
          0.044238188684642174
        ],
        [
          -0.017912064202848826,
          -0.125078274309644,
          0.004230033129866418,
          0.09473526118034585,
          -0.10262628231514576,
          0.3381521073246324,
          0.15098301385093316,
          0.10896534221992671,
          0.19017599551891382,
          0.07928436676717003,
          0.2828302322175903,
          -0.3310151509463735,
          -0.4113033184027881,
          0.390901282322766,
          -0.20967747833861247,
          -0.06231993307684001,
          -0.0711312500106477,
          0.11873992388278984,
          -0.5440873659198328,
          -0.10130374383264662,
          0.10107308760604616,
          -0.06985505841644157,
          0.197925672131482,
          -0.11273818115555144,
          0.12458396268352859,
          -0.1331806579892925,
          0.7549418748535286,
          -0.059204161076856776,
          0.022051790894901023,
          -0.22628206145058946,
          0.034515593161285336,
          -0.07587443024475506,
          0.2285097891360117,
          -0.07249604333053794,
          -0.08948781472634244,
          -0.25236972608459074,
          0.26392557050978827,
          0.06577893039847114,
          0.022909138214044226,
          0.2194744837618523,
          -0.20139194719333336,
          -0.20512106609653857,
          0.19889890731906942,
          -0.12347876841553003,
          -0.4971413464966257,
          -0.05241929437968947,
          -0.1763773629791952,
          -0.15129182290269572,
          0.053083115780657796,
          -0.2393488295546692,
          0.14492528753832315,
          -0.21994848791048974,
          -0.19156357085038825
        ],
        [
          0.6690662088275162,
          0.6999751277170494,
          -0.3591244974233426,
          -0.3054261176779225,
          0.1537273670250978,
          0.6210567317854331,
          0.5213639676917102,
          0.2253644222464328,
          -0.07102677866904418,
          -0.20925260511141622,
          -0.07254135977483264,
          -0.13002290478814127,
          -0.027293834183549227,
          0.3703158510014746,
          0.2541913802771749,
          -0.34066897200849083,
          0.1033362653111205,
          -0.227348327686574,
          -0.0019711687711505286,
          0.028019841397313606,
          0.05059293146162208,
          0.06987135949913992,
          0.10557989838065696,
          -0.005248279580426787,
          -0.4468937367735013,
          0.4438159725007645,
          -0.30111714656013,
          0.07885608053134771,
          0.2979761397323677,
          0.05721589600496168,
          0.20316260717221712,
          -0.023277787576954555,
          -0.06166217320512993,
          -0.21933979665299977,
          0.12382584515675035,
          -0.16935099165320108,
          0.06973134142183306,
          0.3142627947420719,
          0.11951040378872181,
          0.020686113287860873,
          -0.0670545992667471,
          -0.13998506477067812,
          -0.022931234545076055,
          0.24240572353184647,
          -0.7873614521474761,
          -0.11383181926356851,
          -0.04448854504888621,
          -0.23396939624128946,
          -0.07891384772917198,
          -0.1434320563038472,
          0.2922100347255177,
          -0.19265417939558432,
          -0.0705745945849532
        ],
        [
          -0.36024104297349346,
          -0.21618948435972862,
          0.6717325760961613,
          0.259481710129116,
          -0.2393591504454854,
          -0.022115469097866925,
          0.09582707729145876,
          0.08992627636573577,
          0.19087434081707227,
          0.041242673518653204,
          -0.49070471968416546,
          -0.3433729673761635,
          0.6487783795273848,
          0.3243463509844885,
          -0.026807753204901228,
          0.14205607451358596,
          0.15306860586554386,
          0.1335229265952209,
          0.44876499629957123,
          0.04070138332685191,
          0.014098602604071234,
          -0.3548607098826591,
          -0.4644399706228803,
          -0.06277511467383058,
          0.1553499688200683,
          0.21825040818764935,
          -0.7717026272802022,
          -0.0038665457987365408,
          0.02376043080779056,
          -0.004851503391848435,
          0.11169210659158682,
          0.06238669967956372,
          0.04278442180357461,
          -0.16713011711156708,
          -0.24524948190799897,
          0.07790440782540858,
          0.23467325566797945,
          -0.05073175930908505,
          0.40755517611150277,
          0.025212759451586044,
          0.045600240216470425,
          -0.1312437044386119,
          0.2789207338732367,
          0.02682771868020453,
          0.24267155775062293,
          -0.13998459716258121,
          -0.11884845418718264,
          -0.01662961996944233,
          0.023646656801779315,
          0.14917011607247677,
          0.4146419382297945,
          0.08599742137111246,
          -0.08525363084742177
        ],
        [
          -0.1720850084868085,
          -0.18476728128495182,
          -0.0604417710865325,
          -0.09366110650398449,
          0.013144429043666918,
          -0.6021299356106546,
          -0.17040454157104282,
          -0.24914294997328942,
          0.14888600059298282,
          -0.42342639247168284,
          0.1987184022930389,
          0.42977865180816777,
          -0.19695456266648828,
          0.15866211709597727,
          0.35121851821824707,
          0.13117910747214642,
          0.2085485027571363,
          0.13123936413966122,
          0.14146303384250927,
          0.2918218008885284,
          0.14018650158108129,
          -0.015227506712036099,
          -0.23034991652797449,
          -0.10784209414103328,
          0.22458418105099806,
          -0.1315098087574363,
          -0.04646850983934242,
          -0.16546318559083564,
          0.365811474805318,
          0.08855412431082067,
          0.01465238767138624,
          0.038073408973085816,
          -0.19497244187650709,
          -0.03874095682215473,
          -0.1106873024350251,
          -0.001238683869496887,
          -0.47531595578994357,
          0.06601203889394547,
          -0.1125671333811182,
          -0.017877420371811906,
          0.00806217378589013,
          -0.44322609304794525,
          -0.3243718244338435,
          -0.021325865737348446,
          0.6580120830380606,
          0.051563324819343004,
          -0.06083486811583186,
          -0.10648199293860564,
          -0.39650256914226606,
          -0.056354044008556974,
          0.3163830800545442,
          -0.06503559509233513,
          0.049644634257422354
        ],
        [
          0.34074882531468753,
          0.21675693653818962,
          -0.1826607959443004,
          -0.12177769847765084,
          -0.17592843427539648,
          0.19521680372417322,
          0.16535447592015987,
          0.23597903605762605,
          0.24186089065777336,
          0.13236529719160306,
          0.30041349247120247,
          0.460089356806947,
          0.10133736326031437,
          -0.28833660274513895,
          -0.30136860045054675,
          -0.04722580923422283,
          -0.14589551996947747,
          -0.5360960814155883,
          -0.13799922246849242,
          0.23712554081614742,
          -0.025203614162992237,
          0.07472635175066428,
          -0.14258466470051598,
          0.3551601825453383,
          -0.1279947171747645,
          0.35782345610716937,
          0.13759967034153417,
          0.3062102539552594,
          0.1045027790772353,
          0.06337571915408971,
          0.039885564121065635,
          -0.21302750425694794,
          0.06475452764293195,
          0.40070247147960036,
          0.28063650132420037,
          0.0222976058533588,
          0.000894819285780724,
          0.05127312154502076,
          -0.16186162836370502,
          0.3825587916311589,
          0.007930394268073437,
          -0.24495835935874896,
          0.015757767789559663,
          0.20646028058454508,
          -0.07573772097505743,
          -0.4237813167724672,
          -0.10046993384493438,
          0.0017990635038552826,
          -0.14900202621857422,
          -0.14070909002234241,
          -0.07654445207001964,
          0.31728539935733097,
          0.38314423223682625
        ],
        [
          -0.3033558372460003,
          -0.17207032066426045,
          0.42504954506048004,
          0.4760539925347883,
          -0.11000869144536714,
          -0.1370350500117617,
          -0.14345257584903304,
          -0.24531103615267724,
          -0.10989342596545226,
          0.048157678765983855,
          -0.556083144472846,
          -0.05353318900893848,
          0.35296864829067714,
          0.1764570830403949,
          0.34081801815766494,
          -0.026492003373049144,
          0.04920902304538313,
          -0.12131722229914606,
          0.18157066577038888,
          -0.34377284844649775,
          0.051265103286761426,
          -0.05485066905886873,
          0.21272503733288853,
          -0.044880999100217235,
          -0.0923685184504547,
          0.3155475739673886,
          -0.45121276476602223,
          0.015224633107681445,
          -0.06631261399830657,
          -0.3318986031123386,
          0.0656235641818372,
          0.012721968879419277,
          0.0036736683117056523,
          0.19099951874317891,
          -0.05307284161117564,
          -0.18151330248056563,
          -0.30268001666991445,
          0.16377238299105612,
          -0.018202095380391494,
          0.0319462349553553,
          0.15995661570488962,
          -0.1818993525110097,
          -0.07076158538303898,
          0.16814805178486755,
          0.4653858039964699,
          0.07248084424637012,
          0.0841849414639348,
          0.13519565951978108,
          0.07483779528301299,
          0.06856274211792061,
          0.038134747217254905,
          -0.15192449045863157,
          0.19221558378363676
        ],
        [
          -0.03307296432354289,
          0.17038280425530591,
          0.5380467862757135,
          0.3008017721667298,
          -0.17160821468152232,
          -0.14520278022553934,
          -0.12323823359235268,
          0.18165255725621873,
          -0.2024879793238108,
          -0.1836420654043795,
          -0.020927635120005034,
          -0.03882699949432069,
          -0.007622982431344629,
          -0.6863966708098067,
          0.5485774209413744,
          -0.3078798126743456,
          -0.1789707882474572,
          0.11646211531439037,
          0.11773790594141686,
          -0.15887761110504345,
          -0.219670263665604,
          -0.010737405763699286,
          -0.12316833218222054,
          0.086988144773921,
          0.1566504861200859,
          0.011490857418577227,
          0.03485962625319351,
          0.23362749190641258,
          0.42667095889271967,
          0.45237224156275896,
          -0.29610910870630647,
          -0.176676228452761,
          -0.0329755723983695,
          0.2025224464604759,
          -0.30923446189043086,
          0.050246381431957185,
          -0.24193611501391593,
          -0.12115836680041298,
          -0.10221002885323274,
          0.05054531935262528,
          0.08892922069520152,
          0.09529797871017591,
          -0.008813860087170857,
          -0.08689583860615689,
          0.12601042092542009,
          0.1264362710781417,
          0.10161068323563764,
          -0.1271635742103603,
          -0.12097302279351542,
          0.0523972057149099,
          0.4111193669178859,
          -0.017758084928736487,
          -0.05864871306108645
        ],
        [
          -0.2165641212514971,
          -0.036312010086314454,
          0.04196434674104526,
          0.36824180434679216,
          -0.21149701900687,
          0.08443372171076673,
          -0.2209697232317183,
          0.06096356725478798,
          -0.20365411063490313,
          -0.19619294759379252,
          0.1780749533788098,
          -0.7984155833774327,
          0.2905578533545866,
          0.29597511439235363,
          -0.3652084896901707,
          0.44909130876225156,
          0.40681403474850897,
          0.3003210201950506,
          0.18664718347813727,
          0.14882948666716297,
          0.1960902527720981,
          0.4059650972080986,
          0.19994579188498848,
          0.2631426873496199,
          0.042772566542416214,
          -0.14672983149554664,
          -1.5051890835465573,
          -0.177535991638951,
          0.14269017293818723,
          -0.13258772500162289,
          -0.24872099183926538,
          0.12567614238980365,
          -0.05648309870380413,
          0.14454757752313008,
          0.10774852417195441,
          -0.08209433803069978,
          0.247041123367723,
          -0.03322834323071817,
          0.05223120434269964,
          -0.06371812304491292,
          0.2310228856351511,
          0.18824194592307852,
          -0.25751330365461494,
          -0.07199689691644014,
          0.16140618646480367,
          0.2353632781205738,
          0.07742537037624737,
          0.1423149151426114,
          0.17951748942389478,
          -0.2327947334866372,
          0.8208217170222908,
          -0.057758173474902655,
          -0.04580374471753556
        ],
        [
          -0.06342534750689417,
          0.14232206423508084,
          0.10352295666878679,
          -0.1318791174544392,
          0.20092698067238207,
          -0.13551881196260332,
          0.028496099890067687,
          0.00588289575889078,
          -0.08968981551849645,
          -0.3892813193131999,
          0.019894509881512465,
          -0.27133683546133397,
          -0.13199788234441268,
          0.23457743654990523,
          -0.04556233560019115,
          -0.08117865198096133,
          0.5648632063434799,
          0.04549915482165221,
          -0.07113840339407661,
          -0.2912375271753205,
          0.06560376554381607,
          0.04266903012584453,
          -0.07758687910803497,
          -0.19681732030381793,
          0.30877004804015334,
          -0.3423288797537242,
          0.04297386409144706,
          0.3688813386232432,
          0.13360333799593563,
          0.008941509689884969,
          -0.3307785453555393,
          -0.08241744820474786,
          0.2584221308830435,
          0.13438242902613848,
          -0.04933395439714797,
          -0.11383652343013154,
          -0.1457712519198169,
          0.1617952953573017,
          -0.11035502177374523,
          0.2639566939196504,
          -0.17399234037512692,
          0.19277081883644678,
          -0.4743634591530482,
          0.10755252231576683,
          0.0740908403915864,
          -0.10127052105596411,
          0.1343130995740588,
          0.0062671801208464585,
          0.23273195581754855,
          -0.06597838536528645,
          -0.05650542574496056,
          0.2033983105338442,
          0.3883167723309633
        ],
        [
          -0.12017271154576054,
          -0.25963281730463655,
          -0.09589954265467916,
          -0.22194218109356223,
          -0.12857420365895628,
          0.07062585192986294,
          -0.0477923164802323,
          -0.07913007014607533,
          0.25893441013510815,
          0.12434949153632222,
          0.22142254978176998,
          -0.36344680330402773,
          -0.04114190620622321,
          0.01915502192377575,
          0.25583630561091386,
          0.03683337244958049,
          0.30558571357764724,
          0.03359051140728509,
          -0.1394617261577914,
          0.026157082249248367,
          0.21492149737387953,
          -0.2258999600967497,
          0.16731833694408513,
          0.1811807705738866,
          0.10707164280632044,
          0.03175331052370555,
          0.010330257009940037,
          -0.03405496920114823,
          -0.17578697603888085,
          0.34056305260169134,
          -0.1545505208143063,
          0.11939876418629486,
          0.2442046522668549,
          0.10890135513308306,
          0.0643802392465828,
          -0.22283445524137593,
          -0.43666369687860157,
          0.03744016459444948,
          -0.18278239140308966,
          0.36809022510323036,
          0.22880095791817145,
          0.11338562067692359,
          0.013324165169641095,
          -0.11827974943154915,
          -0.2842273514585994,
          -0.1291705469302773,
          -0.14394641414019496,
          0.32989689223056745,
          0.09421871247026381,
          -0.1282599547918834,
          -0.1367945397542353,
          -0.19552553357855057,
          0.3279421130032977
        ],
        [
          -0.1523389972040651,
          0.3615368092304622,
          -0.12238170218479176,
          0.21998227230527534,
          -0.26247514336532674,
          -0.23316513108418738,
          0.22920773201180694,
          0.25835100967500724,
          -0.30997406595309557,
          -0.18264288652556804,
          0.5366349511930022,
          0.2907926148320665,
          0.3133714187823501,
          -0.056722538021219134,
          -0.4587074429431331,
          0.33932855676905305,
          0.006734461932808357,
          0.17735929813578347,
          0.11462168503112982,
          -0.2688176489041603,
          -0.00927290034293157,
          -0.22102591370229796,
          0.2585007598945322,
          0.23449821653955052,
          -0.06859165348256352,
          -0.14508547798597762,
          -0.44874076966075366,
          0.09202231622065034,
          -0.023834336980056263,
          -0.016464081770258477,
          0.03675997862548848,
          0.18824784691600077,
          -0.05248928150265275,
          -0.18763963642424492,
          -0.5048857905481708,
          0.32946744644613885,
          0.36294443521805286,
          -0.07013401983393998,
          -0.27543698956744805,
          -0.0319748968544174,
          -0.17739674002597514,
          -0.04959490253177919,
          -0.051169073117015705,
          0.5612626120874235,
          0.37560983993008473,
          0.10535121405886179,
          0.14457198377934924,
          -0.18770602720023857,
          0.009716061932221744,
          -0.06529151975825769,
          0.05723716138372811,
          -0.34425652602637835,
          -0.2155719524395337
        ],
        [
          0.082429464549985,
          0.22503264261482384,
          -0.2092071421678405,
          0.06964062978628056,
          0.06743954250359316,
          -0.17172762418760823,
          -0.0569367689271832,
          0.11869862335729599,
          -0.36170351382190724,
          -0.06227968798134499,
          0.24149141391143958,
          -0.037941776066602505,
          0.03699431521999419,
          -0.35060312914966235,
          -0.5509681407910505,
          -0.12414302841485668,
          -0.10603458019105468,
          -0.03207257680880522,
          0.11916275144127599,
          0.0787172875511584,
          0.04942325578866853,
          0.27601548073729243,
          -0.013145110369702404,
          -0.0990098532382133,
          0.2710573245439332,
          -0.24546816722474757,
          -0.23857726949267993,
          0.36187988636891255,
          -0.09340386392272888,
          0.028226140325112885,
          0.07568899715110533,
          -0.17907441157337947,
          0.2456106561161183,
          -0.06977774160995592,
          -0.09408632037823807,
          -0.2833372056549258,
          0.14145825461719128,
          0.17367163554803522,
          0.12809442700433432,
          -0.22326621690757864,
          0.34450630901222395,
          -0.006216290282750145,
          0.22999982262785806,
          0.12932532552471307,
          0.322519008250455,
          0.2727896912041988,
          -0.1955947422041799,
          0.12523209722118075,
          -0.0003846792383558156,
          -0.026256780257250707,
          -0.21656698844389696,
          -0.1546219994257144,
          0.00009404889594813967
        ],
        [
          -0.7685118815756269,
          -0.08943142690578108,
          0.2989171056274516,
          0.10738914210914183,
          0.00980901436278395,
          -0.4297490898018708,
          0.0771343457679839,
          -0.010970496672810385,
          -0.16241966736693075,
          -0.5105349668593678,
          -0.27015569033839804,
          0.48951301776649253,
          -0.24736074892595597,
          -0.10136420997507434,
          0.26874026872292545,
          0.017188840637694176,
          0.044996369810628725,
          0.2850193612278601,
          0.19095202558845584,
          0.032850255103246594,
          -0.041654129580804125,
          -0.05468548370923467,
          0.07829336793640307,
          0.14541016537846663,
          -0.18758833760364432,
          0.2698912614347598,
          -2.1549535843401753,
          0.09190494763295974,
          0.06272642900637647,
          0.11508395811488145,
          0.011479178464223735,
          0.12719308634716509,
          0.2584417893178742,
          0.08356255107741858,
          0.039170645190078096,
          0.0019390959345179973,
          0.07128183138247293,
          -0.00038618385816266735,
          0.01595673712353132,
          0.08260696089930027,
          0.11503185848056423,
          0.09656087232856218,
          -0.02130383607803754,
          -0.11895140833156705,
          0.5435526898624978,
          0.5041168505902094,
          0.5397197513292765,
          0.5420107495845387,
          0.22993125530580766,
          -0.27502802949502103,
          0.6861572671035876,
          0.26597595675955144,
          -0.20908513306407445
        ],
        [
          0.5402202086003126,
          0.5491286809125325,
          0.10806035405979027,
          -0.422918201956063,
          -0.2850955084059901,
          -0.20401650288204018,
          -0.03595788108842306,
          0.2833784818187952,
          0.259630843700069,
          -0.26299092080469083,
          0.6609342934669474,
          -0.1065713131239525,
          -0.15592103639785812,
          -0.08066485334443393,
          0.603669939065028,
          -0.22876343461729,
          -0.3464533738051129,
          -0.34075416356873595,
          -0.21596460508110257,
          0.0028358963317245993,
          0.4202951496893203,
          -0.009357150046226347,
          0.060452341721716985,
          0.04932320091099366,
          0.12100536805367257,
          -0.27074816966850856,
          1.5700268341543877,
          0.0995036241518153,
          0.08317275789602945,
          -0.02514202730311245,
          -0.20609321010938303,
          0.38031220655129117,
          0.07674118274499223,
          0.2164228890149137,
          -0.020695134579706228,
          0.05482143128152349,
          -0.054047257196921,
          0.18066900011189,
          0.15646233840773582,
          0.17748441020857358,
          0.10082920590287375,
          0.003146050643881622,
          0.051625770496335655,
          0.49131559362390576,
          0.44854759167818964,
          -0.16122209002783103,
          -0.27287257926969777,
          -0.29043331588979265,
          -0.111230577888758,
          -0.13402841737513482,
          -0.6027016110413984,
          -0.11306911938767171,
          0.07781185309254897
        ],
        [
          0.3973579648468093,
          0.3312302872457721,
          -0.1695116241756518,
          0.05922607854614358,
          0.4687055643122006,
          0.14180461143920473,
          0.3087740125737514,
          -0.05074589445167697,
          0.04847102163818059,
          0.16752362141161797,
          0.01288316352591874,
          -0.23699073738763857,
          -0.23622811085242915,
          -0.17334050513223973,
          0.015464922694966955,
          -0.05462419725531623,
          -0.07291055793298991,
          -0.3884722461014342,
          -0.047448976122688585,
          0.10854590621347884,
          0.008952547777075945,
          -0.03467115813254695,
          0.2160169304579106,
          0.0838892838633046,
          -0.17484485526216662,
          0.10887036348918412,
          0.34425077730516007,
          -0.11767505885343955,
          -0.10618287923393774,
          -0.012909239691662761,
          0.05198781339318226,
          -0.12210349715350308,
          0.05434020540218855,
          0.20541024017714216,
          0.1324677800506603,
          0.07478697793359328,
          -0.005542727275299952,
          0.03880608654073558,
          0.021056790487675166,
          -0.016611388256918224,
          0.1594675736243937,
          0.06768971543377383,
          -0.14488577890638135,
          0.1891099095112768,
          -1.4620710429888342,
          -0.11028921112582982,
          -0.17428390280638498,
          -0.12266330624019714,
          0.1704361949929563,
          -0.021755339722470724,
          0.19209837126737805,
          -0.23320036305254568,
          0.1532975428683844
        ],
        [
          0.02761863826615028,
          0.4314217859167367,
          0.05329088352814733,
          -0.41922620023467194,
          -0.029024075964933824,
          -0.03452759666664763,
          0.25176175739241974,
          -0.09135980306717899,
          -0.3316819353818224,
          0.14750883302122048,
          0.20797981062976442,
          0.03926009905158831,
          -0.15369773714681703,
          -0.18397907382049974,
          -0.14379429716990177,
          0.0096158441103276,
          -0.03233777870865019,
          0.07973344804976794,
          -0.19581124450715034,
          -0.04995776305719202,
          0.13850593360066982,
          0.13181856153869945,
          0.05121499934409514,
          0.1730491802331833,
          -0.19875622814004587,
          0.09525170288923952,
          0.17288232796043249,
          -0.5947965869301997,
          -0.15514843847716056,
          -0.36491896342844554,
          0.3307732388443673,
          0.08387000713700057,
          -0.2679249460822561,
          -0.4406850274259754,
          -0.023034069572492225,
          -0.5507745503412048,
          -0.13572816501425292,
          -0.2749882381076925,
          -0.12319013898297228,
          0.12841239796859616,
          0.19349834310445554,
          -0.1351808969690607,
          0.25452418698026236,
          -0.17755150598793518,
          0.3281452171552532,
          0.09481013045321433,
          0.31356684926438344,
          0.30477046431733806,
          0.16334542728204232,
          0.30422240412403745,
          0.15315455277511775,
          0.09646700991664467,
          -0.1656589951132852
        ],
        [
          -0.04359967710349541,
          0.3003073956438811,
          -0.12961201793473232,
          0.03506288225609091,
          -0.09334673710084272,
          0.059675473995863426,
          -0.038681331547645414,
          0.07348610214051751,
          -0.049054205053213853,
          0.01776672516925391,
          -0.20841145243073345,
          -0.14215645707487018,
          -0.2326476269165929,
          0.18739521562724343,
          -0.2852427314131759,
          -0.06052971532309021,
          0.1965472380116201,
          -0.2225943312883495,
          -0.005268489229278416,
          -0.1699737628743215,
          -0.20246104101731854,
          0.07026525973162048,
          -0.14182975439970105,
          -0.13324537098537947,
          0.06410503626548084,
          0.07784466716993538,
          0.031229058073122512,
          -0.07096022244543974,
          0.18229138510467532,
          -0.17916005131495438,
          -0.04253753939763643,
          -0.18436739676940483,
          -0.2134615947294315,
          -0.10441417453763374,
          0.20344683180444623,
          0.07550767989272177,
          -0.1313787984234957,
          -0.04095293500814844,
          0.03124570077864857,
          -0.04265496735735342,
          -0.4762002203065668,
          -0.039416767966776116,
          -0.017439473834772904,
          -0.10678510443447448,
          -0.16906872636382225,
          0.11752248288073659,
          -0.20520131388855817,
          -0.24393324904749086,
          0.13486635391997778,
          0.05890847037903103,
          -0.2046928923832266,
          -0.11799813315369662,
          0.08811773515552287
        ],
        [
          -0.15832489358308396,
          -0.30793555346421386,
          -0.05210849657794538,
          0.3659089919543544,
          0.28970802559730996,
          -0.0989517100477753,
          0.42332609053003434,
          -0.0861272704116978,
          -0.1514314855956841,
          0.269108930323177,
          -0.1647452381278168,
          0.07657155728195454,
          -0.15067321903087713,
          -0.642060319887416,
          0.16000390203567313,
          0.37564607300348996,
          0.25179390835534954,
          0.08145242914000037,
          0.286569019424446,
          0.3016921710159502,
          -0.06673955080763891,
          0.03682267207671013,
          0.11645292569256394,
          -0.18538049004993376,
          -0.078592497396927,
          0.16803687460494468,
          0.2183346258349878,
          0.38917863101976474,
          0.053888445027110085,
          0.010250568198419376,
          -0.06707938042937728,
          0.12507518274014007,
          0.31059741290604986,
          0.22206196247012364,
          0.25124813159458087,
          0.05903958135767209,
          0.3592090977439324,
          0.04590282660882279,
          -0.013028074350469087,
          0.10011408608799602,
          0.0686734519708801,
          0.16310391990913728,
          -0.06282352758597624,
          -0.1702561870880049,
          0.6224654280801076,
          0.0010200535450687555,
          -0.1845691150682524,
          0.015252225354110112,
          -0.04793349421457395,
          0.2615355512483245,
          -0.14750148117745762,
          0.1494012864018591,
          -0.22309759260938483
        ],
        [
          0.2757071303625407,
          0.21254245182619688,
          -0.2153451759164996,
          0.02278118203679737,
          -0.19228832733783713,
          0.02504974839867237,
          0.22637373298213556,
          -0.22770370056768452,
          -0.21189954615934103,
          0.4640916317443066,
          -0.07484571496742551,
          0.46696580191793613,
          0.5390181378521147,
          0.07666245394610731,
          0.15400596331289726,
          -0.09753864277826425,
          -0.2606230062807704,
          0.04839513264836965,
          -0.0009503017906909064,
          -0.3702558657637989,
          -0.06620140250637056,
          -0.18000709161168124,
          -0.1913083184623525,
          -0.3975474161550553,
          0.050300804884370075,
          0.3088826251330157,
          0.021842556938562106,
          0.18871851292066694,
          -0.24829921225133533,
          -0.2545407578910154,
          -0.07689119896951546,
          0.05385273149415932,
          0.19092231647417748,
          -0.14874269416414926,
          -0.022914259238305427,
          -0.3618736197390687,
          -0.0012213872878731361,
          -0.10865847244980081,
          0.29788447313175226,
          -0.16165500048296397,
          0.04504273423831945,
          -0.31219363251747406,
          0.1938527591717788,
          0.1471745306467803,
          0.03772758487929998,
          -0.25958163732077205,
          -0.3267807011437636,
          -0.18004909935984006,
          -0.014333332588808752,
          0.06213679342054648,
          0.054415045440691465,
          -0.04248759513358261,
          -0.028188175484083373
        ],
        [
          -0.7840020254199844,
          -0.42502478298483193,
          -0.32332355738373214,
          -0.05711219059375691,
          0.3145016777757171,
          -0.3156172830464837,
          0.05456094807439122,
          -0.021921037657231697,
          -0.13406338162832698,
          -0.2565695282105001,
          -0.6383127679833313,
          -0.13503607703677442,
          0.5736438165535942,
          0.1036840090158779,
          -0.02945253743939153,
          0.31977865192549476,
          0.41455561297615423,
          0.03010115745398964,
          0.3150499579954573,
          -0.05411710778497255,
          -0.2688837088878267,
          -0.04216953001981877,
          -0.00839556521373719,
          -0.099778763754995,
          0.13727898100955685,
          -0.16293742234422948,
          -0.4466850596442322,
          0.25233429830794735,
          -0.07013848286630699,
          0.18422371277252306,
          0.010457410166253846,
          -0.023640353946574485,
          -0.3100827526301532,
          0.21879670739890614,
          0.35333877802200875,
          -0.06576872685225563,
          -0.03151729959324353,
          -0.010028147116361638,
          -0.056116698862311305,
          -0.07132762476578093,
          -0.0726107508712156,
          0.07575972229212792,
          0.09832107078490238,
          0.12057725431511236,
          0.3947070010641039,
          0.012156932941118534,
          0.17698423696148938,
          -0.08591530073113388,
          0.2608656042642282,
          0.08800369241229504,
          0.3643618634849399,
          0.009568110958097476,
          -0.371452174635903
        ],
        [
          -0.242760145135214,
          0.5112866674872408,
          -0.21240349602997363,
          -0.04840010364343139,
          -0.2927328826233279,
          -0.1343645083631815,
          -0.0948331052474466,
          -0.42207868956850564,
          0.07338314715182435,
          0.16744982410116027,
          -0.15149030966574434,
          0.15542388650206104,
          -0.04866051070277984,
          -0.09529083979211796,
          -0.18371120362896856,
          0.14949144055057895,
          -0.010986468215374752,
          0.09611971226631948,
          -0.1535652758727561,
          0.09582468109672122,
          -0.12238432006428333,
          0.09375222716900725,
          0.3483664437590599,
          0.04820001853674044,
          -0.01560463824194616,
          -0.0990290438317338,
          0.1693606087105781,
          0.009262322927057767,
          0.005875294251353966,
          0.31626609747286394,
          0.2965385945191519,
          -0.19279339319743255,
          -0.013115825522908247,
          -0.07061196413998715,
          -0.06918922442716868,
          -0.06955782045585855,
          -0.021562231906626195,
          0.010833585101036276,
          -0.5313262841504569,
          -0.3654534682682142,
          0.16997654802413453,
          0.010006262418710898,
          0.09481242221612421,
          0.13246538721875098,
          0.07101269133379724,
          -0.32939602394617234,
          -0.08172666414892171,
          -0.4180933483454512,
          0.03719014140917786,
          -0.18466324337367182,
          0.04118718780934269,
          0.003849366719474927,
          0.07043386699994372
        ],
        [
          0.1582998468388323,
          -0.09346532948970528,
          0.08377711699082195,
          -0.17279646355164494,
          -0.12070695445622223,
          -0.24523026588266084,
          0.056038919351110175,
          -0.2754616636428715,
          0.1442055996052956,
          -0.08180326863677623,
          0.1238308385004017,
          0.0018245629003336785,
          -0.31991423739653096,
          -0.40890400783857167,
          0.3097655661569924,
          -0.05456595927342247,
          -0.25379882386957,
          -0.3534568452867614,
          -0.2076520048148525,
          -0.19416347132923967,
          -0.142961465859655,
          0.17137268882435536,
          -0.22133759676947476,
          0.38960797119015833,
          -0.17631811227225652,
          -0.0026276104560308522,
          0.066632922373273,
          -0.08424810729264709,
          -0.05826800838723953,
          -0.2362959918122701,
          0.0196152953571542,
          -0.021617755466835663,
          0.2925503528445046,
          -0.33704439075672854,
          0.05266224649960564,
          -0.008354861662846392,
          0.16388096915006856,
          -0.17569700650561393,
          -0.01949519580645715,
          0.07744970087452989,
          -0.32764844977810426,
          -0.1522468302697414,
          0.2949175637084653,
          0.13472023075321643,
          -0.5220027247671895,
          0.017795209222383625,
          -0.23910048450341126,
          0.19390285183766134,
          -0.059259514776520146,
          -0.09488570535429598,
          0.3065178952692086,
          0.018812519801561574,
          0.17347270290653144
        ],
        [
          -0.2314787198018423,
          0.009697712269050206,
          -0.357464437843644,
          -0.03722086399269441,
          -0.3074093797243536,
          -0.182576429078081,
          -0.18667936803022764,
          -0.2820888708667685,
          -0.23918053189076652,
          -0.3639446742335938,
          0.17286283347907147,
          0.25452433213720094,
          -0.08126627782683682,
          -0.13461496559643418,
          0.23139721994775816,
          -0.24406808242879463,
          0.08151483645876051,
          0.037859908609595906,
          0.34587487733660527,
          0.0895126770162467,
          -0.013099099358153173,
          -0.17134172351365942,
          0.2475077165109136,
          -0.1075313071618021,
          0.12293882027829638,
          -0.03260210022602052,
          -0.08064571509074495,
          -0.24175390984705328,
          0.036830598987014476,
          -0.06892940247023119,
          -0.015675604146408357,
          0.008409456409719605,
          0.04841014584363329,
          0.0401673294888321,
          -0.3712778387070376,
          0.11481274680891505,
          -0.1407170949605565,
          -0.07008417017951087,
          -0.3468039281025195,
          -0.16935509600866164,
          0.08579385748979072,
          0.43389175979144146,
          0.2461604495704287,
          0.02576691107047663,
          -0.04926939105670055,
          -0.4182291760784795,
          0.030856642820693888,
          -0.104643297010626,
          -0.08123545423273526,
          0.09939170300407374,
          -0.27488608436244866,
          0.022543625401190474,
          0.38576480601434154
        ],
        [
          0.1457762824344626,
          0.45470423043877317,
          -0.09946644668878372,
          0.0360532129212496,
          0.12303123253767574,
          -0.1646108538113429,
          0.36801509845165997,
          -0.1697240732008855,
          0.025213606901249762,
          0.06192295147397152,
          0.23307130253703576,
          -0.12839696500190836,
          0.004734427859316747,
          0.22252338674165403,
          0.12088274851046851,
          0.004724039253193714,
          -0.037457642482625016,
          0.037474994066521515,
          -0.08149898530492014,
          0.44530337081552845,
          -0.11608147767253744,
          -0.13267982771480888,
          -0.06994519810980988,
          -0.46548598900039173,
          0.08632795414020701,
          -0.1759189988525825,
          -0.11800170571042957,
          0.1274040521312787,
          0.03700638000985876,
          0.03797338846069972,
          -0.27925728502242525,
          -0.22959904383236926,
          0.08201670660839516,
          -0.21572447093052022,
          -0.1486028494936863,
          0.08848467289237599,
          0.21397164623466147,
          0.22856183793253212,
          -0.4055379657764066,
          0.24723368726423717,
          -0.1188682550990657,
          0.06823953186980855,
          0.15057059950268784,
          -0.10492382140390727,
          0.21159880346755455,
          -0.17147427071836552,
          0.02935644761248627,
          0.0014182594492048249,
          -0.23438264304348638,
          0.41392310607734206,
          -0.35520862960667915,
          -0.5818122230899027,
          -0.29573366756915614
        ],
        [
          -0.22090460471925638,
          -0.09581329276361936,
          0.31205556696860137,
          0.37352933382390036,
          -0.23414498368705705,
          0.011900779484742887,
          -0.13872031235878307,
          0.3662494859418054,
          -0.4145377899200391,
          0.08245354613823663,
          0.11880361433511107,
          -0.0643964732122513,
          0.011673628302484316,
          0.025797431917543464,
          0.4839531515982753,
          -0.09361856537812285,
          -0.4012891019207074,
          0.15061620720938745,
          -0.07303262751711216,
          0.2760578065928424,
          0.05504369832683836,
          -0.013583490204470684,
          -0.3646285487706847,
          0.10809411314597385,
          -0.5016705066689237,
          -0.4451722832787831,
          -0.31021261572374126,
          0.052818152428864916,
          0.2527960053340592,
          0.22584896921234865,
          -0.032997179732841754,
          0.08555590760693386,
          -0.1410599522269973,
          0.1881964366726167,
          0.13229315426332763,
          -0.08204182698684491,
          0.34042217963594273,
          0.09828442414604296,
          -0.04893116083081097,
          -0.05152498617144821,
          0.06973211072917047,
          0.03582331549526073,
          0.1560170152470696,
          -0.0386771321217898,
          0.25345548339067725,
          0.06042353546164727,
          -0.08623714212530241,
          -0.17586682452886482,
          0.21851782770512138,
          -0.04864361694742845,
          0.17347830462946667,
          -0.18317820036042776,
          0.4359206422272347
        ],
        [
          0.013930148595194333,
          0.21033478953248097,
          0.013254523264360822,
          0.06420784081304316,
          0.07059694157765849,
          -0.2767855531233191,
          -0.03616186306633964,
          0.25453374289992314,
          0.09499262313309358,
          0.08355479887790494,
          -0.46716208439915274,
          0.5471327714523864,
          -0.16019693007549327,
          0.12956854620614358,
          -0.09635647437523928,
          -0.0738596281273505,
          -0.16507708766709686,
          0.3693368176435056,
          0.023227448985538877,
          0.02441263717309821,
          -0.1966746256002664,
          0.21058567546192083,
          0.217329470712051,
          -0.10011307615613456,
          -0.08263603608157909,
          -0.04702888083176036,
          -0.02979209230014241,
          -0.09208149736715973,
          0.19806865868824025,
          0.06731572707675716,
          0.24537187179875855,
          -0.3571367025642233,
          0.0719468318140047,
          0.15668774166310653,
          0.15881566051530235,
          0.14614908037118213,
          -0.1956044391677512,
          0.0011222706213985547,
          -0.1482784822321586,
          -0.04662806145297363,
          -0.31124363356613205,
          0.17084023829319014,
          -0.20154235574617627,
          -0.04168783653997972,
          -0.2200693527306902,
          0.05274800235534994,
          -0.02397913829070474,
          -0.21006406065168878,
          0.12195539349865499,
          -0.022429909364227143,
          0.04751084440793267,
          -0.12235070267224941,
          -0.10769556682758474
        ],
        [
          0.26834041510561346,
          0.38604042134054156,
          -0.0700536606737556,
          0.2964868704394324,
          -0.2179770881689111,
          0.107962758609291,
          -0.2241211416126358,
          0.09928168247935971,
          -0.4107026027515443,
          0.10519191885469684,
          -0.35390818775345556,
          -0.3282069731960281,
          -0.1875572962210291,
          0.5250551764057985,
          0.32237325330756994,
          0.29510918178458695,
          0.2099705803480028,
          -0.017743136265667384,
          -0.03755511277089419,
          0.20994704061199526,
          -0.14792416700130898,
          -0.45692824918774017,
          -0.142710481480872,
          -0.1274814201196391,
          0.190773263044639,
          -0.13997525757308008,
          0.19296937142837786,
          -0.10540261673456734,
          -0.06458868247337043,
          0.082572494994464,
          0.00758512203437532,
          -0.007132120144812357,
          0.26478249866160847,
          -0.038219304436497535,
          0.23524582062773158,
          0.11132144054391882,
          0.28118156943409256,
          -0.2044715246078777,
          0.12734674059555154,
          0.1410083592810017,
          0.1892102755139937,
          0.23536416030196183,
          0.26917240391071023,
          0.09228296077551144,
          0.10002535837438344,
          0.17097048543156945,
          0.2775875144176314,
          0.4724791176116915,
          -0.016466246935889488,
          0.0046145429958767996,
          -0.1688368958582975,
          -0.29756685750180656,
          -0.12329480204444435
        ],
        [
          0.12096243642909367,
          0.20346640341669509,
          0.2797115238210961,
          -0.2800512429469587,
          -0.25858316064035863,
          0.053695930103916344,
          -0.41513993524615467,
          -0.3039001928717601,
          0.36838605257244744,
          0.12043478562952685,
          0.13609707738097443,
          -0.06798641374751599,
          0.17796245060062174,
          -0.12528763334113108,
          -0.09058632025638012,
          -0.0552863979710045,
          -0.3020476013528754,
          -0.2571094880356752,
          -0.31079387482639503,
          0.08896776553005888,
          -0.5865881326102143,
          -0.11962609743940035,
          0.005634430710933434,
          -0.19033836630308898,
          -0.19099258242624018,
          -0.31228446692594003,
          0.4362139150929387,
          0.2047299000700174,
          0.08781208698852437,
          0.32200095819677954,
          0.09587932642754661,
          -0.19031237945637455,
          -0.014485833072930637,
          0.04601095480570942,
          0.17144798992780005,
          -0.294600108193286,
          -0.20501197275013563,
          0.1577227841790594,
          -0.2955266296745763,
          -0.1743090086680328,
          -0.22147246121618833,
          0.022735694553028124,
          0.014463667056360912,
          -0.03262983635684113,
          -0.16184113613409393,
          -0.142727198964029,
          0.011809137575963882,
          0.005749415001352658,
          0.137777198254451,
          0.18909376612322795,
          0.019082585876384603,
          0.07346753671366268,
          0.13350330510810984
        ],
        [
          0.2655188578572128,
          0.5464975317357685,
          0.07725568831121844,
          -0.030208931361721866,
          -0.1224354585432737,
          0.09770131776834835,
          -0.1618763919970416,
          -0.13003870734116085,
          -0.02278970980339786,
          -0.17871598532056754,
          0.3751792473361187,
          -0.26634433799492013,
          -0.14686365967079443,
          0.2549871012420954,
          0.300491167241406,
          -0.048695409028985885,
          -0.30363508598932637,
          -0.1775722459260636,
          0.37716376775523885,
          -0.1277618699586986,
          -0.029694155631649868,
          -0.12885246857960392,
