{
  "version": "mlp-v1",
  "inputDim": 53,
  "hiddenDims": [
    64,
    64
  ],
  "outputDim": 41,
  "layers": [
    {
      "weights": [
        [
          -0.20485990883541538,
          1.5823392446760565,
          1.3500938887603595,
          0.18057944529157405,
          -1.1226319520240038,
          0.666514689092543,
          -0.04679168031109284,
          -0.13242736628052765,
          0.8602621564153884,
          -0.3488310822500417,
          -0.01119210783640782,
          0.16054526473434155,
          0.046571042093019335,
          -0.5824372591532869,
          -0.26598207620482045,
          0.1840887113226207,
          0.1351752801761329,
          0.10428290131435149,
          0.3526516041016376,
          0.009497392521045152,
          -0.24530212000959956,
          0.028040033944591234,
          0.5314864259321634,
          -0.04272707064198956,
          0.2212426517437704,
          -0.11341067937930935,
          -0.4457220187638887,
          -0.1606587015704481,
          -0.13627085385674031,
          0.038630514394043886,
          -0.13964713105546048,
          -0.10062476822670602,
          -0.02840909144301541,
          -0.053676126259316365,
          0.08302784019812312,
          -0.11400832162823692,
          -0.6684496357956187,
          0.16839259974782733,
          0.12005249085909492,
          0.33441929864965125,
          0.026298928350714637,
          -0.0529789100654067,
          -0.021665765441132686,
          0.581980934119161,
          -0.42625389598396146,
          0.07586845379107758,
          -0.0068563173496124785,
          0.10473656596630773,
          -0.060853941996267674,
          0.2788305642242129,
          0.6023866863724842,
          -0.13557378097847494,
          -0.10222314811917729
        ],
        [
          0.8734344291180509,
          -1.4013798131918735,
          -0.31665283994334986,
          -0.5566521756868087,
          -0.5607535028145886,
          0.8229287518208838,
          0.6240014306213119,
          0.8053623137046196,
          -1.9721465058304817,
          1.4606112909457074,
          0.8102287095420805,
          0.3042359031906803,
          0.8398580509029744,
          0.3209210715536857,
          0.06428408091269987,
          -0.20427198752651765,
          -0.00825409033262319,
          -0.5993494835229479,
          -0.14010077346733996,
          0.018408296413110897,
          0.27501672112256936,
          0.29091020189832184,
          0.17499484364263296,
          -0.19365599271505504,
          -0.23573560404536467,
          -0.05349304913715586,
          -0.00012854405770941968,
          -0.17343079334371253,
          -0.07833965027002578,
          0.050969779250953896,
          -0.07191226527305637,
          -0.03316301052299673,
          -0.045054764801405835,
          0.0015356133191820117,
          0.09503991367229991,
          -0.020375904717334047,
          0.04081808074375517,
          -0.09310740429159149,
          0.07911407803094571,
          -0.0944111112476936,
          -0.07646422809573201,
          0.2208373820405496,
          -0.055451764257268124,
          0.3929692470786163,
          0.5066007875413309,
          0.0811200136585648,
          -0.07977584394228751,
          0.07066109415504034,
          0.10838547722405847,
          0.06257211336193552,
          -0.40590195898808573,
          0.43843380219873124,
          -0.05701976037350381
        ],
        [
          -0.20694917755594236,
          -0.24640669260723153,
          0.007433123471450182,
          -0.9295993409686268,
          1.852066944658064,
          -0.09881251715001578,
          -0.31354713352977565,
          0.6122058955061093,
          1.6721934957459834,
          0.1576029438910676,
          0.7263500988722926,
          0.46194258319351983,
          0.08764964155471258,
          0.170079292783475,
          -1.860879824775064,
          -0.4638233808840829,
          -0.41244186686514045,
          -0.222773962325009,
          -0.2324442640447822,
          0.004989169375624154,
          -0.13743741964013748,
          -0.3807303889848179,
          0.33170435594676906,
          0.14151011536691535,
          -0.3732474477850283,
          0.006257810332527215,
          -0.24832458053746997,
          0.17222112906676645,
          -0.16906788584899765,
          0.05099342972654491,
          -0.05169758616669972,
          0.06391832013075018,
          0.31594953819532823,
          0.07116163797325958,
          0.16075792062511546,
          0.012199386555389111,
          0.37027915840930864,
          -0.1876146088341958,
          -0.11459136289289182,
          0.21997318058175552,
          -0.10527109735058773,
          -0.24877451076893323,
          -0.09351122440361348,
          0.28377135801033815,
          -0.18000178841222833,
          0.2129821722574801,
          0.08584081238453205,
          0.18725429272764074,
          0.2625400335318449,
          0.10399408402682328,
          0.388421983676647,
          0.36663736268949426,
          -0.3549384814213357
        ],
        [
          -0.01819037722675341,
          0.08803654706133089,
          -0.06783171848105257,
          2.686699267383493,
          0.4920438916012555,
          -0.10302345837518082,
          -0.17699023162534216,
          1.1047764685194772,
          -0.7086547590264664,
          0.8662694844935421,
          -1.022167277404854,
          -0.6006304527599724,
          0.19500952855246964,
          -0.49586658084261254,
          -0.8509615173421463,
          -0.6347141878155155,
          0.01604042632827119,
          0.1259245691583803,
          -0.35676042097200117,
          0.05727548160946731,
          -0.040866815685762,
          0.09827879925710681,
          0.5787428524374035,
          0.3352133497860163,
          0.41819935843538103,
          0.005679218130717364,
          -0.3356446885929125,
          -0.11180159229827115,
          0.1149298633228477,
          -0.04478578212030638,
          0.0740366908623674,
          0.016131579823231792,
          0.1881470628769042,
          0.03297839425251845,
          0.04000415363353079,
          0.07705376500937637,
          0.04162383859390848,
          0.09002429427303583,
          0.013398096270678296,
          0.3096716944730998,
          -0.07823956194993012,
          -0.09116560686212923,
          0.09561037274368162,
          0.2411199109353825,
          -0.02797720735317596,
          0.0839552582829245,
          0.08620770430054366,
          0.07658082099752281,
          -0.27365373698671536,
          -0.15773837344899602,
          0.15629259537546644,
          -0.34510727532363905,
          0.17970949232670544
        ],
        [
          3.0333321510136,
          -1.0620028286719319,
          -0.542906405329949,
          0.10563166368362985,
          -1.1109119315224798,
          1.1637322742792746,
          -0.329675838492576,
          0.6207791180422384,
          0.22700777379236112,
          -1.5216441824708062,
          0.698041767598231,
          0.34645953843364674,
          -0.7423973157676994,
          -0.5929820565455073,
          -0.48381650722662034,
          0.36063869668393816,
          0.06319591564387747,
          0.5221774414916582,
          0.014490170414264435,
          -0.004372323175054078,
          -0.09731639339064362,
          0.03615795049880739,
          0.44109635384228535,
          0.3873878026946583,
          0.021145888972733895,
          -0.170885900895345,
          0.19876059280209224,
          -0.27446186993778965,
          0.07151182251396736,
          -0.07535483573742181,
          0.3086969065295508,
          0.1210619094089142,
          -0.014210915766729577,
          0.028384978036447954,
          0.04733354043507469,
          -0.027347846733654053,
          0.1041842580471479,
          0.09786856099113597,
          -0.004102268419511852,
          0.30712211048251087,
          0.14933869161634183,
          -0.15777855951673006,
          -0.018255940358340054,
          0.07276593775514399,
          0.29053951019154955,
          0.10234625342697269,
          0.16143166959444466,
          0.08747845432489372,
          -0.08759726672151806,
          -0.07095921362111388,
          0.2178405971778709,
          -0.45219986313546556,
          -0.30575311435840613
        ],
        [
          -1.3870604299085083,
          1.659214506533015,
          0.12172889589357438,
          0.28200722005133316,
          0.40280040123235417,
          0.0664077617128596,
          -1.0280101521896106,
          0.9654234827511852,
          -1.0376186518778592,
          -0.46560547382678585,
          0.3842371373720998,
          -0.10565731563243415,
          -0.06073951376105675,
          0.05965087988778506,
          0.426886792835627,
          0.007805353550607929,
          0.33015433038549674,
          -0.3043876501810494,
          0.012818187398559227,
          -0.03017341199215062,
          -0.010550198358522798,
          0.4433521168417397,
          0.14815603595991436,
          0.5825076691383613,
          0.7684508385014227,
          -0.1760689965645504,
          -0.05255826288701697,
          -0.4044105009693973,
          -0.19083894845980506,
          0.02416213056681077,
          -0.01829915716581499,
          0.044891339422374894,
          0.14897468896213772,
          -0.03237857541364659,
          0.04236945299206694,
          0.002796945850792291,
          0.5359732338992946,
          -0.09533036098753143,
          -0.08503802931787646,
          0.13541931341419072,
          -0.2850677051000635,
          -0.19820166395931477,
          0.00372762909253868,
          0.14823859758946453,
          0.2668744116612036,
          0.028241531483144955,
          0.0394685601473003,
          0.018701852841169382,
          -0.2659261478752703,
          -0.3686620551597296,
          -0.387783043120799,
          0.8371998608751708,
          -0.1935038115674365
        ],
        [
          -0.4772911634720191,
          -0.6628125623161807,
          -0.7029773131786742,
          0.4480895515618129,
          -0.7288890761449153,
          -0.8827355698295888,
          0.29013420356553427,
          0.7893255436748863,
          -0.0006738128308402605,
          0.5425915956325738,
          -0.668234735887926,
          -0.03415100618388218,
          -0.07496576040713093,
          0.11518845638945603,
          1.7259827748766359,
          -0.3750657625468378,
          0.028522949044441418,
          -0.25779262639209966,
          -0.20047049612173717,
          -0.23209319011961502,
          -0.10904746818476732,
          -0.3105807088147352,
          0.0673880833432537,
          0.6600195794849268,
          -0.25231854866193165,
          0.04941804502701133,
          -0.32911769951645936,
          -0.15625414660870499,
          0.07949126577542527,
          0.18484350497590726,
          0.03143061115015013,
          -0.004059248681796464,
          -0.31309434637909483,
          0.11477140255350299,
          0.05425421100380173,
          -0.03451046227142937,
          0.4940241634422262,
          0.12282373665504018,
          -0.03349239437074669,
          -0.29098138770516074,
          0.06629795819613578,
          0.1780400065839364,
          0.01807470293202487,
          -0.11209909282990468,
          0.01565921787484348,
          -0.1027960473061156,
          0.1698148524619778,
          -0.0426668864509859,
          0.11300683104057135,
          -0.25576896356519835,
          0.2094466763373318,
          0.17707850116609763,
          -0.23632650201272076
        ],
        [
          0.20331075247059038,
          0.1524163504130758,
          -0.4824993760135285,
          -0.012456392759372343,
          -0.12592120518071173,
          -0.09481543030354095,
          -0.24012465529113466,
          -0.3437440528780869,
          -0.41392706856827843,
          -0.07295676689110692,
          -0.17564827888922566,
          0.09132830402046974,
          -0.38700220696100723,
          0.30886259521944537,
          -0.1140466118979836,
          0.14314786187274564,
          0.04888394183080427,
          -0.14260371843182526,
          -0.118789978591924,
          -0.12343593478908664,
          0.2632017939212413,
          -0.3281480104953734,
          -0.14343623243328146,
          0.08184775925293751,
          0.2853463015580648,
          -0.04227227561632833,
          0.20370371330503118,
          0.2870026900619259,
          0.10453109448874605,
          0.09357438518338893,
          0.03500154145261602,
          0.03096830558032448,
          0.07733676338837375,
          0.2145548093668657,
          -0.010361657068331007,
          -0.09861159229014232,
          -0.5604732603060849,
          0.13026115391502968,
          0.10079078240983555,
          -0.4332393708695212,
          -0.1000897948989389,
          0.13473336498193333,
          0.2800404886982316,
          -0.1255890087533102,
          0.08356745688345135,
          -0.13983253113571806,
          -0.2761410096014268,
          -0.12208749510808888,
          0.05920772722964099,
          -0.004767153066140747,
          -0.07165726781082973,
          0.14267565604491908,
          -0.2494906802056739
        ],
        [
          0.6098798729418944,
          1.9965621732475782,
          1.5902917523359315,
          -0.3056885866820085,
          0.012852761510425647,
          -0.3094425319779955,
          1.1587485667112842,
          1.4096879420021171,
          1.3686807264709469,
          -1.010369057244806,
          0.7665178628294864,
          -0.6279987450946557,
          -0.3615646238906932,
          -0.8251081075606909,
          0.023996872544029855,
          -0.3233818192310043,
          -0.7858963791112845,
          -0.46379591658210007,
          -0.9798440175012942,
          0.031272985519085764,
          -0.14340696361177802,
          -0.12116542694111124,
          -0.2393053224136361,
          0.6616869925981422,
          -0.09237656420529461,
          -0.10470241351406763,
          -0.13742847345092826,
          -0.23033996351675357,
          0.14029242969412947,
          0.12652115766217367,
          0.18720822298545145,
          0.05847284949691716,
          -0.5232538838971132,
          0.01576750983539485,
          0.018698436955456428,
          -0.08759893552729504,
          -0.08264906941046506,
          -0.06497027102535562,
          -0.0009693712752068769,
          -0.37462548141613405,
          0.10059472090075502,
          0.2630504398165014,
          0.2887975178994465,
          0.9786429503153246,
          0.4160788666981228,
          0.18546943409786842,
          0.19820027080754873,
          0.2645147174845844,
          -0.16822844681279112,
          -0.06412268213452524,
          -0.0974635507083314,
          -0.300256373008285,
          -0.29324581321832927
        ],
        [
          1.4961068947843146,
          -0.023015920863324737,
          1.2357923931983794,
          -0.2240377734439508,
          0.31776196235114623,
          -1.6337405619594265,
          -0.14133853247973682,
          0.26172534605564823,
          -0.5503205428447763,
          -0.1507984772333137,
          -0.32697699068414143,
          -0.22087714201346054,
          -0.1820878806477273,
          0.3904275916343115,
          -1.2065207057369243,
          0.3097124168976209,
          0.28287468920096503,
          0.47391610968037423,
          0.7756612180837732,
          0.050116843728309726,
          -0.047715573542391206,
          0.053141887259882586,
          0.5617631401769193,
          -0.006230418262726729,
          -0.3497582200141082,
          0.24421718648217705,
          0.3342133230358371,
          -0.22724905392911343,
          0.06099466459398492,
          0.06780080350367503,
          -0.11989434555093136,
          0.014508658048555858,
          0.17231844656980783,
          0.00581751776291739,
          0.012207787724809497,
          -0.07163737878686516,
          0.18299472153965043,
          0.301314250191787,
          0.08991336920282031,
          -0.29279746777470644,
          0.2095580130829393,
          -0.009686057461601718,
          0.0441845169828055,
          -0.31228224914701547,
          0.3626018295357654,
          0.06386234240300308,
          0.23879524058617932,
          0.0058344029058205295,
          0.30747851292592493,
          -0.010592717853299058,
          0.1736381180264193,
          0.15152621146289294,
          0.00023102485488904836
        ],
        [
          1.952334627009044,
          0.10963361190685371,
          1.6224462837713236,
          -0.8934344272288761,
          0.05754182191789081,
          -1.2982191765793922,
          -1.2487581300229689,
          -0.2963426373241832,
          -0.7131446969193567,
          -0.9430314259726732,
          -1.3247732383865884,
          0.005723574731279235,
          0.2361714036772877,
          0.2421465344387284,
          2.4385872056463427,
          -0.01452082124108151,
          0.09823999566881256,
          -0.4245340523273783,
          -0.4246157772538246,
          0.06239704856212268,
          -0.03739337971489721,
          -0.11593730192855793,
          0.2778869336502481,
          0.048843946202993135,
          0.05742098667788938,
          -0.09140590674038887,
          -0.025280656616397345,
          -0.0771000938361898,
          -0.07533033486340777,
          0.18683779015215654,
          0.2122835576282645,
          0.024041459950328636,
          -0.19009688662481597,
          -0.011528613134231959,
          -0.10121964507542644,
          0.05826794998803138,
          -0.21159732145900542,
          -0.0013617251172663362,
          0.02213154332549023,
          0.07677332689029995,
          0.03562341200571622,
          0.18388546238296447,
          0.16362969051065265,
          0.05475583302600622,
          0.3092591658824083,
          -0.006267260343996384,
          -0.10589044350712452,
          -0.027610701289829315,
          -0.08024377720747265,
          0.27349450777982004,
          0.041419364798323546,
          1.1950781946790658,
          -0.05506392307772503
        ],
        [
          1.3631302934359686,
          1.1622415611751298,
          -1.1184659126652083,
          -1.6426763316528825,
          -0.9824391634034352,
          1.0781833450564824,
          -0.6608114706825782,
          1.230552129581476,
          1.4462066009985703,
          2.1112647263380304,
          -0.3634997943414763,
          -0.8994146905886504,
          -0.08083348337574837,
          0.23470604614822135,
          -0.5404853344749699,
          -0.3742391864817406,
          -0.8038411191000466,
          -0.2754701796123749,
          0.4133019396491206,
          -0.005719940595604063,
          0.1436120274425511,
          -0.32570345739995177,
          -0.16101866823337715,
          0.009396866119836974,
          -0.9658475743928042,
          0.39117756982326896,
          -0.0305320360534619,
          -0.1820180989559572,
          0.0629033770203688,
          -0.06290391857498233,
          -0.11799011151795606,
          -0.035849724408626715,
          -0.3580046757679141,
          0.05054237795896141,
          -0.1200228666617733,
          -0.02056105218653006,
          -0.15623259371113765,
          0.0835664936626488,
          -0.14342870250886855,
          0.254344067163992,
          -0.0026557339398000845,
          -0.03680669433571562,
          -0.11276984168668884,
          0.6350824394585161,
          -0.34329766481262525,
          -0.0821723877992455,
          -0.014659708034329848,
          -0.05882099697969067,
          0.21372824289582013,
          -0.12901591238319593,
          1.1432442190889922,
          -0.43660360357931266,
          -0.006991993443400446
        ],
        [
          -0.17380156644681607,
          -0.24213762594872032,
          -0.057595822217057745,
          -0.22976026006739766,
          0.13473830940899093,
          0.07777901624403674,
          0.5413837521526365,
          -0.045334782346778846,
          -0.19808839169850362,
          0.09589375215196132,
          0.19617785907064073,
          0.006877405813659725,
          -0.11519322876590728,
          -0.2251600559361205,
          -0.042928753488886744,
          0.052487557581142506,
          -0.013617469360130917,
          0.015476842872488464,
          -0.1791272753581682,
          0.268728830379798,
          -0.32074246377784044,
          -0.5083626539304469,
          -0.31082828138396623,
          -0.1615028727773746,
          -0.16026862680863344,
          -0.32871062976847054,
          0.16338990675182663,
          0.29577512631151376,
          -0.15924372112957674,
          0.05404307533331604,
          -0.12600411779791099,
          0.11176580635355292,
          0.016462574279874,
          0.18027447819126896,
          -0.0933048711252447,
          -0.17416885566531934,
          0.029879856219294225,
          0.14967507802442392,
          0.10429655987995548,
          -0.04526471004099722,
          0.1873739710489871,
          0.06286022880878153,
          0.22227099692987715,
          -0.2577097525791461,
          0.11134602846298251,
          0.04768153238922412,
          0.01027452162651448,
          0.06624806511396747,
          -0.37285824052788563,
          -0.005164913089765815,
          -0.08656576652272309,
          0.1849006023548309,
          0.14184415356459795
        ],
        [
          0.8783094386896226,
          -0.3704623123320973,
          -1.3263778039084373,
          -0.39275584015278087,
          -1.332629796078468,
          -1.4911626753514176,
          -0.013877625459526598,
          1.6439182941490087,
          0.9862477169047212,
          0.5311901231646634,
          -0.8022480894644697,
          -0.2359828187269498,
          1.4542025704264947,
          0.4722856172485146,
          -0.12042487673690803,
          0.08944807333979708,
          0.2043118373569169,
          0.19919575225409764,
          -0.4481739295352954,
          0.062188293672518886,
          -0.006979096881829119,
          1.1749119124776202,
          -0.11568885800279288,
          0.11666004060964395,
          -0.5222157184095486,
          0.5433503412332598,
          0.31198402255793867,
          -0.19710355923461,
          -0.052351118220728854,
          0.0911267298630206,
          0.20214783203939646,
          0.032183778188521014,
          0.12202511959771069,
          -0.05938902688394837,
          -0.001917738588920794,
          -0.07874027552106107,
          -0.06886081026856938,
          -0.20324346337189358,
          0.035267881285637924,
          -0.11093822117761366,
          -0.06252674585591492,
          -0.08959781239623231,
          0.40624715173259984,
          -0.30444659105981436,
          0.22910840318225148,
          0.017866258388436636,
          -0.01224902335748169,
          0.06394181766034243,
          0.05345135498247202,
          -0.10958563335963044,
          0.6301738922853736,
          -0.3786532974865389,
          -0.08103982200660352
        ],
        [
          -0.06755085862528985,
          0.24941121757712073,
          -0.6263382674203318,
          0.9616050149952966,
          -1.2567468307657939,
          1.9044480704323252,
          0.6306096927100888,
          2.565276158162867,
          0.5273722652056025,
          0.5642689477456259,
          0.614395540632979,
          -0.5807891642599553,
          -0.21190107601187494,
          0.1466861136180629,
          0.6471909093285196,
          -0.5403956003039546,
          -0.35373440019628916,
          -1.158460732483879,
          -0.43491837358629076,
          -0.09816403938083641,
          0.46762516888483285,
          -0.15509156047508899,
          0.5169011239224086,
          -0.31855527281721624,
          -0.7375006704005587,
          0.3375434945408587,
          0.3255969146542278,
          -0.06794666239659114,
          0.014262991872577267,
          0.23452638833535008,
          0.07125211851403158,
          0.006025823157242849,
          0.22819310488874373,
          -0.13657027969849803,
          0.02374712748868699,
          -0.08392869620323948,
          -0.09744354942869113,
          -0.10384075272262794,
          0.03221920659007433,
          0.10838921165090419,
          0.02712402734440632,
          0.07862885024275346,
          -0.19116313096197546,
          1.654703846927455,
          -0.12258195030784222,
          -0.07546918284379314,
          -0.09391804584902574,
          -0.09601982319126666,
          0.01978193824274427,
          0.22868363118012822,
          -0.04218792451551651,
          -0.3230680777152377,
          -0.031212715979003457
        ],
        [
          0.23531768636664857,
          -0.016329252058199326,
          -0.7629862153501841,
          -0.4585907721090213,
          -1.260034657337057,
          0.22358501261359667,
          0.07765567001350344,
          -1.1575106632015382,
          -0.670141898142838,
          -0.2324660761269024,
          1.3714880728427317,
          0.3674356306126087,
          0.9005558884254422,
          0.9803228092058173,
          0.7180809316845013,
          0.03413824926126966,
          -0.2251548580628655,
          0.30270249532451105,
          0.2742955703945112,
          0.061961530282221434,
          -0.15713773070925918,
          0.3676946623281183,
          0.2639887230164553,
          0.6590003512619765,
          -0.8218614342446288,
          0.23890754068376513,
          -0.8806594022352959,
          0.018004926556208573,
          -0.006932867029483888,
          -0.08716620880862914,
          -0.13846373909609966,
          -0.003679110646344228,
          0.051120682397128754,
          -0.0013426376048170105,
          -0.015383179863672278,
          0.061200769418030036,
          0.06538231710437722,
          0.005281497018188951,
          -0.014396268405055142,
          0.03703903057751645,
          0.13078099199115126,
          0.009444352039622357,
          -0.06619982636494096,
          0.5061251819838899,
          0.2335102623881079,
          -0.04539880438254918,
          -0.050423303116255966,
          -0.05947386765623236,
          0.08902372850109268,
          0.04957762901849973,
          0.2396633304847734,
          -0.006432586581631866,
          0.0002706485805980442
        ],
        [
          -0.7967796205015698,
          0.1435317813695528,
          0.3122989662194079,
          -0.0061209999666510155,
          0.49466136604160227,
          -1.133339557963406,
          0.4735534945219127,
          -1.2200502966525515,
          -0.612426913153775,
          -0.6251166543138332,
          0.830704277028168,
          0.13044019093205023,
          -0.3550138388207597,
          2.7923076273663,
          -0.24965453466511425,
          -0.042208532558042036,
          0.02915721492500665,
          -0.44343596024651455,
          -0.035798742908513474,
          -0.02182700475175011,
          -0.21932871953577476,
          -0.06365193479921366,
          -0.20138381396937463,
          0.12360154392156834,
          -0.5942551121425881,
          0.5129505326764149,
          0.3145625356724683,
          -0.0866794419666252,
          0.06328904667196562,
          0.07290096855050329,
          0.0786653540481694,
          0.12725860026700536,
          -0.009983617780032353,
          -0.13620500810571923,
          0.017785157212562176,
          0.029122378349839675,
          -0.01863456028308474,
          0.034052207804649355,
          0.061330131078061415,
          -0.07920545314489316,
          -0.048980034945725205,
          0.11487610238870087,
          -0.0012660370899103606,
          -0.14026472016607797,
          0.3114443135319751,
          -0.022800148867484563,
          0.05359751918570203,
          -0.011143014135582913,
          -0.27580495214010725,
          0.20901227310225792,
          0.1548747527975132,
          -0.22371340165032766,
          0.058302614087863934
        ],
        [
          1.4700944558157818,
          0.08198474425014096,
          -1.040084902050461,
          0.0051806358625829125,
          0.7460940836978479,
          0.4158456758572518,
          -0.569527739937624,
          0.47366940920520795,
          0.1513711776976761,
          1.4299317499895552,
          1.207236656006651,
          -0.04399439435408625,
          -0.7220951599010939,
          -1.4071889071790054,
          -0.46453701915066326,
          0.2698405860054944,
          0.18408117506615598,
          -0.16068564758752993,
          0.4815934701579989,
          0.053771242346637695,
          -0.38721879775969636,
          0.02556483969163857,
          0.1021112287072556,
          0.5821522705778157,
          0.3357401987921711,
          1.2415170591805782,
          -0.1425463193617625,
          -0.12416348076751468,
          0.13885930678717384,
          0.28982562639710624,
          -0.14181762807088202,
          -0.009112723820684485,
          0.21362401469215378,
          -0.07621748729827871,
          -0.02291804915343936,
          -0.07166886847648389,
          -0.3622204115241415,
          0.010496423132729395,
          0.1496546851509213,
          0.10895016175579302,
          0.05977136741017591,
          0.38162600299487354,
          -0.0988231784762266,
          0.18440380079773674,
          0.17470232832252813,
          0.07904839012372993,
          0.07201133356244206,
          0.06883280827197584,
          0.4665581888153854,
          -0.244356020257536,
          -0.003665108520788513,
          0.06287595342247568,
          0.12353615529719851
        ],
        [
          0.23693569973184017,
          -0.23402828832584194,
          -0.24204708451746956,
          0.0934235702600107,
          -0.3267693172154197,
          0.713784607040083,
          -0.24907309270214595,
          -0.29940286402805333,
          0.043112326850873295,
          -0.013605814326499698,
          0.2718339486074986,
          -0.15031198198253998,
          -0.07989762590888647,
          0.0010717403886986348,
          -0.06507431478030769,
          -0.26934919093798976,
          -0.36051000669398087,
          -0.1306283381591398,
          0.34264640761575454,
          0.16563896142025505,
          0.23190958281466018,
          -0.08123024019341855,
          -0.30903336279542265,
          0.7696739297486459,
          -0.1364622189302821,
          0.006926933725165462,
          -0.009107832150708517,
          0.05118248788830337,
          0.23639046079582582,
          0.04759453632301692,
          -0.3357049652009112,
          -0.1336347705019296,
          -0.13541550392732637,
          0.004286326957504487,
          0.07501616556137841,
          -0.20322570946216603,
          0.024681762662542326,
          0.1022284763433656,
          -0.13739955866278178,
          -0.20006131449749867,
          0.14238999436539682,
          0.1067459498902116,
          0.00568321571599706,
          0.06738197982285592,
          -0.0875943712988562,
          0.026106444998882518,
          0.01519166678994333,
          0.23685968608422628,
          0.08255383156509905,
          -0.34914660391382973,
          -0.03252830892603584,
          -0.22494869075481486,
          0.13252166990677103
        ],
        [
          -0.15533850579604205,
          -0.826762081383488,
          0.004688730541317128,
          -0.08280993650078418,
          -0.686157272180418,
          -1.0333444494687394,
          -0.09468705925071451,
          0.30390800241897337,
          1.4143595316799598,
          2.6863448248279576,
          0.606778769279659,
          -0.23556679300110625,
          -1.3086784401011802,
          -0.24095981462653673,
          -0.37271601259865733,
          0.0952487245390867,
          0.45330089013911623,
          0.05671706223421593,
          -0.2055961121362559,
          -0.04425738952766109,
          0.1672333734725068,
          -0.6714020756709208,
          -0.3120178827205262,
          -0.706653930988304,
          -0.4477144377779636,
          -0.10542246436960122,
          -0.43916019837479664,
          -0.10912148061404335,
          -0.0522377962911342,
          0.10323136332743044,
          0.022815902974487882,
          0.052567996082347086,
          -0.006891019778659022,
          -0.027366765638681057,
          0.097481263611424,
          -0.018543794376927627,
          -0.06447173856329377,
          -0.04708772648081648,
          0.054235591597777064,
          0.0014596067664420724,
          -0.2389683155698549,
          -0.1610743967592914,
          0.37575132172377707,
          0.1752406136117229,
          0.20849107979321507,
          0.08785609747878216,
          0.15342042153037336,
          0.13861220241730163,
          0.13478603010765403,
          0.5788336320139741,
          0.8241408030678165,
          0.00485047808605278,
          -0.0931321641781289
        ],
        [
          -0.5171865023982612,
          -0.3974749667430861,
          0.12045955443951631,
          -0.2334986932903235,
          1.0195688844597195,
          0.5003235512259515,
          -0.7823392281455089,
          -0.4211632821002211,
          -0.9994250426796009,
          -1.3144736095638228,
          0.5221469806165548,
          0.9436126532733174,
          1.9211860775922818,
          -1.7144215284007114,
          0.0769543237338108,
          0.43080458770254004,
          0.3357094244230516,
          -0.002332693332561173,
          0.20450563558893695,
          -0.16842858967422836,
          0.1273672841638233,
          0.2276359179310576,
          -0.2580953529387447,
          -0.5916091023588536,
          -0.79010419412093,
          -0.10011812919876846,
          -0.08513035495509133,
          -0.4944724508843795,
          -0.08049014011296987,
          0.10468369908907361,
          0.1686209414119333,
          0.055058613951142504,
          0.3684480694649719,
          0.022074263328572295,
          0.06447818790084814,
          -0.01094966340460989,
          0.07905439029685583,
          0.3058137364155478,
          -0.0165856550832293,
          -0.24639052629340105,
          -0.0008330860449364204,
          0.29639210215553063,
          0.07910304463011414,
          -0.31656286522919214,
          -0.18918387562571728,
          0.04718559641544725,
          0.06947380667091363,
          0.12334764679290386,
          -0.3002888409517263,
          0.04001563676863881,
          0.8707168696254313,
          -0.3756822221553212,
          -0.07262566159210053
        ],
        [
          0.32864051652779586,
          -0.13824108092485854,
          0.09170516489646072,
          0.4368362385432891,
          1.1577571946742107,
          0.29826983812642377,
          1.0060504589990464,
          -0.24894189193994523,
          -0.707124591669855,
          0.9997291697982877,
          -0.24891089679100592,
          -0.4979906897119033,
          -0.40709564417896016,
          -0.18381843432785583,
          -0.35273706364419544,
          -0.5980575964313174,
          -0.5953463149699341,
          0.14585144315080892,
          -0.5808027754287527,
          -0.07072112228032387,
          -0.11981462630297021,
          0.6644923717172843,
          -0.1473373850972645,
          -0.1538505767396163,
          -0.06359162692501694,
          -0.20944540600839465,
          -0.10267807069495286,
          -0.1002149289311558,
          0.1359456792837399,
          -0.22446321744950987,
          0.19753476105953519,
          0.173811554489142,
          0.01149944647342489,
          0.2538136373096559,
          0.18797712018039214,
          0.0005715448104710238,
          -0.5632172839221281,
          -0.2769033456565535,
          0.07195074630382922,
          -0.005868344927340977,
          0.43037807459298294,
          -0.21212326375894922,
          0.10818498902849631,
          0.7527909480654772,
          0.27619020600271715,
          0.05292657575000851,
          0.14074753297853462,
          -0.009569611606393543,
          0.03666109181739812,
          -0.35512004619410287,
          0.07851055708395874,
          -0.20395829616706912,
          -0.33532182435509017
        ],
        [
          -0.92450441272002,
          -0.18530500203320488,
          -0.41482469187108334,
          0.4619344056906877,
          0.08608105292213077,
          2.2396902635802,
          -0.40385846678924664,
          0.9572087795827265,
          0.6774780510847037,
          0.4412852540824404,
          -0.11533024858666881,
          -0.04920861753885182,
          -0.41912264357836515,
          -0.6141150342328238,
          0.07549867559360592,
          -0.4945642671542407,
          0.03640304181239108,
          0.11156379779580766,
          -0.09985387564266852,
          0.03306837670553257,
          -0.15452782703104623,
          0.705577136044703,
          -0.5692615467528066,
          0.29680630833483657,
          -0.5173958270348605,
          0.11861321139726291,
          0.165256850414297,
          0.4063016982429627,
          -0.1592333115005922,
          0.018444807696684752,
          0.01702401926846885,
          -0.01587482798789845,
          0.21616179639313127,
          -0.06984211259304635,
          0.005489708947715705,
          0.13280763785999358,
          0.07936876756803063,
          0.11917910582752109,
          0.05411760685917567,
          0.13490968220149552,
          0.07104862173726734,
          -0.0524706759885987,
          0.021751472047031678,
          0.7016974217370334,
          0.6130858319671759,
          0.12592310482759883,
          0.11311243623493192,
          0.12412560697943004,
          0.4190753749724605,
          -0.18542699675945226,
          -0.6240300136227791,
          0.5259157943547715,
          -0.022750317830976183
        ],
        [
          -0.20952435414910128,
          0.08403768833975045,
          -0.07108807098397854,
          -0.04753002264668023,
          0.08988970202544108,
          0.30921564553858194,
          -0.36410947172212166,
          -0.24084545176925726,
          0.157379747386788,
          -0.1689603536689882,
          -0.014999439157262588,
          -0.30818380643379245,
          0.6161609620081445,
          0.10241365564045012,
          0.17415598103048574,
          -0.15251207398351338,
          0.037892249894982834,
          0.34621785394951804,
          0.018584539306011397,
          -0.19015989228755326,
          -0.12381608980507029,
          -0.3305440274055331,
          0.01133504808995187,
          -0.21907054764607942,
          -0.30194746728695343,
          -0.06854655622659693,
          -0.3375552693073441,
          -0.1459198956783287,
          0.033401298502062915,
          -0.19222594325249134,
          -0.0806625139264708,
          -0.2849347162866801,
          0.03915257917858534,
          -0.18996081655992178,
          0.07639616326946866,
          -0.018801141954920064,
          0.020238642757913334,
          -0.06072552404920306,
          -0.076697801690928,
          -0.07488921598008477,
          -0.09026405203617924,
          0.17351734047657774,
          0.06097853523462106,
          -0.28037233381546417,
          0.07152945264006949,
          0.37287009626216727,
          -0.14571391565975456,
          -0.2437335397957596,
          0.0800087688606164,
          0.09211522001659621,
          -0.19040714161149275,
          0.206452581786565,
          0.19051225779135353
        ],
        [
          -0.6565639509663795,
          -0.38275754476967194,
          -0.01771484610363148,
          -0.7954296608646284,
          0.2271834975365388,
          -0.5268025412440929,
          -0.3910164429244498,
          0.07877667314522824,
          -0.2465515105452389,
          0.5447538321649981,
          0.18664030666473333,
          -0.8266050266146665,
          0.08093143203361117,
          0.033614533654209695,
          0.2697297338233113,
          0.2666789024250238,
          0.0793486037166859,
          0.7055119736940609,
          0.37456365365665545,
          0.13654048281620745,
          0.389760757794638,
          -0.03497808560592212,
          -0.08573179417644955,
          -0.011645972236389584,
          0.11062045909934974,
          0.13610497481105693,
          0.482817686082492,
          0.13677182183379896,
          0.13987935445051145,
          0.10919035035673318,
          -0.04273335484228941,
          -0.050851317147193355,
          -0.13367362536203783,
          -0.06849645456523903,
          -0.001714864564609352,
          -0.03975610976924139,
          0.024829943813310582,
          -0.06742114539633548,
          0.057429216545617175,
          -0.007456740430896422,
          0.4017528482574242,
          0.09168933143699153,
          -0.28369749377710624,
          -0.24777682414121507,
          -0.8903715916432299,
          -0.022473898698986527,
          0.10526344916098086,
          0.05614697668027007,
          0.15172217124099013,
          -0.26809853051714205,
          0.17878351214206006,
          0.4379632080792795,
          -0.10718681482624354
        ],
        [
          0.09209617582000015,
          0.31898934149997726,
          -0.17053108013644144,
          -1.2917798043560322,
          -0.8667533536003262,
          1.3279023993308638,
          0.3402480663987059,
          0.3165220886508773,
          1.6081061610001504,
          1.264195866648741,
          0.2680035801059472,
          -0.6495264587747439,
          0.20034869487164642,
          -0.0644336744063107,
          -0.4634601236928173,
          -0.1756493826991418,
          -0.317070374624085,
          -0.35421339034757965,
          0.07083577665086027,
          0.003381954562881831,
          0.44495358818598607,
          0.08709975552772296,
          0.02569705209526556,
          0.0636466974572226,
          0.7867111723595188,
          -0.3640034786356994,
          0.23809652285739455,
          -0.2317318254678038,
          0.012475373095983846,
          0.07313208204804135,
          0.08063466912199826,
          0.033305178704403776,
          0.06803105146855347,
          0.0056811581684372255,
          0.03572739609488935,
          -0.009433908594143302,
          0.3113039669976308,
          -0.3124915936912236,
          0.06726454149296927,
          -0.23797222962626066,
          -0.11600921678357963,
          0.20318175631654312,
          -0.009922733531249688,
          0.38060436710628004,
          0.39174580173319345,
          0.019778629565625976,
          -0.028189622722108214,
          -0.025797854514961464,
          -0.40217704120305786,
          0.26840519557275977,
          0.08824854230661783,
          0.061369547731827075,
          0.09202540768734882
        ],
        [
          -0.5749411153817922,
          -1.4830885516523693,
          0.705864068808956,
          1.4650710197090102,
          -0.12915414280064846,
          0.19473747580356948,
          1.0952053192903328,
          0.1948391843776712,
          -0.6904972414124071,
          -0.5080077381124759,
          -1.2872383087112216,
          0.45202046269945906,
          -0.0861548375146923,
          0.49396825694600976,
          -0.9396619444128795,
          0.584527917117414,
          0.20740460928292792,
          -0.4622894472980765,
          0.6893244105521897,
          0.13929859580530804,
          -0.043536590462092885,
          -0.15569778234688297,
          0.11355306766477329,
          0.1890198283550956,
          0.04547814654574212,
          -0.0593316096589361,
          0.4311072591654238,
          -0.03766879647132424,
          -0.1711598372312262,
          0.2205605309100032,
          -0.08283344527604009,
          0.06103263825163425,
          -0.24443457175878905,
          0.0035511960341389395,
          -0.09805466141530839,
          -0.1532123658021473,
          -0.41240793305279794,
          -0.4237797400582429,
          -0.13601992688391515,
          -0.09214936446015841,
          -0.38916948026813053,
          0.44149352343821185,
          0.16897624432769345,
          0.08118014155920575,
          0.13980978511041975,
          0.05663763331726515,
          0.14983612542821773,
          0.13041178063809067,
          0.08453003419885825,
          0.18364796688448196,
          0.4654787912110629,
          -0.02060361417778241,
          -0.06609705728326808
        ],
        [
          -0.5985035581258861,
          -0.5539681683468083,
          0.4747881925883165,
          1.0416891765272924,
          -0.36562736780089594,
          0.24226723887577029,
          0.049663472247418426,
          -0.18625805935118442,
          0.1521398055559098,
          0.5146100204909456,
          -0.0040773968442569895,
          -0.15404523982824442,
          -0.6621640781726105,
          -0.29339336718382314,
          -0.8445286441443385,
          0.43583299887995613,
          0.8850721893110169,
          0.37148056061035367,
          -0.06357555889463336,
          -0.05186276361674387,
          0.02265428789057033,
          -0.16746736743197121,
          -0.37422529961697526,
          0.1939219583348116,
          -0.46887458338715293,
          0.2877233513863152,
          -0.11841107723573735,
          0.061528326039683126,
          -0.16688644509275705,
          -0.04345015530011736,
          0.44914929344812343,
          0.06915932889972021,
          -0.10143641964459098,
          0.015523150863521492,
          -0.03174837781171616,
          0.0734729651646184,
          -0.007807914999187612,
          0.12447203801242912,
          0.03542550136655826,
          -0.07605970975337839,
          -0.07960104858400101,
          0.09239328972959698,
          0.15378795386794555,
          0.5318449184187277,
          -1.3004723161165208,
          -0.06693428448299636,
          -0.0872447894677541,
          -0.10897388555445608,
          -0.16605079180485446,
          0.09929442630646486,
          0.6587362647103168,
          -0.09026508210818034,
          0.34909335838507344
        ],
        [
          -1.03989699748113,
          -1.443675884775998,
          -0.9223238260006352,
          -0.7037440908709282,
          0.7176958155277066,
          1.4162198126767334,
          -0.5740291710213404,
          0.13273852884589393,
          0.03795452173281454,
          -0.1507362023022813,
          -0.6136641478342113,
          -0.2840513205038759,
          0.22598197387987687,
          1.2642813874897512,
          0.6946938955815443,
          0.19844428419899923,
          -0.3054511149047803,
          0.06315227446281954,
          0.09486263172743156,
          -0.024190790905081565,
          0.010729993587138201,
          0.2802131401084527,
          1.118695495307737,
          0.3999273043361434,
          0.15362415580208222,
          0.09715347815397495,
          -0.08022151729957253,
          0.07472112106989104,
          0.10713274181093993,
          0.08278608423472568,
          0.07025339927254576,
          0.03619675016313157,
          -0.15841453401494995,
          -0.016301127802123613,
          -0.07205060629216722,
          -0.04472824730243638,
          -0.21385281046631668,
          0.5226206054770224,
          0.19527813897965476,
          0.036065504193962365,
          0.14968714205041406,
          -0.08460143539973973,
          0.4870200105855701,
          0.11757645899023841,
          0.36106984902649925,
          0.12314598501470922,
          0.15181457065443962,
          0.05568357406059359,
          -0.1111852246333143,
          0.07602947627916964,
          -0.3485456653744745,
          0.42509260759196005,
          0.02391616905748376
        ],
        [
          -0.19955290088706787,
          -0.08232599334107618,
          -0.03778295827464783,
          0.2849659656065539,
          -0.03497565066881078,
          -0.2008371041399641,
          -0.040513260168773095,
          -0.24102525386460041,
          -0.12705926880725363,
          -0.06646916642984985,
          -0.25068750644822524,
          0.05812368836434363,
          -0.23604077204376936,
          -0.30381389774340145,
          -0.2819548127269878,
          0.06617667568041243,
          -0.21026642493763223,
          -0.15692786477001605,
          0.19055075903196209,
          -0.2937300956037803,
          -0.23239077300076116,
          -0.49527258550190806,
          0.2729297420247361,
          -0.049762316407445106,
          -0.22077335540031914,
          -0.04275945470694058,
          -0.2382847848143275,
          0.14476270010811196,
          -0.028160874592111963,
          -0.05046082102018379,
          -0.44094824080604783,
          -0.18104133267070358,
          0.2674933134426836,
          0.0642045811118489,
          -0.11502033514996646,
          -0.055985833082063056,
          0.09495501643293479,
          0.019115641183584536,
          0.005203401247451261,
          -0.3335632840851265,
          -0.10273725037869283,
          -0.21289797038902378,
          0.0271880795259179,
          -0.251325271808278,
          -0.2564904131500693,
          0.05776116198843368,
          -0.18474219782349138,
          -0.1608510486382336,
          -0.08536636268421455,
          -0.5506012355716015,
          0.20505986896123105,
          -0.054544542936009036,
          0.046011553731636054
        ],
        [
          -2.213924744548979,
          0.11892216463115154,
          0.3504771607606861,
          0.6302082065163033,
          -0.02438656512175534,
          -0.14347114921210335,
          -4.20635423123426,
          -0.5491522966874965,
          0.05412187287577626,
          -0.2555496115758157,
          0.6002156229329716,
          0.7023526994604327,
          0.37627423032864266,
          1.6679041432080821,
          0.8576612812008161,
          -0.10874473210521433,
          0.0385709490759334,
          0.6677177126235673,
          0.036577962204811576,
          0.03518260166140802,
          0.2108882884718966,
          -0.07667893942244196,
          -0.06256455928962805,
          -0.07912009114898753,
          -0.2837777165443813,
          0.027529159556318423,
          -0.04036651443208967,
          -0.00971512023381284,
          0.009798532863675007,
          -0.0301340845474058,
          0.09358072491424528,
          0.04238458298981362,
          -0.010941355251504794,
          0.17021085242181647,
          -0.010004787312198688,
          -0.03668118736359385,
          -0.15089986314635778,
          -0.12676881911232651,
          -0.03875211733335518,
          -0.16695407902938303,
          -0.14745339522434164,
          -0.042258757300157754,
          0.09476066889277786,
          0.29562349932755155,
          -0.16284868366873242,
          -0.02131354939191915,
          -0.00426648693335379,
          -0.026244281932967843,
          0.030090809487590086,
          -0.05897269733042936,
          -0.09961724666476457,
          0.3390508775014981,
          0.044238188684642174
        ],
        [
          -0.06763979076094144,
          -0.04480398682402047,
          0.4045596426395133,
          0.44435784094397257,
          0.4059077710801654,
          0.015523745056594922,
          0.06010433741963984,
          -0.0031693508057745526,
          -0.05823917850528041,
          -0.040949251422238375,
          0.010769936529767507,
          -4.847055775868612,
          0.137464478900131,
          0.07450827051898887,
          -0.29339629203398865,
          0.5691349764129283,
          0.7298896178489005,
          0.6850834183401555,
          0.3120615755427958,
          0.040513103776635466,
          0.10107308760604616,
          0.009439321705923466,
          0.02085569679910341,
          0.04393090033577018,
          -0.11120105671372241,
          0.5667918919136976,
          -0.1896181699415742,
          0.21013219435134678,
          0.054769058715721505,
          -0.04741715213780657,
          -0.012883807471114964,
          -0.0011344694379250655,
          0.2285097891360117,
          0.005224683341605368,
          0.017316807631123223,
          -0.004201830240536549,
          -0.007839511910234206,
          -0.00766668145309563,
          0.07316316878455259,
          -0.03885324746984444,
          -0.03244849676925075,
          -0.06962060578194884,
          -0.027091441726701887,
          -0.9326971682567784,
          -0.04784538199481035,
          0.13257025733190594,
          0.2647390892802528,
          0.129216792415224,
          0.053083115780657796,
          -0.2393488295546692,
          0.5260731435338508,
          -0.17865849879311174,
          -0.19156357085038825
        ],
        [
          1.5773717996782504,
          1.3297589418613693,
          -0.8951233339613225,
          -0.47483716802123044,
          1.6288114411466657,
          1.287324307645644,
          1.4954104997807938,
          1.1092821667396386,
          -0.7530139727147028,
          -1.9080494966509216,
          -0.5962656092116778,
          -0.2692453890138988,
          -0.22782551991092523,
          0.6835070490618181,
          -0.14389370113706237,
          -0.11789722257343657,
          0.042178052345449704,
          -0.10001691781436917,
          -0.08356201757299025,
          -0.12401036687101093,
          0.05059293146162208,
          -0.0008938249535993406,
          -0.08633646184712761,
          -0.24189570900697818,
          -0.12561180096647168,
          0.16092260859960597,
          -0.06770907006857829,
          -0.044719161265156085,
          0.026859885490251544,
          0.050096817259303976,
          -0.10893807066001808,
          0.038283254021164684,
          -0.06166217320512993,
          -0.017201139812257963,
          -0.06187109929220705,
          0.004938847060075864,
          0.020196599551652983,
          -0.16802400758990244,
          0.06736258511960488,
          -0.16128686904738337,
          0.05147101318410923,
          -0.19399792043447783,
          0.07578828713022814,
          1.063650056149872,
          -0.8960356972955625,
          -0.14411612446719738,
          -0.08103651643234476,
          -0.18283420726631303,
          -0.07891384772917198,
          -0.1434320563038472,
          0.3670091854985496,
          -0.29775846900590214,
          -0.0705745945849532
        ],
        [
          -0.5265933045485276,
          -0.00434416850679836,
          2.006235519814536,
          0.017659052187590965,
          -0.8919044591722887,
          0.5688351861954799,
          1.0207333025252803,
          0.17862786759551966,
          1.4188779197163073,
          0.12361699684181647,
          -0.988875552325451,
          -0.4538313582623605,
          0.09416019205564595,
          0.15379785588339012,
          -0.7938775653890812,
          0.009757735555713383,
          -0.3221957008595316,
          0.025700621784267623,
          0.23671018691156603,
          0.07847684934637489,
          0.014098602604071234,
          -0.3206647679595257,
          -0.6984978499831741,
          -0.5754615252008402,
          -0.3348466492101041,
          0.542141635842866,
          -0.045918361539569,
          0.16973000980068365,
          0.07917034338611027,
          0.009884008200806175,
          0.01885975244411847,
          -0.10179771075357708,
          0.04278442180357461,
          -0.02666580319835403,
          0.011057180916037914,
          0.022298269701448093,
          0.24941435580454718,
          0.23627545928290894,
          0.13217889775704897,
          0.040648634672047324,
          0.11200115458701897,
          -0.20834546824920572,
          0.03469350721240851,
          0.23992198089099304,
          0.41164236385918207,
          -0.007995360575682493,
          0.024446866376142594,
          0.0004071585860325039,
          0.023646656801779315,
          0.14917011607247677,
          0.39581139389534664,
          -0.24831026123399488,
          -0.08525363084742177
        ],
        [
          -1.1067412165471,
          -0.5538692459589727,
          -1.159722562810415,
          1.3347253027822228,
          1.0943231662260733,
          -1.8451556472585933,
          -0.15217899257069228,
          -1.1662873778030687,
          1.35223081059979,
          -1.3271763013750844,
          0.19678407131778133,
          0.7925628680464037,
          0.3484480819396771,
          0.44018511757297857,
          0.29183981608593157,
          0.23648273695034067,
          -0.34378683534347737,
          -0.08724096417750452,
          0.4715852814436835,
          -0.023731246879572208,
          0.14018650158108129,
          -0.17940573443752553,
          -0.29908912213517796,
          -0.11044469996318912,
          -0.07118773524990879,
          -0.36922573053842017,
          -0.2962048961241391,
          -0.301635391294082,
          0.18053990091939268,
          0.12280807200376866,
          -0.05196295590178993,
          -0.16115186087934655,
          -0.19497244187650709,
          -0.12143417843789714,
          -0.08008625002202702,
          -0.018596631930834828,
          -0.2623487790043297,
          0.1975695168778514,
          0.17379706135586878,
          0.4362968124155225,
          0.3451420249256355,
          0.15822483426390777,
          -0.20108407031350647,
          -0.3546126233245712,
          0.7613062693244624,
          0.01861380916048083,
          0.03452327981518662,
          0.03631963830664561,
          -0.39650256914226606,
          -0.056354044008556974,
          0.5955582789867877,
          -0.32559756701650994,
          0.049644634257422354
        ],
        [
          0.152635211959946,
          0.04510205980239222,
          -0.09014788869123337,
          -0.06975615812236759,
          -0.10748515627207923,
          0.11438785857144267,
          0.12352093870952445,
          0.21011403128242875,
          0.21854602648597826,
          0.1091734888204919,
          0.06211186424950606,
          0.3122147117749116,
          -0.06244321726538076,
          -0.16441272066898174,
          -0.20729237368946252,
          -0.021263437896052503,
          -0.08917887395700738,
          -0.51797663508573,
          -0.04703091059437469,
          0.15379999124842905,
          -0.025203614162992237,
          0.0762676245985877,
          -0.1359395426688445,
          0.2717835196468007,
          -0.2015334651008783,
          0.17333740230360078,
          0.09191959682853063,
          0.25201916263173196,
          0.15670729975493802,
          -0.08559577027366146,
          -0.0315263461898985,
          -0.3192515691681945,
          0.06475452764293195,
          0.25769544144082307,
          0.2725224115100731,
          0.07989668826088298,
          0.17938139555433913,
          -0.003791369750075651,
          -0.21841045011219193,
          0.37852564585463294,
          0.1338487108129641,
          0.0010825900711208154,
          0.25023409412480824,
          -0.1730037196974465,
          -0.1011229111508406,
          -0.31217886418439833,
          -0.23756769469761488,
          -0.06305294915538949,
          -0.14900202621857422,
          -0.14070909002234241,
          -0.20606703283367908,
          0.3011466860300425,
          0.38314423223682625
        ],
        [
          -0.43366655067117393,
          0.1861121385749431,
          1.228309056293432,
          0.4937042062756454,
          -0.41029129776607737,
          0.34471272981499146,
          -1.4249962617153102,
          -1.069998816611736,
          -0.6793911107592762,
          -0.06583197345532922,
          -0.44717508223683633,
          0.0500826154008833,
          0.38101941990304744,
          0.5476429497091223,
          0.4056602234628866,
          -0.10153953773754264,
          0.10344838573108038,
          0.38269106197347996,
          0.08549526177395185,
          -0.19562974382714596,
          0.051265103286761426,
          0.15249860162306775,
          0.8697274862135091,
          0.0329308252789377,
          -0.10179721175731461,
          0.8931266190346827,
          0.04466728590656259,
          -0.16668290696467378,
          0.04571958203933763,
          -0.18174105923316455,
          0.07227431563057998,
          -0.03182035194258132,
          0.0036736683117056523,
          0.02020572892822158,
          -0.0423368323680602,
          0.009138819900180124,
          -0.19923065889851896,
          -0.1361916970382215,
          -0.0515930935384261,
          0.464185534622576,
          0.1047155160290408,
          -0.08681675514292903,
          0.08381103341468144,
          0.06473399946942562,
          0.3349399392890822,
          0.010721787768865074,
          0.25545614388616794,
          0.11943201225031004,
          0.07483779528301299,
          0.06856274211792061,
          -0.015904485649909934,
          -0.1977620261430007,
          0.19221558378363676
        ],
        [
          -0.5894380272902228,
          0.85315917243704,
          0.1652898950664986,
          1.1879760288211916,
          -0.6199717602213074,
          -0.4921428262075327,
          -1.4577952098557827,
          -0.26674571894651394,
          -1.0414085947918008,
          -2.1460981150170984,
          1.6862639908299553,
          0.18233882061805168,
          0.33104425763149464,
          -0.3676155364217722,
          0.38063729711765715,
          0.2235028865623393,
          0.162587068831603,
          0.595323745461562,
          0.6630636250087817,
          0.06730533583958093,
          -0.219670263665604,
          -0.4441523096962206,
          -0.676509783012239,
          -0.5466495847432462,
          -0.7482250327266584,
          0.30348477001641366,
          0.3988008108803002,
          0.5133056290312427,
          0.1690259059366183,
          0.0174628308350991,
          -0.2245703172759515,
          0.05110829429647309,
          -0.0329755723983695,
          0.0060132956662538265,
          -0.0033976319838312135,
          0.04589297141237919,
          -0.15855923777871295,
          -0.39592413585796166,
          0.08171162928364277,
          -0.2825175146418922,
          0.3398383733110222,
          -0.07344105857294715,
          0.015120287736860596,
          -0.17421810911247865,
          0.40159548687137275,
          -0.03435049502368538,
          -0.005297194288704714,
          -0.09266670818147732,
          -0.12097302279351542,
          0.0523972057149099,
          0.9870578528775943,
          -0.5659489797276646,
          -0.05864871306108645
        ],
        [
          0.17277551764539242,
          -1.090297212294169,
          0.7754798466857266,
          1.012300500720519,
          -0.19911878353930956,
          0.8583354017575964,
          -0.10629743437269877,
          -1.3303158326498226,
          0.18823860042263219,
          -0.8099417857729756,
          0.6365299807003547,
          -2.9931253278172356,
          0.15029456988963286,
          0.5164513442468915,
          0.30313179345242275,
          0.7054807063307619,
          0.34971516183378265,
          0.16369032213232845,
          0.7874588775759519,
          -0.002922767822217979,
          0.1960902527720981,
          0.61703161435543,
          0.32007140445495846,
          0.2961560504122358,
          0.6248487679237835,
          -0.1761084110592892,
          -0.2408350171230811,
          -0.7538967926649046,
          0.014312007824108696,
          0.08075489466224622,
          -0.04370047285014019,
          0.032731215543185324,
          -0.05648309870380413,
          -0.031059528782570612,
          0.04853919866455569,
          0.04449400518514623,
          0.11035206103632648,
          0.05564534148769083,
          -0.15034399504020582,
          -0.1527537599073715,
          0.304061046768456,
          -0.00696351923963163,
          0.08950886533975917,
          0.03124258201143278,
          -0.23534547956359533,
          0.05387669154245832,
          -0.04505179006764402,
          0.05110726005391407,
          0.17951748942389478,
          -0.2327947334866372,
          0.5029199487445901,
          -0.301908080617284,
          -0.04580374471753556
        ],
        [
          -0.23124713257997448,
          0.7682998808762193,
          0.5703658932338705,
          -0.2699990034889286,
          0.4909646910850224,
          -1.2720322438831742,
          -0.7058795211241161,
          0.10115384623435267,
          -0.0032898777382238714,
          -0.7119868688431248,
          0.5248622675989298,
          -0.4242709687815099,
          0.013911977347695073,
          0.6951987918600782,
          -0.34236703140298747,
          -0.3950710134709866,
          0.9148873674241836,
          -0.11220692365663831,
          0.3706897503419683,
          -0.018853386159659834,
          0.06560376554381607,
          0.5006082519331659,
          0.08310219246037528,
          -0.21910248624557757,
          -0.20175820441874553,
          -0.10165540555158666,
          -0.018782179384361906,
          0.19834155974252277,
          -0.06873634823916526,
          0.1339465428889077,
          -0.0558065002950009,
          0.08087046506779778,
          0.2584221308830435,
          0.1603938399429733,
          0.0740822104401294,
          -0.06397495161252029,
          -0.008079596904931001,
          0.32571934140514025,
          0.14583551132341244,
          0.8557052821515199,
          -0.279742199675027,
          0.44857634119919,
          -0.34303650045921913,
          0.21265404362600362,
          0.10966656932721422,
          0.1353019833901718,
          0.1728734385942947,
          0.13240811287955137,
          0.23273195581754855,
          -0.06597838536528645,
          -0.05173994241847358,
          0.25640493187787283,
          0.3883167723309633
        ],
        [
          -0.03015470327033,
          -0.24531609491180192,
          -0.19183146107721935,
          -0.15027437191881837,
          -0.2333875223647842,
          0.12872207822705956,
          -0.02070708286722893,
          -0.07998541329891451,
          0.25570486228928063,
          0.13261002063775687,
          0.2202108787237664,
          -0.3408883472539106,
          0.04594095299591273,
          -0.10479835089163388,
          0.21965137738592727,
          -0.2484872165747158,
          -0.026991325265472123,
          -0.23009473198971575,
          -0.37742890943609186,
          -0.03590275762057346,
          0.21492149737387953,
          0.20935457713080838,
          0.14760990009379538,
          0.0461594981124752,
          -0.25917383646381476,
          0.06513523532151796,
          0.08969968033314668,
          0.5326361310548529,
          0.6018244179706176,
          0.6449143664308374,
          0.47221545604600623,
          -0.05565594977477274,
          0.2442046522668549,
          -0.15297384103652165,
          0.045043375111209365,
          -0.18900710785803687,
          0.0029649250187375573,
          -0.0704495854568713,
          -0.04689281846441084,
          0.6030026086532585,
          0.568818348245421,
          0.5463749707501249,
          0.5659575246097204,
          -0.6037855281467174,
          -0.6583616684306984,
          -0.018084985343669674,
          -0.07659462275893181,
          -0.08886010132446504,
          0.09421871247026381,
          -0.1282599547918834,
          -0.3768787399095095,
          -0.1957609740104356,
          0.3279421130032977
        ],
        [
          0.16885673052640018,
          0.48787902063533156,
          0.13153466430373983,
          1.1375312100264925,
          -1.0386514419914439,
          -1.1176512832219476,
          -0.036770224787105184,
          1.1223757875108276,
          -0.9880809559961559,
          0.08937318498750324,
          0.7897314955130694,
          0.5636621480554919,
          0.18215554049285176,
          0.5225743299599854,
          -1.5624370121642972,
          0.1366090220950837,
          -0.10078601263666992,
          0.344895429970576,
          -0.06252402982897291,
          -0.112714617680395,
          -0.00927290034293157,
          -0.15641523949105035,
          0.5154174020335452,
          -0.04025484384210647,
          -0.042368109284806325,
          -0.08412228742910048,
          0.07011369659379202,
          0.02651281687436934,
          -0.08657173571310443,
          0.12783741548397126,
          0.06383425410692277,
          0.058413139779586995,
          -0.05248928150265275,
          0.004044848048996079,
          -0.13625357832107504,
          0.006813524542222125,
          0.2700643955411605,
          0.26501946665001996,
          -0.10430861841741991,
          -0.0306834671675499,
          0.28439112370978586,
          0.017986993032555014,
          0.09628738530562687,
          0.2125643618051719,
          0.39235922274302665,
          0.019243657628494133,
          -0.10552349054148752,
          0.05212178602129225,
          0.009716061932221744,
          -0.06529151975825769,
          -0.005040661668402391,
          -0.5219224709383762,
          -0.2155719524395337
        ],
        [
          1.0023076456128834,
          0.14123070970016866,
          0.8909702875512233,
          0.30548848293604947,
          1.9620201429558448,
          -0.7961808321842918,
          -0.15582677663731623,
          0.13053781543102855,
          -0.7903220737226232,
          0.3277740812418441,
          -0.4053689779755756,
          -0.12165854484690683,
          -0.13853469341553817,
          -0.641912434287163,
          -0.6468495637681495,
          -0.5739351926209392,
          -0.5035106472970363,
          -0.2571218529942701,
          -0.31586748018499083,
          -0.10605064455499544,
          0.04942325578866853,
          0.3172851042745156,
          -0.08316293780994624,
          -0.040366690636471504,
          1.7522127121341384,
          -1.9002158800235147,
          -1.078397334746619,
          0.2742937628410015,
          -0.02779811148863329,
          0.007720657930099896,
          0.006808062008750573,
          0.05275649689293377,
          0.2456106561161183,
          -0.054188557136097486,
          -0.011735257439619617,
          0.032616435002775064,
          -0.04826658074558365,
          -0.05554274520061303,
          -0.01893457926789552,
          -0.05241299441922269,
          0.1069100296935131,
          -0.09428715750559535,
          0.05328163946355179,
          0.23959236392059952,
          -0.1412591939964594,
          -0.03867007731765576,
          0.10874383163358706,
          -0.06598888071585113,
          -0.0003846792383558156,
          -0.026256780257250707,
          -0.47481621465941526,
          -0.059195744387424025,
          0.00009404889594813967
        ],
        [
          -0.49314060264028076,
          -0.7098822351352242,
          -1.4001755766579596,
          -1.8421392373746626,
          0.07076982167382381,
          -0.2149839534329491,
          0.15258245551114893,
          0.3022594736386199,
          -0.4879429374740694,
          -0.9226190768372801,
          0.18191417265452423,
          0.41155100214645524,
          0.28322126182808527,
          0.14480822595836956,
          0.5140925780960608,
          0.7287414815063636,
          0.8204952306078208,
          0.7361913073571131,
          0.48357250088777864,
          0.006282990086360049,
          -0.041654129580804125,
          0.2502070936002223,
          0.6054143351553364,
          0.11151487778967596,
          -0.6749083054104089,
          2.2864368265809256,
          -0.9276969428390197,
          -0.025652400359609463,
          -0.01598232909077411,
          0.0036894814674751425,
          0.058781367516915026,
          0.01623921020810534,
          0.2584417893178742,
          0.05079202665233101,
          0.03884740387826523,
          -0.0057344651108748815,
          0.03221218969209138,
          -0.08827222364394065,
          0.07413058267040998,
          -0.08530832020251314,
          0.010450324837292477,
          0.00823803176534943,
          0.14310574196923576,
          -0.17364286358598527,
          0.196711215532061,
          0.19007457323419868,
          0.26615684913932275,
          0.24577688719106297,
          0.22993125530580766,
          -0.27502802949502103,
          0.4159577331235458,
          0.7587187038981625,
          -0.20908513306407445
        ],
        [
          0.036707058333492325,
          -0.3761204831793376,
          -0.16631062498561774,
          0.018102628069016302,
          -0.010848206644543106,
          -1.3195722483238612,
          0.0962978383415718,
          2.063406123766037,
          1.370939875633832,
          0.1768315605747555,
          0.9628174082646747,
          0.30708540751223495,
          0.10345819243417766,
          -0.7223004553354251,
          1.158541973414946,
          -0.45788886840929727,
          -0.7838712901019439,
          -0.34519738386930177,
          -0.2791118114697376,
          0.08095814452623622,
          0.4202951496893203,
          0.007489113783295117,
          -0.004437756066199008,
          0.13003976320876984,
          0.616529080458305,
          -0.0004926699494970251,
          0.6457785004942825,
          0.02347514897853924,
          0.12877034378025423,
          -0.2725812361904264,
          -0.2038613793081689,
          0.051402127436755124,
          0.07674118274499223,
          0.06416409246071884,
          -0.037547084086138216,
          0.07322402619612069,
          -0.03530290468352656,
          0.1648017292161809,
          -0.048959083887419576,
          0.18686784501667644,
          0.1477318939566023,
          -0.16963762326549905,
          -0.09947589011976544,
          1.102668384682073,
          -0.16989989660546356,
          -0.08077250586501858,
          0.03665624273665276,
          -0.1035804938907425,
          -0.111230577888758,
          -0.13402841737513482,
          -0.6277526353744588,
          0.1752693092446733,
          0.07781185309254897
        ],
        [
          -0.6884708259053473,
          0.9099540627957475,
          -1.258993796086539,
          -0.40647237348779547,
          0.25338240448358673,
          -0.7602606432042619,
          1.6545301138068687,
          -0.9710294758304616,
          0.11458068340308263,
          -0.3971897737081539,
          0.9052647341313541,
          -0.19141923199526578,
          0.15143480087889033,
          0.29694172314691875,
          0.5630793765939546,
          0.2693034658984919,
          0.12153732575674486,
          -0.244941169991609,
          0.01057843380748002,
          0.058422612619473,
          0.008952547777075945,
          -0.3849874588845294,
          0.14120960271883648,
          -0.0650210143535094,
          -0.5716367947386836,
          0.1321371712100046,
          0.5993189850892683,
          -0.2715083483122182,
          -0.02403078646567916,
          0.07604845495690568,
          0.03711969557788834,
          0.135209400322379,
          0.05434020540218855,
          0.20549342687722683,
          0.011264524791455207,
          -0.002963949380893353,
          -0.0701822620181053,
          0.23701304792853992,
          -0.03975476742293104,
          0.036719705260775164,
          0.23521822809879128,
          0.21929994138157963,
          -0.13761079001266283,
          -0.02408062824285941,
          0.1671125520167755,
          -0.058397501872546116,
          -0.04332812873999711,
          -0.03924592433563783,
          0.1704361949929563,
          -0.021755339722470724,
          0.35407668976099754,
          -0.43534166333312485,
          0.1532975428683844
        ],
        [
          -1.0887785974167037,
          1.6074259535437916,
          -0.37775198261745013,
          -0.8542430596403973,
          0.057477082307000035,
          0.5682735154404104,
          0.44688631482077185,
          -0.3205412723227519,
          -1.364469646149979,
          0.7275258948075299,
          0.7724303876001133,
          -0.14562000282075227,
          -0.39243268751669386,
          -0.5448870376375813,
          -0.47800848933226125,
          0.43984976674239135,
          0.5583266178047466,
          0.7394423303678457,
          -0.4197586024019696,
          0.019226324836770538,
          0.13850593360066982,
          -0.2438694921296007,
          0.015000689607520382,
          0.28058889665563697,
          -0.15197572393565165,
          -0.2785206336822802,
          0.3023414873119879,
          -0.33585073650696,
          -0.025276215116625773,
          -0.23472631188198428,
          0.3684521555579523,
          -0.12873232379038832,
          -0.2679249460822561,
          -0.18902342106827022,
          -0.12965683219148308,
          -0.18034720495352655,
          -0.23364806536246568,
          -0.10678902538780316,
          0.05528310991946254,
          0.1060031183489247,
          -0.10255659111430757,
          -0.26672457336339167,
          0.6738779167825766,
          -0.12068009523418273,
          0.02825070831199403,
          0.1563635504000948,
          0.08337374983339742,
          0.15278175108244962,
          0.16334542728204232,
          0.30422240412403745,
          0.5784654209692895,
          0.24047400247874406,
          -0.1656589951132852
        ],
        [
          -0.038942885366520984,
          0.3380555596000844,
          -0.11106588475439857,
          0.08535351395556554,
          -0.031326906846673275,
          0.05199114141743889,
          -0.03784850737431382,
          0.10368719297457932,
          -0.05695523775846362,
          -0.0008383677013230408,
          -0.208812597889631,
          -0.1616515216867179,
          -0.3086981166639364,
          0.12143199801393272,
          -0.3316905594843496,
          0.0110644578114859,
          0.1729954665914215,
          -0.20738466096729793,
          0.038544126992766894,
          -0.14680628885238503,
          -0.20246104101731854,
          0.12708731237131377,
          -0.1464028637594213,
          -0.13887213435127987,
          -0.006688700205458706,
          0.1539968926098132,
          -0.00252191767206336,
          -0.03366497601376977,
          0.30556521227639005,
          -0.1705718911150145,
          -0.09930916556426125,
          -0.07740229952609634,
          -0.2134615947294315,
          -0.1294564969852631,
          0.18937570012683233,
          0.021719882925117485,
          -0.17989913452619213,
          0.06843240882033194,
          0.09210313031303301,
          -0.07719250407513693,
          -0.4762842743946614,
          0.0581047061480633,
          0.11064823024210335,
          -0.073356616085883,
          -0.11127445095303742,
          0.02614030290440472,
          -0.027594965907851116,
          -0.24525851454062242,
          0.13486635391997778,
          0.05890847037903103,
          -0.11180285855126869,
          -0.12153352655198565,
          0.08811773515552287
        ],
        [
          -0.7403921396314199,
          -0.5373456587215384,
          0.3945441095037328,
          -0.07086097060258222,
          0.6701536870139613,
          0.7106876132859582,
          1.307928032809,
          -1.1498330434355184,
          -0.6778583167165892,
          0.5341128903349104,
          -0.5879374476938622,
          -0.037477678317872534,
          0.022951109953477957,
          -1.177492614505514,
          0.24923618066953468,
          0.2872084536236569,
          0.44714292535980826,
          0.11403625879817234,
          0.33877355253178715,
          0.16505267011064909,
          -0.06673955080763891,
          -0.16376953267512492,
          -0.0007307762825864196,
          0.05470780297658845,
          -0.2223043537499368,
          0.2906412110627552,
          0.2889652942977966,
          0.26915803770609914,
          -0.06364067970516443,
          0.09329252194039668,
          -0.19016800689405636,
          0.09915425494037666,
          0.31059741290604986,
          0.11526064569497557,
          -0.07106016145719975,
          -0.0024102625923440794,
          -0.009343871059812369,
          -0.008248893849350111,
          -0.06482571699880073,
          0.08960107957431049,
          0.04157079890290949,
          0.1504805954862625,
          -0.22876466612405497,
          -0.3183350395339591,
          0.8462589602063247,
          0.07593741409857509,
          0.12995151403755584,
          0.03631702644919273,
          -0.04793349421457395,
          0.2615355512483245,
          -0.11326050980073846,
          0.40780427613741227,
          -0.22309759260938483
        ],
        [
          1.6958313999153896,
          1.2151802129474856,
          -0.6727031411314198,
          0.31267629113613316,
          -1.805143441463481,
          0.5007041098464377,
          0.9738340439243593,
          -1.27004893335081,
          -0.35338251399475984,
          0.030830064406526258,
          -0.09332495780664764,
          1.2455806621529861,
          0.5880985599340106,
          0.7011736748456896,
          -0.19931941952071508,
          -0.5405055072597379,
          -0.2802839148246317,
          -0.12980010900586703,
          -0.307637581866215,
          -0.05078196304464497,
          -0.06620140250637056,
          0.019754268115962974,
          -0.24941019241111842,
          -0.09484765542498877,
          0.6698518741504892,
          0.42308973835756636,
          -0.5885282956349753,
          0.2709844708219761,
          -0.06810581605026832,
          -0.14474690123751638,
          -0.10550004734444973,
          0.0064719631821758,
          0.19092231647417748,
          -0.006950965320245591,
          0.0011939310865262595,
          -0.009012560958348244,
          -0.004344287083806757,
          -0.041344564740342114,
          -0.02787241726201845,
          0.03948901598937707,
          -0.045078505908272996,
          -0.1806611608624419,
          0.028462106730663937,
          0.13374609213090752,
          -0.3639655288944187,
          0.1290739997768921,
          0.26331476040671375,
          0.1796518452110352,
          -0.014333332588808752,
          0.06213679342054648,
          0.6070276534615248,
          -0.34661348129078884,
          -0.028188175484083373
        ],
        [
          -0.22651415816318116,
          -0.08771803850241416,
          -0.32592353551002423,
          -0.004242197016301966,
          0.15582210704043534,
          -0.21381202975420208,
          0.15452581709123644,
          0.1480958406925872,
          -0.04931580582961356,
          -0.1854983539436537,
          -0.292081959930678,
          -0.14367348804781258,
          0.09471679280150506,
          -0.1012731191201285,
          -0.24490732327647585,
          0.35280692568736005,
          0.5518773172213746,
          -0.3206685815836687,
          0.24225646583350582,
          -0.03890596869548117,
          -0.2688837088878267,
          0.08293566995930884,
          0.16116690022256205,
          0.05319925124412793,
          0.049888643165384196,
          -0.22426178219524814,
          -0.08477326573136668,
          0.154591574159442,
          -0.23540844485041548,
          0.376968156262432,
          -0.12382178301623663,
          -0.03575030610965797,
          -0.3100827526301532,
          0.1954922848924659,
          0.25124198130331155,
          0.07497252810816467,
          -0.18948688068411776,
          -0.01643892878901475,
          0.19778835935824324,
          -0.1357261472165153,
          -0.14933883653276855,
          0.4504530785904891,
          0.17629180635502575,
          0.3111486932936047,
          -0.8233177724682672,
          -0.10151345670089697,
          0.22195235356590026,
          -0.20271042641416293,
          0.2608656042642282,
          0.08800369241229504,
          0.22607975091858748,
          0.04316316203787068,
          -0.371452174635903
        ],
        [
          -0.6331491985123965,
          2.8146311575426575,
          -0.8435081087409714,
          0.7280572442363282,
          -0.6965535422942485,
          0.18282136576409666,
          0.0949178412721403,
          -1.8753356068195426,
          0.7695049015695002,
          0.9343394038954514,
          -0.6137448343249431,
          -0.044454331739692425,
          0.007443354052712477,
          -0.4886143801853684,
          -0.47846388634674997,
          0.26908865799313464,
          -0.3998901694971784,
          -0.2619195585934713,
          -0.284764029803847,
          -0.03048516945285557,
          -0.12238432006428333,
          0.5512978591242271,
          0.9667083235818522,
          0.20359700326277363,
          -0.004186722577468633,
          0.03818539169910103,
          0.1989355867523385,
          -0.20806308514713162,
          0.055821306258316924,
          0.1870247545554672,
          0.006416640157656115,
          0.08067150092273113,
          -0.013115825522908247,
          -0.00030088118409748993,
          -0.039328096089537384,
          0.09114688037585263,
          0.3893123754499576,
          -0.005267582623798725,
          0.01252607641173963,
          -0.33618891163148873,
          0.06793149192435056,
          0.30233420755243534,
          -0.13174341361894695,
          0.0949716514991956,
          0.1950454081250357,
          0.038856256726056415,
          -0.011392250091191781,
          -0.012380746420614255,
          0.03719014140917786,
          -0.18466324337367182,
          0.2195695474225685,
          -0.11699117238936545,
          0.07043386699994372
        ],
        [
          0.10047656407681914,
          -0.8492371675262391,
          0.0009730170773733966,
          0.9971316458840526,
          0.365667309126857,
          -1.8611589886095534,
          0.43572017809837627,
          -2.02152918170995,
          -0.002445443790120091,
          -0.44904727958683116,
          0.26216818008739806,
          -0.3707673390983366,
          0.14975378360384944,
          -1.1716189096054446,
          0.760720646268438,
          0.2967754802719087,
          0.24099166540904524,
          0.19090305772723376,
          0.6065780446379795,
          -0.1737362001196357,
          -0.142961465859655,
          0.49731030007191535,
          0.19793750763575524,
          0.7378144525528716,
          -0.6324235960456662,
          0.08062071638489543,
          0.5795133334890956,
          -0.00914714550453693,
          -0.026886861072217043,
          0.07267316447251138,
          -0.054146923944238715,
          0.022679246475329266,
          0.2925503528445046,
          -0.024731455605181897,
          -0.0032030065038751465,
          -0.0536911313249852,
          0.2661974364163407,
          -0.10420882174011,
          -0.04905554652113212,
          0.21385111647359228,
          -0.28255190635661087,
          -0.348443395726629,
          0.02255156084946747,
          0.1643927390564927,
          -0.23995824217615827,
          -0.000950047677832229,
          -0.03987809485071914,
          0.11550393178402198,
          -0.059259514776520146,
          -0.09488570535429598,
          0.6952507111901158,
          -0.4296024968234875,
          0.17347270290653144
        ],
        [
          -0.2343933393812171,
          0.004783498878566337,
          -0.35737795185785914,
          -0.054829212208971904,
          -0.30836717988239953,
          -0.18437910761032697,
          -0.19219856608689437,
          -0.28202253581494985,
          -0.2391530966488597,
          -0.3637286236948948,
          0.1640161577594772,
          0.2572790294047703,
          -0.08193224642626364,
          -0.13158647844347077,
          0.23801387739153487,
          -0.24705909753622435,
          0.08241796422605377,
          0.03818491237824334,
          0.34437647954470674,
          0.07589911141385158,
          -0.013099099358153173,
          -0.1688791958796389,
          0.22263953926690708,
          -0.10758502912222233,
          0.12510942178005346,
          -0.01917756955258978,
          -0.0914153786772899,
          -0.2654097449537801,
          0.017938059605453235,
          -0.06893258096345949,
          -0.019041236238951435,
          0.016127928458296508,
          0.04841014584363329,
          0.0372400985346305,
          -0.3712778387070376,
          0.11861726760507905,
          -0.15755885445875392,
          -0.07183391286514126,
          -0.3696298543240491,
          -0.16649877090406073,
          0.07036482908206826,
          0.3956371019142898,
          0.22136042176684695,
          -0.006588948053220903,
          -0.061463218184782585,
          -0.42470359953506887,
          0.0030438062895134497,
          -0.10819355821729898,
          -0.08123545423273526,
          0.09939170300407374,
          -0.2864163107125352,
          -0.005388826432752198,
          0.38576480601434154
        ],
        [
          0.7006842876918773,
          1.0697357959614566,
          -0.4902793408988638,
          0.17720518909894442,
          0.0418832823219453,
          -0.6310204241663518,
          0.6960119288760991,
          -0.31089125915869903,
          -0.260507817475086,
          0.003241987854235416,
          1.0946293309356698,
          -0.4659174631535722,
          0.18196971358679015,
          0.03423075942558323,
          0.4197292101552714,
          -0.2462317182964636,
          0.1587002567312794,
          -0.010547042121782684,
          -0.4805317532029831,
          0.21922056779070623,
          -0.11608147767253744,
          0.0019053015006829921,
          -0.2289686252596921,
          -0.3687903475731774,
          0.002988053717378301,
          0.11727668393264366,
          -0.09736081454728648,
          0.26220983188216057,
          -0.16409777086673719,
          0.08164120074155352,
          0.19266803954116324,
          0.013098212663561828,
          0.08201670660839516,
          -0.03321555895346805,
          0.01998102062224809,
          0.09663705298488032,
          0.002684273835065297,
          0.5419651858112077,
          -0.0013731256586070198,
          0.6851522913346276,
          -0.3125827481243954,
          -0.015019723279457388,
          0.4486704936779722,
          0.13344659604866851,
          0.5321215193589527,
          0.27534328000210884,
          0.12089322731841809,
          0.2842304391944636,
          -0.23438264304348638,
          0.41392310607734206,
          -0.16463877806542493,
          -0.6981633521664833,
          -0.29573366756915614
        ],
        [
          0.3982674081257851,
          -0.6299109923431406,
          0.420471045120651,
          0.8035696531763334,
          -0.14846398407279432,
          1.3443125017353992,
          0.010109194135508901,
          0.1267679711023414,
          -0.8518919730866287,
          0.5713208592310919,
          -0.021763437818839913,
          0.1339062007172907,
          -0.5447920640586791,
          -0.4363620795963887,
          1.0911634925500906,
          -0.1229094865986839,
          -0.41868840063031654,
          -0.04988824605190504,
          -0.3702080518842628,
          0.22040263427506931,
          0.05504369832683836,
          -0.7336944397219345,
          -0.6663175635779292,
          -0.8594766275269528,
          -0.6660919618190161,
          0.005096944622445722,
          -0.25417508643093517,
          0.1322677280666891,
          0.0712974405668205,
          0.07957386988506239,
          -0.0647116273446138,
          0.033359097225335574,
          -0.1410599522269973,
          0.02150022081323522,
          -0.07708445817995606,
          -0.045243689155473464,
          0.6643518713353951,
          0.16908023717674578,
          0.15409818848298834,
          -0.032900320778863526,
          -0.12668393641847767,
          -0.01891229462955691,
          -0.13986210182229109,
          0.7205354283404531,
          -0.4583086231614177,
          -0.027350890584816538,
          -0.028581993115251246,
          -0.056077391237775547,
          0.21851782770512138,
          -0.04864361694742845,
          0.3798809844600878,
          -0.2902916727704586,
          0.4359206422272347
        ],
        [
          -0.06598240667582451,
          0.1487956841396824,
          0.08792830658041996,
          0.18407934596093625,
          0.3729636621323654,
          -0.6628850061531539,
          -0.4262167741788655,
          0.9114157131929629,
          0.17848913676157366,
          -0.04691344665520844,
          -3.7725416496453588,
          0.8895332513279773,
          -0.05511367968166623,
          0.19848135299260944,
          0.1460267881341317,
          0.3111238233273432,
          0.09298045400605946,
          0.8080906037192814,
          0.33313163137657537,
          0.06306466893246966,
          -0.1966746256002664,
          0.3404368885152565,
          -0.27067070024002704,
          -0.10286247750995657,
          -0.34274319481029547,
          0.09646590688040918,
          -0.01722192238352516,
          0.003244883800393373,
          0.15373421089804304,
          -0.057565108590825385,
          0.02757508225367881,
          0.08559122127147786,
          0.0719468318140047,
          0.041698642143965514,
          0.004492997306008843,
          0.017400191765906167,
          0.01606874359554699,
          -0.04396424084921548,
          0.09749422914744524,
          0.031097317791148875,
          0.19809491682654878,
          -0.024543308044763602,
          -0.029980043052801834,
          -0.4026031360160179,
          0.007499618833795925,
          0.05666516235321988,
          0.026592609447731768,
          0.15108464890993795,
          0.12195539349865499,
          -0.022429909364227143,
          0.399714245390924,
          -0.09052774860156838,
          -0.10769556682758474
        ],
        [
          0.381297159190526,
          0.5519190076174176,
          -0.48912400881610646,
          0.774337423999114,
          0.4211429664529722,
          -0.18940491777389992,
          -0.9676216901981871,
          -0.3961855593808451,
          -1.7711913274980144,
          -0.2787832048059862,
          -2.0308849200735635,
          -0.2105011314733488,
          0.6405129315474655,
          0.603732641367719,
          0.5266776005378175,
          0.547391406430509,
          0.5324761176378704,
          0.46701760985116514,
          0.649898974064194,
          0.05550379466000298,
          -0.14792416700130898,
          -0.9968896734666162,
          -0.8255746323834015,
          0.10388850651305809,
          -0.44979219588861125,
          -0.30936229627729644,
          -0.0539964676926438,
          0.04235471852637408,
          -0.054943733782901245,
          0.14929450490249385,
          -0.06634188279010318,
          -0.05991435077157582,
          0.26478249866160847,
          -0.010991622976393828,
          0.23054977724861656,
          -0.09050282600052409,
          -0.007344670185792081,
          0.04656039834105298,
          -0.04517135046181929,
          0.17116121839072582,
          -0.03219680545814158,
          0.08606119226120543,
          -0.03404510558001013,
          -0.08472059347775897,
          0.4529962488814519,
          0.1813085014019181,
          0.016761967074428768,
          0.09606776306352582,
          -0.016466246935889488,
          0.0046145429958767996,
          0.5226113477091863,
          -0.5131921421619208,
          -0.12329480204444435
        ],
        [
          0.13612297496546957,
          0.2131043603202134,
          0.25086819385768006,
          -0.36846531954273476,
          -0.17209619731062253,
          0.07572627413558994,
          -0.4122040887275995,
          -0.3205582319070596,
          0.3623732386781791,
          0.07596912486274111,
          0.16652969169078097,
          -0.0765273965300258,
          0.16028240011493755,
          -0.10104009991667989,
          -0.028679145696755927,
          -0.05454930283084609,
          -0.29959515180068763,
          -0.24972293317260694,
          -0.3145743466397586,
          0.1522076534297561,
          -0.5865881326102143,
          -0.18568548061498777,
          0.12755841052346464,
          -0.13404855198663942,
          -0.4171315938901587,
          -0.30479079793936636,
          0.4071986776101709,
          -0.01759376217922506,
          0.023578285192791478,
          0.23209559192769566,
          -0.01801956498718102,
          -0.14392892533933746,
          -0.014485833072930637,
          -0.01153530609956749,
          0.19539338045616522,
          -0.33426492490316695,
          -0.3309293206406583,
          0.12733628119158324,
          -0.28066876183900513,
          -0.1290911121418866,
          -0.26894471927613073,
          0.09750308444604285,
          0.045728966329626364,
          -0.0014013107473339079,
          -0.11068674969984282,
          -0.2665107243573121,
          0.08597505682062334,
          0.08047415986707084,
          0.137777198254451,
          0.18909376612322795,
          0.03668945956184241,
          0.06573094438987724,
          0.13350330510810984
        ],
        [
          0.6887711550471906,
          1.0332810548802245,
          0.6096525275417759,
          0.753698949951602,
          0.5839121393653907,
          0.0054177978550293115,
          -0.8074560299204239,
          -0.6615530559689785,
          -0.007106921304021445,
          -0.18971275628878995,
          -0.1212974043660196,
          0.16781604615834694,
          -4.665248225722786,
          0.16205775934383573,
          0.4017245343660775,
          0.5375337908695967,
          0.22660759810163167,
          0.27369522687639564,
          0.743931703072658,
          -0.008036761568127746,
          -0.029694155631649868,
          0.5872274048294455,
          -0.02417143646254121,
          -0.0047929645454902,
          -0.09025947624326973,
          0.02417903674038822,
          -0.27108931948718057,
          -0.016010219854200716,
          0.022221287560492974,
          0.056143285070086424,
          -0.07593209048274678,
          0.035926760188590166,
          -0.24355367077639217,
          0.017379350225829263,
