{
  "version": "mlp-v2",
  "inputDim": 53,
  "hiddenDims": [
    64,
    64
  ],
  "outputDim": 41,
  "layers": [
    {
      "weights": [
        [
          -1.4159118970533349,
          2.0030024057403955,
          0.29383152068650703,
          -0.45803891749587394,
          -0.9817988379300557,
          0.46889163162077446,
          -0.04978952095800714,
          0.3731772295636044,
          0.0878219311878634,
          0.37979060793813135,
          0.6934622447415344,
          -0.36037704972733026,
          0.8827648138087734,
          -0.27653330674324844,
          0.724533740106789,
          -0.17103117975940976,
          0.13935907503437583,
          0.31849972753431116,
          -0.07412001669636227,
          -0.03733593827315457,
          -0.24530212000959956,
          -0.1436713807064696,
          0.24481265949832712,
          0.1835843611325255,
          -0.10024009552251072,
          -0.08740096418991822,
          0.08440266511214091,
          -0.06884261335648013,
          -0.008332761729204692,
          0.032379501428841065,
          -0.003005367248969876,
          -0.049539893851519856,
          -0.02840909144301541,
          -0.10269394732301881,
          0.06774202575320708,
          -0.06453441332224956,
          -0.12904635143145976,
          0.07662845094508287,
          -0.20239993392041852,
          0.08526348350040172,
          0.10352817741452941,
          0.037073950002874376,
          -0.037578950006897045,
          0.44090989324446933,
          -0.18567773868518017,
          0.002583278338055659,
          0.011769798187707238,
          0.01819058632917585,
          -0.060853941996267674,
          0.2788305642242129,
          0.16315872120287084,
          0.021579674174511426,
          -0.10222314811917729
        ],
        [
          0.6380693889911999,
          0.07468071919069509,
          -0.3234560377494598,
          -0.8552788720795602,
          -0.2914529891332834,
          -0.011785553360054699,
          0.09402287666753356,
          0.08008215701948958,
          -0.190621549592246,
          -0.1108442496720017,
          0.631624153837242,
          0.8501066340701445,
          0.5348630765523573,
          0.10692795204603296,
          -0.40624190355485873,
          0.7426689147329475,
          -0.265815881218075,
          0.051386004985085165,
          -0.18416924489392658,
          -0.1301013677420173,
          0.27501672112256936,
          -0.08235384270303296,
          0.031388902064978574,
          -0.05220134990299538,
          0.05799726625316606,
          0.009779454469084717,
          -0.6579816392296375,
          0.11931986545958101,
          -0.14017885194201704,
          -0.025065516049908632,
          -0.05512282262532091,
          -0.04756031642552748,
          -0.045054764801405835,
          -0.16804544543234023,
          -0.30486781523232415,
          -0.21030621122748544,
          -0.1453437503357771,
          0.07424687395622485,
          0.8823674417184022,
          0.23455594488299644,
          -0.26072975493658995,
          -0.06149262674026234,
          0.21419840875977675,
          0.3263636969310314,
          0.5226840203565141,
          0.04014976926531463,
          0.13383154153300586,
          0.09606820539226776,
          0.10838547722405847,
          0.06257211336193552,
          -0.4350008125400049,
          -0.09869638033216278,
          -0.05701976037350381
        ],
        [
          0.684127207256533,
          -0.6885660953438167,
          -1.0355175662729181,
          -1.0093295970238785,
          -0.33897799236885784,
          0.2937110169055004,
          0.0037708644383258765,
          0.0691126246122372,
          0.24160105131219542,
          -0.35749441250988256,
          1.0854816013634438,
          0.596280700405153,
          2.2318594592687604,
          0.03851362392738451,
          -0.767931980456326,
          0.14105943256079329,
          -0.6305547026075972,
          0.857001470432798,
          -0.28733346175613417,
          -0.12936223792451992,
          -0.13743741964013748,
          -0.10723941414356829,
          -0.5923319481089782,
          -0.6092589026760226,
          -0.013198601488802142,
          -0.11023115701388794,
          -0.0876577228583548,
          0.21319938649770592,
          0.059167111342958316,
          0.4242895856034698,
          0.10476273308966015,
          -0.014212647540610596,
          0.31594953819532823,
          -0.016049224178716376,
          -0.0377747776312271,
          -0.08333258033879712,
          -0.004329681261102914,
          0.03319022343242979,
          -0.1717441004092182,
          -0.046761672726034625,
          -0.06355908344339686,
          -0.1406239856816576,
          -0.03632967557861167,
          0.6573886515053736,
          -0.06655429852978752,
          0.01610675678139077,
          0.01507318316995633,
          0.005493033170918301,
          0.2625400335318449,
          0.10399408402682328,
          -0.006208137008272485,
          0.20646457097018142,
          -0.3549384814213357
        ],
        [
          -0.003556428123011047,
          -0.027630737647886768,
          -0.0648355977695059,
          0.46176325656503064,
          -0.0921597260354511,
          0.46119862260696765,
          0.013340845628876864,
          0.18559402780769998,
          -0.03125951193671696,
          0.1587029133097504,
          -0.10251778291349944,
          -0.3391840334558439,
          -0.08047091090197313,
          0.14496370539479936,
          0.25951443312150285,
          -0.4533381066531544,
          0.30975371374296057,
          -0.1813796949192341,
          -0.2738479166060463,
          -0.009640788626450993,
          -0.040866815685762,
          -0.2850916069140948,
          0.4719181767641124,
          0.512753363238872,
          -0.11031893285617864,
          -0.2018301250248762,
          0.15252928506442318,
          -0.18048277616758335,
          -0.42032612096987193,
          -0.09334607546003958,
          -0.06508327118363003,
          -0.09638219573213253,
          0.1881470628769042,
          0.17275975077728423,
          -0.32649084722618643,
          -0.06918422156049692,
          0.23197457403924945,
          -0.10181537502760316,
          0.11729842485971374,
          -0.03286844698017608,
          -0.08474465947211907,
          -0.2525359692316807,
          -0.028281195072130765,
          0.043864891743863155,
          0.06428899423595982,
          -0.08082428786395664,
          0.04280598303937956,
          0.019282244182412738,
          -0.27365373698671536,
          -0.15773837344899602,
          -0.26566754779567825,
          -0.1285702375843296,
          0.17970949232670544
        ],
        [
          0.2420958398622949,
          -0.3690446264755817,
          0.021651277903788232,
          -0.13696304067180035,
          -0.18855825399803114,
          0.5009852610001195,
          0.2476519891907736,
          -0.15782352899148433,
          -0.10625696381721614,
          -0.36527938633130547,
          0.26612808218139283,
          0.006905190897387604,
          -0.052191174268499674,
          -0.1389545413586171,
          -0.01326312184882792,
          0.10791918045624616,
          -0.08734193182131816,
          0.09768602387124571,
          0.0969212496776137,
          -0.08982542105665677,
          -0.09731639339064362,
          0.16418607226722914,
          -0.14969514383134047,
          0.18115729864277125,
          -0.4385074336562441,
          0.02552986942251736,
          0.34134663414958843,
          -0.32695144771401696,
          -0.027821826705477025,
          0.002845907502934791,
          -0.025426515827331155,
          -0.0847153060397826,
          -0.014210915766729577,
          -0.2152363909423069,
          0.014088927542441955,
          -0.16352887641907565,
          0.44641382141449615,
          -0.11610774265915061,
          -0.08321662856662543,
          0.3379771007935446,
          -0.1060026035889782,
          -0.114585069428304,
          0.16268667907946904,
          -0.337359937152894,
          0.37493799421491697,
          -0.08129634535675324,
          -0.056937455394256264,
          -0.04678822248321602,
          -0.08759726672151806,
          -0.07095921362111388,
          -0.23626029974485185,
          -0.23689435484425594,
          -0.30575311435840613
        ],
        [
          -0.6730432665895456,
          0.130750459655539,
          -0.2600298023979651,
          0.7701735613108487,
          1.2397077538984378,
          -0.010940202506788508,
          -0.2140151324967744,
          -0.6475282498241932,
          -0.4777452177209152,
          -0.24376088227187853,
          1.11220871235445,
          0.03944342974407223,
          0.007512737251219546,
          0.28527027405506544,
          0.5629505862245786,
          0.23792564804834934,
          0.45002222233655703,
          -0.038802177022567455,
          0.0992890669538041,
          0.0447191992141849,
          -0.010550198358522798,
          0.20110482387076659,
          0.18796940363291398,
          0.21592521670642392,
          0.6467747583771113,
          0.21302292747629226,
          -0.1575607616859289,
          -0.1936144883572833,
          0.04868385053043615,
          0.07884003375750585,
          -0.008065969388783964,
          0.019524007339426035,
          0.14897468896213772,
          -0.10479090054602676,
          -0.08791886910097166,
          -0.09881788178956048,
          0.0467200900034609,
          -0.003417460546125337,
          -0.15853573072342333,
          0.01614625884946465,
          -0.1515708235361576,
          -0.10519474541524862,
          0.031785366845857706,
          1.2199764881917956,
          0.23646835627773471,
          -0.10165137603702909,
          -0.024866131224815985,
          -0.08159227746514944,
          -0.2659261478752703,
          -0.3686620551597296,
          -0.5449352413508362,
          0.2447322235550894,
          -0.1935038115674365
        ],
        [
          -0.0923838501455866,
          -0.019663715617595817,
          -0.09403954282847986,
          0.07422049266202181,
          -0.0955135558775603,
          -0.02691515716938169,
          -0.18826758744907135,
          -0.05307730096201569,
          -0.069521689646749,
          0.014751913460675555,
          -0.12616827988257978,
          0.13383068615779783,
          -0.11146972451540385,
          0.05733797486429548,
          0.2540778472010229,
          -0.3526443820787053,
          0.17520220263127426,
          -0.2512798292555641,
          -0.11077980281909622,
          -0.13006024079447298,
          -0.10904746818476732,
          0.12600950306094297,
          -0.08080458127509677,
          0.14277490926162914,
          -0.23412419537141407,
          -0.11157779090070609,
          -0.23811972673052406,
          0.13184975962109463,
          -0.08576368197693733,
          0.03954737774870264,
          0.03134371466758814,
          -0.36410022458161084,
          -0.31309434637909483,
          0.08788019400498596,
          0.12724609704640885,
          0.2583059741048199,
          0.2605885936789307,
          0.0047820190496895,
          -0.24575236055166894,
          -0.344306492473415,
          0.03220501820230268,
          0.3078553681175695,
          -0.034295859914163715,
          -0.15758234696237666,
          0.07911918049373645,
          -0.34705531103332876,
          -0.07847689808617987,
          -0.1878774019733633,
          0.11300683104057135,
          -0.25576896356519835,
          -0.06481799695193674,
          0.02222602199286029,
          -0.23632650201272076
        ],
        [
          2.2851222409445184,
          -0.1125725929869193,
          -0.9971140617458063,
          -0.16976711663010408,
          -0.26738665936024886,
          -0.36381620039231544,
          -0.27651693279651807,
          0.05271914128851022,
          0.015169819826343646,
          -0.4354619315597331,
          0.11435591633694045,
          0.006713196895818934,
          -0.4139313821627115,
          0.2512138128668373,
          -1.3631432948666473,
          0.5508543718865594,
          -0.7192087557494565,
          -0.12239830739145084,
          0.17416121462865758,
          0.011106888442985909,
          0.2632017939212413,
          -0.02520844320125458,
          0.06521912766382999,
          0.5557687601214479,
          0.25333102176871064,
          -0.04155340015040819,
          0.16100071737715985,
          -0.033981196503589314,
          -0.23728363652321716,
          -0.12407271424746287,
          0.16843762720224792,
          -0.03960120627564237,
          0.07733676338837375,
          -0.03718265645119029,
          0.035287615225159275,
          -0.1552401803566522,
          -0.12841370814599368,
          -0.02860516044037518,
          0.015838594459175084,
          -0.04222178997482744,
          -0.07218750913359885,
          0.037988629550589126,
          -0.04991836183504344,
          -0.08675347374880774,
          0.14550227898514914,
          -0.04760750365138243,
          -0.07334854624928884,
          -0.08588127566503762,
          0.05920772722964099,
          -0.004767153066140747,
          0.2225032874764911,
          0.17099550637493474,
          -0.2494906802056739
        ],
        [
          -0.23112954264742672,
          1.4554916744423334,
          2.056787162762553,
          0.7721990162925805,
          0.5049955970959228,
          -0.4179429310264697,
          -0.08373793968980874,
          0.017131337766109662,
          0.6493726713061945,
          -0.3675425410442544,
          0.999251913091023,
          -0.15552368699587457,
          0.005230971201565591,
          0.19742256429251626,
          -1.7485908828371801,
          0.6744693530725402,
          -1.188002731424512,
          0.15861208331906215,
          0.2088020098782694,
          0.07829634170328188,
          -0.14340696361177802,
          -0.1944284842484287,
          -0.28960738952867426,
          0.09578818730384868,
          -0.054542140898675484,
          -0.09816381314205616,
          0.6104461862254944,
          0.1703608779006814,
          -0.19553385809206592,
          -0.09468071997985834,
          0.05878905768080673,
          -0.020560215914083343,
          -0.5232538838971132,
          -0.007866060264772268,
          -0.02124749323954102,
          -0.046011353095532,
          -0.062599514077126,
          -0.040407862891169176,
          -0.23555607118213337,
          -0.11217953020906707,
          -0.044436465068098056,
          0.02521108639437138,
          0.041492551327422085,
          1.652154588861761,
          0.5655047903684369,
          -0.004084630036115457,
          0.03374588947552577,
          -0.0307563970370176,
          -0.16822844681279112,
          -0.06412268213452524,
          -0.8211703779040987,
          -0.174762138835386,
          -0.29324581321832927
        ],
        [
          0.5464006625688987,
          0.3471488727869232,
          0.649832119572527,
          0.04949658452954383,
          -0.09874153393274655,
          0.13184554959935313,
          0.072761756031941,
          0.2413443945387215,
          0.08711475844802574,
          0.22706641672211178,
          -0.8064154178232728,
          0.06484243258051418,
          -0.057585051269672914,
          0.017831736352181094,
          -0.013751083761797797,
          0.054774411324514626,
          0.017978618524608206,
          0.054902913510405243,
          0.22805136398208697,
          -0.029475881639287056,
          -0.047715573542391206,
          -0.026251170909509403,
          0.11815502853615159,
          -0.0321345474081747,
          -0.70241343322429,
          0.28473423645871865,
          -0.7308447878760235,
          -0.49429767653154866,
          -0.10329856148049493,
          -0.13845327390512624,
          -0.07950147094529478,
          -0.13190003720157936,
          0.17231844656980783,
          -0.06924367129225047,
          -0.14650701481653022,
          -0.13518178034820294,
          -0.15545135891013842,
          -0.06789904545683316,
          0.9151718558422114,
          -0.0020172507696910374,
          -0.03929106332239317,
          -0.24490019908430755,
          -0.04102978182530519,
          0.14592796838775385,
          -0.30656815729176906,
          0.12228188221474875,
          0.10920050878199317,
          0.1071421248694797,
          0.30747851292592493,
          -0.010592717853299058,
          0.20280426099158283,
          0.047874810757609625,
          0.00023102485488904836
        ],
        [
          1.4179028770970117,
          0.0938398495759091,
          0.6897139193367592,
          0.012709934064467947,
          -0.2734539785742174,
          -0.43793765602044116,
          -0.2233293843523505,
          -0.967155203563138,
          -0.9931415218097863,
          -0.71971226224795,
          -2.210129708311699,
          0.8876313249865914,
          0.9316994853305092,
          0.5506356745180051,
          1.2292101137487461,
          -0.23623517801488633,
          0.6986675886332918,
          0.42342626570243636,
          0.39814540252144787,
          0.10012545735636498,
          -0.03739337971489721,
          0.028052175109888788,
          0.1494570049263652,
          0.06491533369401774,
          -0.15203267898991085,
          0.12799547842167874,
          0.22373695932222773,
          -0.2939972731205051,
          0.09473267252034547,
          0.045460818979139644,
          0.06785966463579442,
          -0.06023856333484287,
          -0.19009688662481597,
          -0.199509099425936,
          -0.17338181821745985,
          -0.12129887174742049,
          -0.10145732584110158,
          0.0238729786624013,
          -0.11871141724581111,
          0.15032387200789693,
          -0.10149334082143383,
          -0.034421557032387994,
          -0.11145402803016422,
          0.9103932773011212,
          -0.050343021178972575,
          -0.04179518033508175,
          0.04046946046059707,
          -0.015250932751081152,
          -0.08024377720747265,
          0.27349450777982004,
          -0.07502387886069288,
          0.47786613478278855,
          -0.05506392307772503
        ],
        [
          0.8502814284164446,
          0.9239082891241192,
          0.06305051867169899,
          -0.3361684581753577,
          -0.46766009062724295,
          0.5749038527378643,
          -0.1678968954586535,
          0.10271250075602682,
          0.6670545800435473,
          0.4256980744796186,
          -1.1027754539993981,
          -0.3382666710030056,
          -0.5014810890210526,
          0.9015380588004958,
          -1.1889875718493994,
          -0.7908745154848811,
          -0.7847042118212135,
          -0.034416064120371924,
          0.7023938729886353,
          0.00667948889522585,
          0.1436120274425511,
          -0.012905223176192986,
          -0.25417683945786224,
          -0.012594567440108555,
          -0.1327343769130658,
          -0.0767257653229885,
          0.025922267595206362,
          -0.25475018487943224,
          -0.08205604749815637,
          0.0688994850523427,
          0.021220339007657605,
          0.048830611047555685,
          -0.3580046757679141,
          0.06754460901643809,
          0.10421237281419211,
          0.06823969589918394,
          -0.026425165871802412,
          0.009069502875197508,
          -0.3521283629710264,
          -0.13757572239530516,
          0.0005838661291195728,
          -0.1365037398206543,
          0.1042851933941713,
          -0.0020062464431366803,
          0.1465838451753539,
          -0.043342436934692176,
          0.03244145016966832,
          0.007927540715171157,
          0.21372824289582013,
          -0.12901591238319593,
          0.45549540174060743,
          -0.18476397724953678,
          -0.006991993443400446
        ],
        [
          -0.24010723466615952,
          -0.19542976132019796,
          -0.0068348927958023255,
          -0.16760021440060724,
          0.11477140236987084,
          0.1049301418612806,
          0.563802525906173,
          -0.03850627455715166,
          -0.21053230318826271,
          0.11563872755761771,
          0.29857226503089457,
          -0.01434746758024606,
          -0.1447140449702747,
          -0.25712429406078446,
          -0.06487246247657594,
          0.03972951401945243,
          0.04266191099258617,
          0.0011119626276169723,
          -0.19080773482964788,
          0.32085109315201277,
          -0.32074246377784044,
          -0.5195465392222064,
          -0.32087740693193706,
          -0.18669066026423883,
          -0.20191592563182162,
          -0.32288770404537953,
          0.21096402105171613,
          0.13581703874951542,
          -0.18774352505794398,
          -0.006722872648627635,
          0.06752853306517698,
          -0.01242464531257515,
          0.016462574279874,
          0.07929631276831242,
          -0.074998052794361,
          -0.16473401204804813,
          -0.0577286420926721,
          0.1283034035629995,
          0.043141738476006934,
          -0.010716045931230477,
          0.15757097167383918,
          0.041260857458901165,
          0.1547739922705765,
          -0.13833864792342662,
          -0.02209557657695674,
          -0.05729916982542578,
          0.12679725587569102,
          0.03764063383535349,
          -0.37285824052788563,
          -0.005164913089765815,
          -0.20659674589013885,
          0.21407987554609675,
          0.14184415356459795
        ],
        [
          0.3323101914882067,
          0.3569055640709009,
          0.266077816371105,
          0.8354555716816201,
          0.07999958595913037,
          -0.10355856268674184,
          -0.4917388023615193,
          0.28489355737703737,
          0.4414951122001784,
          0.30333035022539323,
          -0.9291291898945813,
          -1.3291098800479366,
          0.45922942148475626,
          0.672403435456577,
          0.43072431893195695,
          -1.7288967778960636,
          0.20673506141487735,
          0.3092433545153739,
          0.015099943635251712,
          0.060635150713818836,
          -0.006979096881829119,
          0.20519209550882592,
          0.15968585588296194,
          0.3074491019781693,
          -0.08677286885035725,
          0.3611484417760259,
          0.5052618198362208,
          -1.2563482213017305,
          -0.07493476171590131,
          0.10441413603343255,
          -0.03277966303059085,
          0.12433943724043002,
          0.12202511959771069,
          0.2648814681775448,
          0.20102849740885628,
          0.24763556606029388,
          0.01491001486121656,
          -0.17813711470979057,
          -0.16798994628231062,
          0.03968925481192037,
          0.05608393486405525,
          -0.02560077348299046,
          -0.017526755894354214,
          0.05085313521034421,
          0.5767280419735311,
          0.00003417109314608513,
          0.043609517034105434,
          0.02546049974084529,
          0.05345135498247202,
          -0.10958563335963044,
          -0.10023577225958037,
          -0.12273460657416665,
          -0.08103982200660352
        ],
        [
          0.07125685532414949,
          -0.007756347570736481,
          0.008423867824689622,
          0.25996751340926155,
          -0.16270839489656982,
          0.3612996037935083,
          -0.04387704740121421,
          0.3772104046289963,
          0.17956904906023813,
          -0.2548062000087513,
          0.019859582195881235,
          -0.23413997218125976,
          -0.08612242201826302,
          0.050944849879942876,
          -0.10858366345123883,
          0.022576560122541153,
          0.34000217424940277,
          -0.28949128549051,
          -0.15744280454285792,
          -0.16556903405436116,
          0.46762516888483285,
          0.09628347335325127,
          0.3459531925158845,
          -0.13920579284496679,
          -0.20808644919428906,
          -0.18013335552289647,
          0.23997768381640214,
          -0.1872264854646051,
          0.03827752709335589,
          0.07890805874547771,
          0.08160320991518805,
          -0.03976267828350409,
          0.22819310488874373,
          -0.05930818349522766,
          -0.23271323497532,
          -0.3430722653915936,
          0.22516517494887694,
          -0.32797989592399707,
          -0.11986283135889401,
          0.23207759783744972,
          0.30931102022612406,
          0.20655783259790458,
          0.1774357571868189,
          -0.18666250227478623,
          -0.03512323118198353,
          -0.10877500700880062,
          -0.5485132295697299,
          -0.22239356079165992,
          0.01978193824274427,
          0.22868363118012822,
          -0.18135764513675756,
          -0.08565887089660922,
          -0.031212715979003457
        ],
        [
          0.14209940868988055,
          0.017951699696728374,
          0.15549022584515898,
          -0.011058139254550218,
          -0.15920156426834547,
          0.022749378033312947,
          0.14213487610581305,
          -0.33055886274374124,
          -0.0971452044161664,
          -0.15136841948971522,
          0.16108180374542794,
          -0.18745339734278543,
          0.12490955041401096,
          0.03604172564941254,
          -0.003987695074693742,
          0.30361532472790603,
          -0.18842634109682618,
          0.322265409806913,
          -0.09490787176738351,
          -0.024948202790099787,
          -0.15713773070925918,
          0.08684703974174497,
          -0.17763946292695282,
          0.20385374277165175,
          -0.25916114896482806,
          -0.21575709330635892,
          0.29779605282824845,
          0.24752827845111958,
          -0.1460775868442721,
          -0.28993273590431373,
          0.051872968461343295,
          -0.08356205850009231,
          0.051120682397128754,
          -0.17277663922998265,
          0.28617857546218445,
          0.019569437511479496,
          -0.39244629702347916,
          0.21408826069279652,
          -0.2962386156381314,
          -0.12031845219453784,
          -0.003985073368982835,
          -0.09831446887658117,
          0.02939365625413698,
          0.11059028987299026,
          0.22441217256980206,
          0.01746924710654519,
          -0.16260714883379054,
          -0.17169923459630998,
          0.08902372850109268,
          0.04957762901849973,
          -0.1875049881876786,
          0.04403167676121813,
          0.0002706485805980442
        ],
        [
          -0.7908838588049827,
          -0.320188512208508,
          0.17350686716532002,
          -0.43811823495370855,
          0.8249117943010099,
          0.4079584012736405,
          0.39896553661924394,
          -0.4492061647107544,
          -0.20554283605703844,
          -0.3095744623976491,
          0.4733119405607638,
          0.3419331391462021,
          -1.0691711363356686,
          1.9337707793371393,
          -0.3031469526980247,
          -0.10169588263202929,
          -0.5609689175944697,
          -0.8172598466700991,
          1.1471647376878178,
          -0.015314093505303158,
          -0.21932871953577476,
          0.2907455387574752,
          -0.2789950830769027,
          0.42531795320316373,
          0.0036531559256652428,
          0.03494562979492441,
          -0.02187663160592979,
          0.004906369865781032,
          -0.12523457158160597,
          -0.14369987426519942,
          0.2717785094659304,
          -0.0010065980522937139,
          -0.009983617780032353,
          -0.16903066192888833,
          -0.013609362038576944,
          -0.128572597802692,
          -0.0955629674586916,
          -0.01726950152273437,
          -0.05755069386495712,
          0.11140896420049183,
          0.04935498781884531,
          0.009192997749927921,
          -0.3375796351792447,
          0.17239298473815956,
          0.27515780322180905,
          -0.07769409218093329,
          -0.05054703112479648,
          -0.03721272643275911,
          -0.27580495214010725,
          0.20901227310225792,
          0.03361682871545435,
          -0.20519772634247213,
          0.058302614087863934
        ],
        [
          0.36457891336404274,
          0.039661098993694695,
          0.14586997809622967,
          0.3316185009427347,
          0.0787201618696535,
          -0.12584456120157608,
          0.1641328411818805,
          -0.32257962777940374,
          0.08599902297247927,
          0.2198127928274219,
          0.3978095903880912,
          0.09616789090425656,
          -0.0667803846612063,
          -0.08300435369976185,
          0.09395972509745865,
          0.5470016442574553,
          0.06336320302586214,
          0.17480832732657284,
          0.38380705660672126,
          0.046527776485561,
          -0.38721879775969636,
          0.005675438313742945,
          -0.11446161957562716,
          -0.1369214652020966,
          0.17277536678763725,
          -0.2652116985888191,
          -0.3197414766269184,
          0.0471483922972863,
          0.05752505266339967,
          0.08828114884165529,
          0.032719650264450804,
          0.08325990949163053,
          0.21362401469215378,
          0.16760263902272943,
          0.19187990889321374,
          0.06788966168467792,
          -0.039619073277395604,
          0.060595032541359034,
          -1.0804683738889584,
          -0.1428892547605879,
          -0.11226998652047032,
          -0.10317581513640527,
          -0.10156553433738172,
          0.7100603306172704,
          -2.541690030137746,
          0.1640520634730985,
          0.22183553966004682,
          0.25600684129713797,
          0.4665581888153854,
          -0.244356020257536,
          0.2066110850264127,
          0.0607576668485151,
          0.12353615529719851
        ],
        [
          0.31833290630070843,
          -0.2208838542947747,
          0.0066677761548816165,
          0.09828002419862979,
          0.05231376280869648,
          0.33455861107302876,
          -0.08166632060992751,
          -0.005342666898703831,
          0.03640085330035002,
          -0.01890627823699568,
          0.059964623533826054,
          0.015148442401514348,
          0.21472994246193178,
          0.09199830448214687,
          -1.7815191710903844,
          -0.28383499625019204,
          -0.2733829903889696,
          0.23693814737417895,
          0.3344942394410962,
          0.06852392628869766,
          0.23190958281466018,
          -0.1409966872356024,
          -0.23158182149403578,
          0.8778314655310412,
          -0.20513039434155422,
          -0.07378348622863024,
          -0.22245426676858648,
          -0.1751818259331314,
          -0.12074379017705154,
          0.04380886910242907,
          -0.05976026216697665,
          0.031234542409855952,
          -0.13541550392732637,
          -0.020402674890770488,
          -0.043309281284401376,
          -0.08097823883500009,
          0.037370087824942375,
          0.004606257110252071,
          -0.29669108363051466,
          0.009988588052836105,
          0.039159916195684874,
          0.013168470198423711,
          -0.00296936487722083,
          -0.04731827149873043,
          -0.09462941799267148,
          0.04635207147646813,
          0.08506972501844798,
          0.1018697852871212,
          0.08255383156509905,
          -0.34914660391382973,
          -0.17143615064778703,
          -0.26278198186411367,
          0.13252166990677103
        ],
        [
          0.3696454591958666,
          0.05038641349169942,
          -0.5610381827238727,
          -1.2282299761204738,
          -1.1255403163203126,
          -0.21513021242565478,
          -0.4574364325961847,
          -0.17872247844705996,
          0.5650706957523988,
          1.0598838161402795,
          0.14027428691973554,
          0.12127221180921845,
          -0.5368422048231001,
          0.3964777866315393,
          1.8309639423769295,
          0.49373985702774303,
          1.2193462139529125,
          -0.6577992153501792,
          0.43907188044819373,
          0.025568174137063387,
          0.1672333734725068,
          0.21530539256971018,
          -0.318425552885847,
          -0.17235383699501072,
          -0.08973268548134378,
          -0.17883993445939478,
          -0.4283416030498863,
          0.2114114045041411,
          0.2054725627338486,
          -0.1250767663680545,
          0.08556308402702169,
          -0.023957312227652725,
          -0.006891019778659022,
          -0.0555630514622286,
          -0.06165338951868122,
          0.0503595343312815,
          0.0368420428500984,
          -0.054770451585129123,
          -0.22141192301880613,
          -0.09981261389241762,
          0.112979537367407,
          -0.14719598493760905,
          0.07398704062968905,
          0.9484981162892773,
          0.21338239261591838,
          0.0707273024037715,
          0.07017045182337082,
          0.008582092268059553,
          0.13478603010765403,
          0.5788336320139741,
          0.15068541980851838,
          0.050571484589568075,
          -0.0931321641781289
        ],
        [
          0.30878356168629123,
          -0.39070528459939596,
          0.6021833439061496,
          0.6779123003400822,
          3.246844877703632,
          -0.03456323715585572,
          -0.346330372925781,
          -0.22439118460634938,
          -0.34616207350324213,
          0.09065574430899076,
          -0.06065356605058632,
          -0.44277298289983213,
          -0.5125017445654645,
          -0.5618320435944859,
          -0.4172331000460254,
          -0.2990649551521337,
          -0.2169625222055639,
          -0.5193139716871823,
          -0.04003351247759199,
          -0.05280675142566809,
          0.1273672841638233,
          -0.05140485961932694,
          -0.02655963833796073,
          -0.22706749632668086,
          -0.08231988774373426,
          -0.23460775979364445,
          1.843777467363828,
          -0.0885390130235583,
          -0.04129190598633749,
          -0.0323805279937529,
          0.014429979214213223,
          0.008073827848988644,
          0.3684480694649719,
          -0.0036548380401774496,
          -0.016264722768934748,
          -0.04153138817149353,
          0.005966060523916732,
          -0.004209941684580618,
          0.05237874998277408,
          0.11377051535525236,
          0.059216135845623914,
          0.005431169292044422,
          -0.08124543313279017,
          0.10607023031476442,
          0.39507068832303116,
          -0.046620868619245553,
          -0.14887545525954038,
          0.015723128579803354,
          -0.3002888409517263,
          0.04001563676863881,
          -0.4470859377280687,
          0.02636838419204671,
          -0.07262566159210053
        ],
        [
          0.159926693052542,
          -0.14135598807484187,
          -0.14004810817158003,
          0.15149870919943556,
          0.01567621703531849,
          -0.04399778822768938,
          0.1791289515613106,
          -0.09062038739600946,
          -0.36124180243685516,
          0.056393395137584346,
          -0.0774467945129369,
          -0.14787255903518945,
          -0.08529328775647199,
          0.11434147665644176,
          -0.08108238573937983,
          -0.36080588256713003,
          -0.23524063275490417,
          0.1392644158545661,
          -0.13131044427119726,
          -0.18954802914146454,
          -0.11981462630297021,
          0.2507384249986971,
          -0.2278276045727816,
          -0.057253720675418666,
          -0.014305345941339906,
          -0.3262454759616135,
          0.21636440706894575,
          -0.10549546652194071,
          0.14734911426295347,
          -0.15537293468329286,
          -0.11360351018152273,
          0.12205074274804446,
          0.01149944647342489,
          0.05763954651819334,
          0.2653308811611924,
          -0.18549549833315082,
          -0.20229016089194277,
          -0.21589810474099563,
          0.1961055541245307,
          0.1830726379057598,
          0.022871652430891502,
          -0.118239502811603,
          0.1058259092141065,
          0.11742517367950939,
          0.08436758463162397,
          0.021442322025327778,
          0.03339737038811416,
          -0.2944138782249022,
          0.03666109181739812,
          -0.35512004619410287,
          -0.3748302270269335,
          -0.034515312201842126,
          -0.33532182435509017
        ],
        [
          -0.24867754769119968,
          -0.09350310455991669,
          -0.07870018525836393,
          0.13763668908271695,
          -0.10734603908569991,
          0.5257201169914276,
          -0.02361052696090391,
          0.24352246724116178,
          0.11304422271286119,
          0.0618931741992268,
          0.06645075044056067,
          0.1996656352120863,
          -0.37055169907841023,
          -0.014856957123549385,
          -0.1324294140908884,
          -0.19870871407486296,
          0.08408617039094851,
          0.4161645838359756,
          -0.07032673620355337,
          0.045795787759909924,
          -0.15452782703104623,
          0.3047376483421532,
          -0.10464522309658404,
          0.023622246256768162,
          -0.34668631018972035,
          -0.1223342686537723,
          -0.21144624919730384,
          0.4878328488434885,
          -0.2603700856081211,
          -0.1075311809841427,
          0.01301389245913393,
          0.04078893023124652,
          0.21616179639313127,
          -0.30355714608681417,
          0.19197181319304724,
          0.17934515686013386,
          0.01739460256638336,
          -0.05435154145636549,
          0.04646989741807839,
          0.09419093087125434,
          -0.048718678645872246,
          -0.16264082622142037,
          -0.005794207378004771,
          0.11618625134888554,
          0.18804829078042495,
          -0.3285232596707841,
          -0.09805624865844409,
          0.03170769495197831,
          0.4190753749724605,
          -0.18542699675945226,
          -0.6257898805810757,
          0.23398778951154178,
          -0.022750317830976183
        ],
        [
          0.07651396194756083,
          -0.07518853895096705,
          0.13350643087520342,
          0.23880839806441229,
          0.24877310241986478,
          0.3774369070238349,
          -0.30556337913925313,
          -0.39350061768010863,
          -0.20935308895621468,
          -0.10128924439412579,
          -0.217533941562721,
          -0.20087555025547646,
          0.7353731354639796,
          0.3095746252443802,
          -0.00799162108550575,
          -0.2708793862620878,
          -0.092129826627805,
          0.3293427683230453,
          -0.015489916562489542,
          -0.025093891556776035,
          -0.12381608980507029,
          -0.15222028165653734,
          0.10284334371977029,
          -0.08303994175629892,
          -0.501199473806691,
          0.11176838087232464,
          -0.2646507814812109,
          -0.2975818266728292,
          -0.09241324592593912,
          -0.1012667278209479,
          -0.12479750680224783,
          0.21779278534709576,
          0.03915257917858534,
          -0.2761076947112984,
          -0.21211672097486303,
          -0.06225775344289488,
          0.36641636500022645,
          -0.056806283288644684,
          -1.003448898771173,
          -0.2226744714540092,
          0.05313398619949037,
          0.014844123259892473,
          -0.10078420733613626,
          -0.11591302507196284,
          0.6586489164155257,
          -0.019173208275223008,
          -0.05503058762443729,
          0.013181756560880614,
          0.0800087688606164,
          0.09211522001659621,
          0.04284535402867151,
          0.19277761991004622,
          0.19051225779135353
        ],
        [
          -0.23032288796494937,
          -0.26096675208178155,
          -0.0940906489628519,
          -0.10664545747721886,
          0.04222749677468269,
          -0.07482822044027944,
          -0.07379837548030536,
          0.008407296250283879,
          0.10391266064802576,
          0.1042641913848823,
          -0.14573485321045151,
          -0.289397656552442,
          0.21442953840262985,
          -0.14471485234646161,
          0.17269848176968602,
          -0.0726865915361597,
          -0.11311768027547876,
          0.19611680273361634,
          -0.1631635742453126,
          0.4841424720850584,
          0.389760757794638,
          -0.20238340519886133,
          -0.13370592483133154,
          -0.0032835481526601686,
          -0.07472452570528303,
          0.2899054584302345,
          -0.013704624063004975,
          -0.14624623113520244,
          0.11640405675915005,
          0.28966216873890255,
          -0.01987305793594744,
          -0.006100934779126373,
          -0.13367362536203783,
          0.0393408780218407,
          0.1177912700915166,
          -0.1367253554328424,
          -0.45056230270307684,
          0.10644530993417897,
          0.06505280653570239,
          0.13485360180386016,
          0.040630575430851364,
          0.19789038426930247,
          -0.015336937757228688,
          -0.29152805947896254,
          -0.18982230503887582,
          0.09650501904411316,
          0.13655229567953076,
          -0.25550413467921257,
          0.15172217124099013,
          -0.26809853051714205,
          -0.17569278201616512,
          0.11307617740974071,
          -0.10718681482624354
        ],
        [
          -0.3728845608306822,
          0.22539615387117906,
          -0.3675445299414597,
          -0.42885053972955306,
          -0.5527371840799287,
          -0.08425454624365965,
          0.010547913919578782,
          -0.035852221629286744,
          -0.21258191625925732,
          -0.04549087116100474,
          1.2283123648019831,
          0.19228875252246258,
          1.3500797845795283,
          0.10062342768185749,
          0.040893370268204436,
          -0.05042285531058028,
          -0.37387982160856725,
          0.4446166052365627,
          0.21448456033483368,
          0.11214554731084395,
          0.44495358818598607,
          0.06349676989545032,
          0.03797225550266069,
          -0.034014217960678904,
          0.11360533125752852,
          0.01890245238697287,
          -0.8597245551763613,
          0.15698499708068428,
          0.006746715511161806,
          0.10149802555875335,
          0.08494794636227075,
          -0.015902617201099596,
          0.06803105146855347,
          -0.1815294438611158,
          -0.227259128980011,
          -0.289852295492522,
          0.09732355406276025,
          -0.24541972596417877,
          1.2218761133779676,
          0.06447155856797475,
          -0.06973695492413266,
          -0.045805181584076406,
          -0.1750854512755664,
          0.6639023490501978,
          -0.016637471342290572,
          -0.10918791272609954,
          -0.12839841404300947,
          -0.11599273613305056,
          -0.40217704120305786,
          0.26840519557275977,
          -0.2605717179432613,
          -0.06323544759880416,
          0.09202540768734882
        ],
        [
          -0.5642526816794428,
          0.03930037705110818,
          -0.18813444191174564,
          2.2907520688220755,
          -1.4300224896112128,
          0.009819776855538672,
          0.17186618245638619,
          0.3417655837593049,
          0.011645333517762946,
          0.08833488187165968,
          -0.7644313278752304,
          0.6084667309217018,
          0.5923953062079937,
          0.000882179385192694,
          -0.5212637486286964,
          0.3742198466899393,
          -0.33304528400789574,
          -0.1341518494634283,
          0.10879581347481267,
          0.0354345592622428,
          -0.043536590462092885,
          -0.053440595386403535,
          0.1965728542023946,
          -0.009122389767059482,
          0.01975539367264624,
          0.059716901087506324,
          -0.3313063843882935,
          0.1391800695039787,
          -0.07660336705256293,
          0.020572070221622454,
          -0.013135005155911572,
          -0.02436673202783446,
          -0.24443457175878905,
          0.01515481728219902,
          -0.039447939847954236,
          -0.10070402919178915,
          -0.09491486950937163,
          -0.06359912781698454,
          0.2662207548674419,
          0.029055964771391173,
          -0.0023551868914196876,
          -0.029537740157995884,
          0.01144026934996313,
          -0.04289086442006042,
          -0.02355138316674089,
          0.18920197105295264,
          0.23864734971273066,
          0.18479468772235239,
          0.08453003419885825,
          0.18364796688448196,
          0.15490187257240592,
          -0.02105798800067482,
          -0.06609705728326808
        ],
        [
          -0.0031151372931645057,
          -0.29422694707286506,
          0.2291459528095011,
          0.6313897542282645,
          -0.3211227690343439,
          0.0343034835553926,
          -0.026195756285309593,
          -0.12849062397036057,
          0.03989943647648628,
          0.16561158524569103,
          -0.09992413753616405,
          -0.20370350903375076,
          -0.3337739696917987,
          -0.09379587781561712,
          -0.2027235820644312,
          -0.07955107165288773,
          0.19657715845708068,
          0.12529170774455278,
          -0.057454579551449315,
          -0.17368666643913067,
          0.02265428789057033,
          -0.11954055880046552,
          -0.2447081104501139,
          0.14638295637417337,
          -0.07105026815169388,
          -0.16464620109168487,
          0.05063879723290983,
          0.36885187357064275,
          -0.24604399647342598,
          -0.010663284982608717,
          0.04674112555196806,
          -0.012366835271401783,
          -0.10143641964459098,
          -0.031028356992777607,
          -0.1065067276751737,
          -0.08473938984404931,
          0.0401225706420815,
          -0.14083804549980208,
          0.25345701815294897,
          -0.1372163505260277,
          0.22164543319755964,
          0.024729622482085774,
          0.03420859816442649,
          -0.2579943471586452,
          -0.8064105020144032,
          -0.07993756209412926,
          -0.4384748064238888,
          -0.09755542586651006,
          -0.16605079180485446,
          0.09929442630646486,
          0.29502106114577276,
          -0.024771594858688736,
          0.34909335838507344
        ],
        [
          -0.14921111378358617,
          -0.13386923747025503,
          -0.3887218353968215,
          -0.5627241160511077,
          -0.29375164501015405,
          -0.2320860425046904,
          -0.44903428586286953,
          -0.07482381865311456,
          -0.10790469782524989,
          -0.1669661214296214,
          -0.2448228652076815,
          -0.24468335961069518,
          -0.3882433026572273,
          3.1717980112472426,
          -0.4418700885094862,
          -0.14302982297404307,
          -0.058776371183673584,
          -0.38894534764136185,
          0.8993067911203902,
          -0.08540550856439308,
          0.010729993587138201,
          -0.13140697876676302,
          0.6046868063352563,
          -0.14395335384318791,
          0.01840268466394084,
          -0.05769045136556956,
          0.07247041895078406,
          0.0776368829619525,
          -0.05943169289495939,
          -0.011391390231738836,
          0.2647345527837866,
          0.06960299285321922,
          -0.15841453401494995,
          0.02863674394027451,
          0.04864826062954733,
          0.05994212929972592,
          0.04503217369968004,
          0.0111514871033542,
          0.09910515331158937,
          -0.05952753420156274,
          0.02324668391684622,
          -0.0006676421682296084,
          0.004161615332943285,
          0.17858082585589324,
          0.14112508305768598,
          0.00901725851418431,
          0.05276063780859231,
          0.017136579161195736,
          -0.1111852246333143,
          0.07602947627916964,
          -0.34190659467782447,
          -0.17835303570011057,
          0.02391616905748376
        ],
        [
          -0.18830861980241542,
          -0.05167174767992561,
          0.006558294407120264,
          0.23935740158867438,
          -0.004619626576985593,
          -0.20666051660971296,
          -0.025938721665221574,
          -0.2624716024644719,
          -0.13291580517245544,
          -0.08544579234797375,
          -0.25981888274107295,
          0.05783719580688511,
          -0.20137160052736183,
          -0.30332556851646214,
          -0.29832206482157136,
          0.06453391674357917,
          -0.22235409378056203,
          -0.1717845603054387,
          0.1989840299779577,
          -0.2923484310915932,
          -0.23239077300076116,
          -0.4948020969171631,
          0.2393186464320139,
          -0.05450013178187299,
          -0.21229972441596787,
          -0.07038174829779166,
          -0.25484417414803234,
          0.15379966752138513,
          -0.09112166099553051,
          -0.1133578782966128,
          -0.4403927246854844,
          -0.17779791172957915,
          0.2674933134426836,
          0.05082254785934648,
          -0.13885702481957563,
          0.00008185999327899869,
          -0.003808754036992961,
          0.09801932375998544,
          -0.14867277196711165,
          -0.3373030143648033,
          -0.18770574603362503,
          -0.21219486595831916,
          -0.09712038128433155,
          -0.2309001472651658,
          -0.1275521115517236,
          0.06645450270801649,
          -0.20887720061736054,
          -0.14879487227860688,
          -0.08536636268421455,
          -0.5506012355716015,
          0.20277750073839676,
          -0.05469662044520003,
          0.046011553731636054
        ],
        [
          -0.890313850500721,
          -0.343780677368728,
          0.10089775048604233,
          0.3503036546946833,
          0.7236108647591213,
          -0.3054142737658446,
          -0.34454483805227964,
          0.051591739203942444,
          -0.022284743421553295,
          -0.22303101133390382,
          -0.10804807830866567,
          0.06148085047099325,
          -0.2997623361364624,
          0.10451613380075744,
          0.08696122647608533,
          0.0009176276695697895,
          -0.1642022075246697,
          -0.06423358670209002,
          -0.0639594030136032,
          0.02909821618024371,
          0.2108882884718966,
          0.031924116563202216,
          0.14624088315954076,
          -0.11406230043527171,
          0.3510848095450662,
          -0.2666993544417897,
          1.289728234377946,
          0.06905896043821788,
          0.06073814380459285,
          0.10321938533761739,
          0.10543423262185637,
          0.07273041607788581,
          -0.010941355251504794,
          0.024102834270716997,
          -0.03624950203220394,
          -0.0228426640833337,
          0.08903261269650295,
          -0.07837684934975103,
          -0.20797482284274352,
          0.07803076287613814,
          -0.017186762817900363,
          0.032654019577088245,
          0.14256298693276562,
          0.12325350580077787,
          -2.988377410920639,
          -0.117530908166656,
          -0.020063024552446712,
          -0.15950277484122163,
          0.030090809487590086,
          -0.05897269733042936,
          -0.21412930905929486,
          -0.08413014542415054,
          0.044238188684642174
        ],
        [
          -0.20024385062401504,
          -0.5264050923323513,
          -1.1047016515083603,
          -1.5529348162311598,
          -2.819561734817684,
          0.35075089142068266,
          0.5494526563755373,
          0.3431173144916185,
          0.2956885023092849,
          0.30944717808529554,
          0.17383790910702493,
          0.26806851741296867,
          0.40348073066081275,
          0.3731674193922428,
          0.3894195633371655,
          0.2722052170667028,
          0.0059855691150772,
          0.4051030193415961,
          0.4433077027911244,
          -0.04574877069981071,
          0.10107308760604616,
          0.12585558769834507,
          0.15252659290241893,
          0.03755375398247113,
          -0.12374363005544403,
          0.0986239828459819,
          -2.7483311946664513,
          0.05257642716001603,
          -0.04224586593281235,
          0.024838610843969836,
          -0.011145926725706683,
          -0.0056558025854454835,
          0.2285097891360117,
          -0.0078052123817686754,
          0.025517276607764965,
          0.0020503150165895245,
          0.0033646540000800626,
          0.03987153029997503,
          0.3257479952514231,
          0.03162458315444909,
          0.03190826329234518,
          0.06883591970538398,
          -0.04408405253100866,
          -0.3308585048789507,
          -4.646375675871234,
          0.28619365155703375,
          0.18272079898897703,
          0.2616386757784355,
          0.053083115780657796,
          -0.2393488295546692,
          1.28143098719588,
          -0.2520363371797707,
          -0.19156357085038825
        ],
        [
          0.22249937236906236,
          3.1068843974981126,
          -1.2660706670137607,
          -0.3652152789995611,
          0.9143854406685221,
          -0.216576358798095,
          0.4495565677702949,
          -0.24395798921875195,
          -0.5016188044428597,
          -0.30295450111288447,
          -0.4517725828358746,
          -0.3129651471721197,
          -0.3532474821858505,
          0.12256738818322259,
          0.019284888304958513,
          -0.32092255363491873,
          0.48706976855616985,
          -0.2381160648891806,
          0.3073376374929625,
          -0.027330689453428137,
          0.05059293146162208,
          -0.020103877644917435,
          -0.011924726017863268,
          -0.08976030803721638,
          -0.13623981294753934,
          0.11015767183401338,
          -0.03004324627563529,
          0.02898656669567636,
          0.02229792628641075,
          0.00836200616694252,
          -0.07276376943433503,
          -0.030684311406983463,
          -0.06166217320512993,
          -0.0017726292968971292,
          -0.09908614670691974,
          -0.07403321385020452,
          -0.0584314786189561,
          0.022085709757385386,
          0.08121227520372265,
          -0.0650982088276846,
          -0.029179099672384638,
          -0.1301788795422471,
          -0.13304213607720056,
          -0.2550923939969163,
          -0.15804171588042837,
          0.02454914375042658,
          -0.029736942839927838,
          -0.06196117364202062,
          -0.07891384772917198,
          -0.1434320563038472,
          0.32454833039094205,
          -0.184630225893729,
          -0.0705745945849532
        ],
        [
          1.0600309508640664,
          -0.0950376543452213,
          1.351794775434396,
          0.1362541725464679,
          -1.0565097904230694,
          0.23405382493618673,
          0.2815875503352445,
          0.1803806633068049,
          0.44880453962100775,
          0.22500147238896165,
          0.0026466086665937042,
          -1.327901518685322,
          0.5304999982983863,
          0.6934191108396075,
          -0.35905557040203195,
          -0.9898616394727454,
          -0.1378359507871138,
          0.2823269720296005,
          0.49726077473680347,
          -0.10818648022958005,
          0.014098602604071234,
          -0.2526434407432563,
          -0.18635692965888498,
          -0.03263987563539733,
          0.2501807089150705,
          0.04800332588052225,
          -1.1459068486841506,
          -0.16159123354603555,
          -0.08044675291131277,
          -0.09923774269853398,
          -0.0681576434055392,
          -0.0001483247731419021,
          0.04278442180357461,
          -0.13994336083142841,
          -0.09121668671426457,
          -0.14265196139056707,
          -0.067285868504909,
          -0.12473996825628675,
          1.0367922486730379,
          -0.007043811923438759,
          0.007685272798412951,
          0.05223995209732039,
          0.07790384173663448,
          0.22709531156863322,
          0.40036462888378666,
          -0.050537286274673646,
          -0.08164938237523323,
          -0.03928809973406966,
          0.023646656801779315,
          0.14917011607247677,
          -0.06918589392888325,
          0.05757363744508784,
          -0.08525363084742177
        ],
        [
          -0.7817434473187448,
          -0.3227420849088094,
          -0.24789989775294236,
          1.1852189200859715,
          0.43061118925000486,
          -0.4714367558827506,
          -0.3034942587111101,
          -0.781704264864214,
          0.22021594850888382,
          -0.8383454306261037,
          -1.2331447597730811,
          0.9260448837698619,
          -0.5855872799041334,
          1.2529499535374302,
          0.6243711337076789,
          -0.592418037864255,
          0.4803410989106053,
          -0.12187878284898601,
          0.89488590079823,
          0.019265202625897957,
          0.14018650158108129,
          -0.18067977778850772,
          -0.2365859860111816,
          -0.26337087487672384,
          -0.1417992838993171,
          -0.3802383492278854,
          0.7526408309685901,
          -0.29205016596762573,
          -0.020909945186849865,
          0.024243911330989798,
          0.1240779808384603,
          0.10008981042812369,
          -0.19497244187650709,
          -0.019277328420691218,
          0.03200358826869002,
          -0.06763112007807026,
          -0.028738243812388545,
          0.05068338529880475,
          -0.448231237934462,
          0.06014808845388141,
          -0.11731126570437364,
          -0.06966162448197472,
          0.15916812759117424,
          -0.08400779095334901,
          0.22998300123808896,
          -0.07504959817112283,
          -0.1062983896330285,
          -0.06305617788926689,
          -0.39650256914226606,
          -0.056354044008556974,
          0.21800474426726954,
          -0.003201669292606626,
          0.049644634257422354
        ],
        [
          0.9184108667262497,
          0.4538066186811126,
          -0.6659697716254528,
          0.5011553656146674,
          -0.09376415226405235,
          0.4471110229051939,
          0.5537362358114243,
          0.04123847872157722,
          0.40502801863997584,
          0.5164788562337088,
          -0.007387241807402256,
          0.43734958108752686,
          -0.4417215955054034,
          -0.7050616416465784,
          -0.7239943450367435,
          0.34023056930155804,
          -0.3295363346581043,
          -0.6139318207548334,
          -0.4141788495421242,
          -0.09589839092094786,
          -0.025203614162992237,
          0.3489915170409496,
          0.011067885289412698,
          -0.004698173126155824,
          0.18420377111958258,
          0.4218306993768204,
          0.4174835750112495,
          0.08708906010735365,
          -0.15892921972641702,
          -0.1973785335119101,
          -0.08708375409360265,
          0.049242892197559264,
          0.06475452764293195,
          0.23854630410471286,
          0.28328244300045546,
          0.3169212411986159,
          0.1261699762267227,
          0.050032853458151325,
          -0.5073376453481577,
          0.18229592985413015,
          0.2022906922920714,
          -0.03717294823754579,
          0.1326773271019544,
          0.30748861769800034,
          0.17163669632680495,
          -0.1829527608680385,
          -0.1630616701754996,
          -0.09432373146283314,
          -0.14900202621857422,
          -0.14070909002234241,
          -0.22720051469667507,
          0.28802188102529175,
          0.38314423223682625
        ],
        [
          0.03327293618317851,
          0.3908825465969614,
          0.7008692748503507,
          0.582380401388052,
          0.6177227715624479,
          1.1367874629906003,
          0.480275839545037,
          0.12031335532708937,
          -0.062030060709040984,
          0.23357651091531623,
          -0.4378736255288613,
          -0.8628983579921026,
          -0.40856828753209695,
          -0.9956751808647479,
          -0.02877820290106868,
          -0.9918673555144344,
          0.10730682291409072,
          -0.28471012559349407,
          -0.2753329527201144,
          -0.009489409997794714,
          0.051265103286761426,
          -0.01939108375314309,
          0.3509166539568718,
          -0.14496847985455705,
          0.1725346561036368,
          0.08372637855534058,
          -0.2179023331060139,
          -0.23703480760862336,
          -0.043908311880901676,
          -0.17567794617666285,
          -0.0904643093170668,
          -0.04385878343464046,
          0.0036736683117056523,
          -0.03094619458482037,
          -0.023869009531975058,
          0.03575551821069789,
          -0.11949427620424942,
          0.09299231785878787,
          -0.15614043327932714,
          0.13921063793413999,
          -0.18862528414512242,
          0.07718776170942797,
          -0.09806793910114847,
          0.1430010935421938,
          0.6834288226551052,
          0.1652527492644435,
          0.15379583438122255,
          0.18607935596736508,
          0.07483779528301299,
          0.06856274211792061,
          -0.10366546079739715,
          -0.1794495500956767,
          0.19221558378363676
        ],
        [
          0.49084382032195295,
          0.19853582239188672,
          0.5078099821927063,
          0.7146648427191937,
          0.09192615050258192,
          -0.3299915417512552,
          -0.4197553441936255,
          0.3353392299826498,
          -0.18741686705071112,
          0.5052467775766798,
          0.2967361370412986,
          -0.943433060404175,
          -0.06613453929654177,
          -1.7804409504030814,
          1.5473535200170965,
          -0.40997925439974026,
          0.9696808441490936,
          0.013305393261256813,
          -1.431650655228775,
          0.03322212782500361,
          -0.219670263665604,
          -0.14868327489207617,
          0.5359009688938614,
          -0.10858454118338165,
          0.029152020668068174,
          -0.05140505744792581,
          0.8052096371113012,
          -0.13929041537279097,
          0.28531755300150397,
          0.0913958869091933,
          -0.3309478394184175,
          -0.01162872639995602,
          -0.0329755723983695,
          -0.023706458409482576,
          -0.030256737476031,
          0.0020457060506413375,
          -0.09198834672757632,
          0.06945329907339824,
          -0.12141614056042697,
          -0.04229074457474302,
          -0.0969227987260636,
          -0.09657866923545066,
          0.02707861646140466,
          0.10142335242113065,
          0.6287775577522726,
          0.050787878174464396,
          0.025740235142998984,
          0.04822778233156547,
          -0.12097302279351542,
          0.0523972057149099,
          -0.07295540202152856,
          -0.002292587692188817,
          -0.05864871306108645
        ],
        [
          0.762712660251127,
          -0.9044730066287588,
          0.3091375599711244,
          0.6615515374551451,
          -0.49324960288478514,
          0.18677017866379972,
          -0.32400353635458234,
          0.3303213190035672,
          0.042281538091010616,
          0.06700879116622727,
          2.264146911607558,
          -1.8712020921091093,
          -1.05304775227596,
          0.6188847601872859,
          -0.0010344737062564818,
          0.5297756510505904,
          0.24971878536257058,
          -0.5307159169177089,
          0.4376667713547446,
          0.033958380926124326,
          0.1960902527720981,
          0.269671176655078,
          0.07191444403088215,
          0.004052955927408438,
          -0.17165155414542113,
          0.30767091713116546,
          0.2066791059885695,
          0.057259422750941834,
          0.026190206255928074,
          -0.06056712342768138,
          0.09169910953682944,
          0.0013749034253671165,
          -0.05648309870380413,
          -0.07692748359555206,
          -0.043403004421033516,
          -0.08962327605023031,
          -0.1305698966056794,
          0.08131946445546079,
          -0.21641844780672237,
          -0.010478702739153628,
          -0.03184357723824634,
          0.08605498280665533,
          -0.0633130576710449,
          0.35755577426821167,
          0.08520948967472515,
          0.06771496443274548,
          0.07315832366359688,
          0.14156993617335661,
          0.17951748942389478,
          -0.2327947334866372,
          0.03591881059130784,
          -0.052685307725733196,
          -0.04580374471753556
        ],
        [
          0.07169510035710741,
          0.10096139400276627,
          0.3424046610597928,
          0.3337416555188275,
          0.005780245907585804,
          0.010981062748471567,
          -0.1459307187529904,
          0.029013135570728175,
          -0.2510049837279273,
          -0.16421760842992525,
          -0.5900244729643966,
          -0.7823352775526276,
          0.30910250816844814,
          0.04436683127010479,
          -0.17230483932375834,
          0.34395899989088696,
          0.7862033201153852,
          0.08472249889685257,
          0.030187359258231367,
          0.03777625427633061,
          0.06560376554381607,
          -0.08236232064440374,
          -0.08888073826219153,
          -0.3134197086181472,
          0.9900750626785974,
          -1.0940829417500444,
          -0.4236077605124865,
          0.10415051503009722,
          0.07401295492005051,
          0.041636255832030025,
          0.05305974798847687,
          0.025506442563819565,
          0.2584221308830435,
          -0.0815388602598425,
          -0.10679308385792126,
          -0.10831712660269956,
          -0.04572245032312755,
          0.025499630650666266,
          0.08585891149670921,
          0.014099850798193968,
          0.004450786593513961,
          -0.05496161080957228,
          -0.02137974562072638,
          0.2087829284062029,
          -0.6058534977941249,
          -0.11792360220175035,
          -0.01878131523487876,
          -0.01086144380837327,
          0.23273195581754855,
          -0.06597838536528645,
          -0.01077858421193644,
          0.12750358464203523,
          0.3883167723309633
        ],
        [
          -0.12058720656732619,
          -0.2707049019862979,
          -0.050458940711343464,
          -0.19923554740806845,
          -0.14510608938339056,
          0.05537504029852322,
          -0.04352327120998157,
          -0.07187768201145066,
          0.26155147915573956,
          0.1278295385608394,
          0.16058636592535727,
          -0.3694800677903966,
          -0.0381527295691311,
          0.020774423470369903,
          0.23962666099634036,
          0.04611433290863551,
          0.2952482006025357,
          0.04280171736225444,
          -0.1383628869298749,
          -0.014962892562046172,
          0.21492149737387953,
          -0.23474584481335664,
          0.13481239404049702,
          0.1827237182963684,
          0.04517446468775837,
          0.030675979917526575,
          -0.05526156352436376,
          -0.037104577853848866,
          -0.13373093537072903,
          0.19904294835557976,
          -0.18381663072532384,
          0.1331676820119775,
          0.2442046522668549,
          0.010947219489264325,
          -0.016311354509414448,
          -0.1419995284156008,
          -0.4862150702517623,
          -0.02203515201577773,
          -0.20951082485066924,
          0.19379522496018275,
          0.0320403058106894,
          0.09689746877337047,
          -0.079512886089537,
          -0.1490079012581459,
          -0.3712788528119124,
          -0.1678557893340122,
          -0.10602235728442505,
          0.17717467337084075,
          0.09421871247026381,
          -0.1282599547918834,
          -0.2912899643472819,
          -0.1945135133931929,
          0.3279421130032977
        ],
        [
          -0.14812677347660752,
          -0.21120593390088854,
          -0.230771068427083,
          0.014898069586612533,
          -0.3682587791704867,
          0.10892360290573685,
          0.17886036141335432,
          0.3449912345138983,
          -0.4315718349381729,
          -0.11153464704397768,
          0.044379674223382126,
          1.2610845138815376,
          1.619823111506078,
          -0.6486128321291672,
          -1.113508598447714,
          1.20590113151629,
          -0.4968309797374554,
          1.4044842155606998,
          -0.5279214305185171,
          0.06152484754155625,
          -0.00927290034293157,
          -0.09940911406274373,
          0.7341372096167149,
          0.6514881389800128,
          0.075980729379758,
          -0.1771966331871105,
          0.3787222448779335,
          0.15526118732911842,
          -0.11135419917154635,
          0.1775332684899403,
          -0.18298169664064987,
          0.11877620153558184,
          -0.05248928150265275,
          0.2249573424694321,
          0.08638461010183202,
          0.11325665112478184,
          0.0431612151569945,
          0.025003542760051227,
          -0.6393467555600605,
          0.06396845125601218,
          0.07169805151816,
          -0.12179309101789583,
          0.05821333614917944,
          1.0125807918444054,
          0.433237528415609,
          -0.023955577946825242,
          -0.05028161170024878,
          0.06719544772379742,
          0.009716061932221744,
          -0.06529151975825769,
          -0.49536165370236973,
          -0.38911056006398614,
          -0.2155719524395337
        ],
        [
          0.02880742179075689,
          0.2820800999706236,
          -0.022035872099205926,
          0.8058063396997303,
          0.14996215958741319,
          -0.23522742536909802,
          -0.135824590606669,
          0.25285317754369085,
          -0.15897184530236597,
          0.35329772705140006,
          0.2954915022514063,
          1.4624384468214995,
          -0.990637821502621,
          -0.690861367720688,
          -1.4203114454790753,
          0.5291342762150997,
          -0.8137241591932111,
          -0.17677185195035744,
          -0.16354714321403696,
          -0.0027562374464351743,
          0.04942325578866853,
          -0.005524905827714964,
          0.07116637562046636,
          -0.018068129781338885,
          0.21541650649734714,
          -0.16611982435374406,
          -0.39952547408479666,
          -0.0017059744583134099,
          -0.2263030442798932,
          0.0043064359471140165,
          -0.035972585590918656,
          -0.03908687589202804,
          0.2456106561161183,
          -0.05557850105448159,
          -0.08416248617097778,
          -0.11980952768124009,
          -0.03333186366538398,
          0.03891550627996427,
          0.0982950619561015,
          -0.07006779213952188,
          0.27119612996605724,
          -0.11333375459127358,
          -0.20222144311203893,
          0.3898413759173168,
          0.3955942827697492,
          0.02162102936722769,
          0.04539517590419643,
          0.04340513939719416,
          -0.0003846792383558156,
          -0.026256780257250707,
          -0.19688890625622055,
          -0.16271229636198103,
          0.00009404889594813967
        ],
        [
          0.8231956619948889,
          0.13654066522095812,
          0.048244205997351054,
          -0.6534846939047306,
          1.7331074661949255,
          -0.3549148889990975,
          -0.13110177569153836,
          -0.01216894835342369,
          0.19358908058228846,
          -0.058484791261907004,
          -0.44104213800318004,
          -0.1727559263712557,
          -0.22517598714234574,
          -0.8629221720174722,
          0.11784110228888388,
          -0.10341133842093302,
          0.10228700000172747,
          0.2607367994779794,
          -0.6898831199915505,
          0.042629689123107856,
          -0.041654129580804125,
          0.03761742168572256,
          0.6844008995627204,
          0.06503250239127535,
          -0.11387208058353368,
          0.00834091445490209,
          -1.092951675514083,
          0.10384308275915874,
          0.0179273582231094,
          0.011637539481183585,
          -0.2094924803135422,
          0.058193300163848154,
          0.2584417893178742,
          0.08868095105599084,
          -0.027367528023332692,
          0.06194651398644155,
          -0.035844739940849156,
          -0.09778698998221094,
          -0.11688018107629818,
          -0.057629045796332795,
          0.07598674819113448,
          -0.03483832903407695,
          0.15505172267794307,
          0.26160400950722773,
          -0.18659766596520444,
          0.16453257642549377,
          0.1808981888259974,
          0.1549516489637845,
          0.22993125530580766,
          -0.27502802949502103,
          0.12705660381767567,
          0.19855082838814975,
          -0.20908513306407445
        ],
        [
          -0.028328293133286067,
          0.05679598016155007,
          -0.08709435441886536,
          -0.16525953162808954,
          -0.03786445634119434,
          -0.162006072542571,
          -0.13940638390941465,
          0.22315682927797106,
          0.22961518772153908,
          -0.27427273922768236,
          0.2161235592560064,
          -0.16771625910231988,
          0.20568558824498964,
          -0.05204501231169871,
          0.3541504780065217,
          -0.050732079747235564,
          -0.1779757327428544,
          -0.15150652511897067,
          0.07100891944588644,
          -0.08840637221375867,
          0.4202951496893203,
          -0.09781529845608997,
          -0.04099547347795765,
          0.0619354380682778,
          -0.015972719815218975,
          -0.06772802106911999,
          0.10653424871630651,
          0.1646939285045126,
          -0.1048422612570536,
          -0.02285101131132796,
          -0.5147206257898316,
          0.4677375944130887,
          0.07674118274499223,
          0.25597566551342377,
          -0.12676123290664723,
          -0.13172963751191116,
          -0.05719981106628772,
          0.039657107868831885,
          0.05630793951941997,
          0.07822608158946226,
          -0.14339071096513964,
          -0.30012231623879826,
          0.1383793655462277,
          0.17005626780568545,
          0.11582992399583625,
          -0.18258074884131564,
          -0.10462928542754912,
          -0.4493390100523711,
          -0.111230577888758,
          -0.13402841737513482,
          -0.40803750912396003,
          -0.12485602035028179,
          0.07781185309254897
        ],
        [
          -0.059753560418993455,
          0.17441901959790554,
          -0.20022703997521948,
          -0.09380445820251462,
          0.4200508265028132,
          -0.09500816547889025,
          0.35482563250413207,
          -0.21634880853200686,
          -0.08701820690052631,
          0.030876397735461216,
          0.07710171344295311,
          0.00942795037516236,
          -0.08572388572058583,
          0.007237489910410467,
          0.10713366712327313,
          -0.013988426769642237,
          0.07031583235264717,
          -0.3488763985230549,
          0.04249323984691852,
          0.2169293081338631,
          0.008952547777075945,
          -0.04140970622335028,
          -0.00611066540604557,
          -0.09859641148440548,
          -0.12932354910564317,
          -0.1843338762864847,
          0.5205579141258734,
          -0.08866568090614949,
          -0.09518100399253819,
          -0.04494517430985543,
          -0.09982234274459265,
          -0.17435923603522563,
          0.05434020540218855,
          0.06323626085158332,
          0.022374014725624027,
          0.18043156546211608,
          0.05237692249523417,
          0.2583349521013654,
          -0.3931380223779307,
          -0.30867701376012685,
          0.16878977946405901,
          0.07043916075034432,
          -0.18271638039483348,
          -0.09510738621818855,
          -0.11950049541664595,
          -0.11920434493570597,
          -0.2984063977962379,
          -0.1720443302537264,
          0.1704361949929563,
          -0.021755339722470724,
          -0.0073262178095310215,
          -0.2132680622448496,
          0.1532975428683844
        ],
        [
          -0.07275674360767838,
          0.2647266257511607,
          -0.05168227394450331,
          -0.4139559520001207,
          0.011721087799146462,
          -0.08603310098909674,
          0.2674613017028126,
          -0.06817418573026612,
          -0.3278133567324983,
          0.1440917047789752,
          0.12196648440759288,
          -0.03130178856162804,
          -0.13539875215491348,
          -0.0887789888969358,
          -0.14353772133417045,
          0.05282746343381373,
          0.023768668386794294,
          0.13031242193646225,
          -0.15643069584034877,
          -0.09380377471376433,
          0.13850593360066982,
          -0.017299677406561215,
          -0.012718931405328976,
          0.07069799915603972,
          -0.11388338222190933,
          -0.125697184268119,
          0.01631815087237909,
          -0.5765556421992859,
          -0.07396212070161623,
          -0.3976270566700435,
          0.18096939072300938,
          0.05405704562652681,
          -0.2679249460822561,
          -0.46040729398823443,
          0.0295731319941875,
          -0.5681804299361076,
          -0.15552249066950052,
          -0.16707640588249664,
          -0.2432582902264058,
          -0.032732256039392504,
          0.0477165461675672,
          -0.3529318783151973,
          0.25283215642928614,
          -0.3320601065081107,
          0.10811585230305398,
          0.10815772419358988,
          0.21905964235767406,
          0.18433390728605192,
          0.16334542728204232,
          0.30422240412403745,
          -0.03536478427846095,
          0.09270623884213328,
          -0.1656589951132852
        ],
        [
          -0.023032027469547914,
          0.3535409468469533,
          -0.154784158790212,
          -0.024574319127642488,
          -0.09651222344913248,
          0.08648165466691018,
          -0.0784143202646128,
          0.14871856552972523,
          -0.09398839647510557,
          -0.018869408744446124,
          -0.13335207813419037,
          -0.11043091586933541,
          -0.15764355601118316,
          0.16336397963596447,
          -0.2973074877472996,
          -0.07059582713125513,
          0.20678904867772088,
          -0.28537413649684407,
          0.015310680669163983,
          -0.0909989333480942,
          -0.20246104101731854,
          0.04217775431446501,
          -0.17106396479063993,
          -0.18466569605834676,
          0.3756778948155992,
          -0.0019707999699360825,
          0.15265618845481263,
          -0.3617870596474534,
          0.13483607430096622,
          -0.5073242316519633,
          0.20932784400139642,
          -0.1372326814036012,
          -0.2134615947294315,
          -0.12273386254127558,
          0.06957759456958862,
          0.07973512552322204,
          -0.171706088753373,
          -0.06546563772542188,
          -0.002234051177441378,
          -0.18204310178773175,
          -0.516425345017591,
          -0.03915335641858806,
          0.03716532657687617,
          -0.03989551063504929,
          0.12171049574117544,
          -0.04335781601509199,
          -0.11002234956433542,
          -0.07662200366611595,
          0.13486635391997778,
          0.05890847037903103,
          -0.17976686467686082,
          -0.08795914770566679,
          0.08811773515552287
        ],
        [
          0.17114776959068945,
          0.1919948992805598,
          -0.29026679145811307,
          0.09807876731553142,
          -0.2954286243528152,
          0.21659720926658374,
          0.3569152774907267,
          -0.12630746415521446,
          -0.4095875625612534,
          0.15333488623345823,
          0.28493146996288754,
          1.8452402496031066,
          -0.9798763731684668,
          -1.0338453223775506,
          0.6027641226764793,
          1.6449763947099576,
          0.6109112574682674,
          -0.6285646185086033,
          -0.8346689412403729,
          0.011114819104489094,
          -0.06673955080763891,
          0.013752805124382593,
          0.16401685890903447,
          -0.2987874692018458,
          0.022151633477929544,
          -0.34977219404525317,
          0.2767701763119857,
          0.3325729233626474,
          0.06986502187834766,
          -0.14500234163918915,
          -0.1646391509203145,
          0.12945698562485475,
          0.31059741290604986,
          0.06495208467120796,
          0.09069927880946113,
          0.20598230379271187,
          -0.03306390325787799,
          0.005417996992223273,
          -0.37005443124680076,
          -0.0374780445543464,
          -0.08885552749322868,
          0.02746076999549145,
          0.00715622215168255,
          0.357342472275204,
          0.5043607036697408,
          -0.08411981494785564,
          -0.12273634563938078,
          -0.09283865164841748,
          -0.04793349421457395,
          0.2615355512483245,
          -0.3047155726532329,
          0.09198787847748949,
          -0.22309759260938483
        ],
        [
          0.31809201315956415,
          0.11304145116948289,
          -0.16818283003024723,
          0.0008859777126158469,
          -0.19730604582194639,
          -0.023774912407389014,
          0.2072295672491476,
          -0.1971074699869928,
          -0.21472085956945497,
          0.3845538876190706,
          0.08075751888351265,
          0.30688298418283144,
          0.3815669131636204,
          0.15167182175932567,
          0.228480768996682,
          -0.09515959366096567,
          -0.2755137498805589,
          -0.040574831220584764,
          0.029358500308017413,
          -0.30083822929270576,
          -0.06620140250637056,
          -0.19230379899253755,
          -0.2888531136344326,
          -0.3552150032110453,
          0.006804758403490919,
          0.19369028666433127,
          0.4466686557728325,
          0.23676976259671106,
          -0.14175512842109947,
          -0.07036881005857738,
          -0.11202707860449497,
          0.0816032378124413,
          0.19092231647417748,
          -0.25208284384660207,
          -0.12929097811547566,
          -0.39934132366629116,
          -0.0068043939172578935,
          -0.15230262330522443,
          0.7794785391215231,
          -0.32171069803082447,
          0.062175331121251766,
          -0.1968725775723423,
          0.03091782352209305,
          -0.0788946318392019,
          -0.23185614037122707,
          -0.37816692419746584,
          -0.2187069634470563,
          -0.30671072652210807,
          -0.014333332588808752,
          0.06213679342054648,
          -0.19729329692751188,
          -0.052508512043590076,
          -0.028188175484083373
        ],
        [
          -0.7446734162101252,
          -0.4705741388373139,
          -0.11172795155108764,
          0.1273687111052753,
          1.427191278504218,
          -0.7458677101900887,
          -0.6354331725239855,
          0.23877209215712739,
          -0.140577477912767,
          0.18095569043896345,
          -1.6521924805494033,
          -1.1342782887159955,
          2.5639579761063853,
          0.12295912293917777,
          -0.667600838992822,
          -1.0609886213623663,
          0.008496642156465646,
          1.3594558369667498,
          0.2830398555610906,
          0.015795520156859668,
          -0.2688837088878267,
          -0.4744978935867357,
          -0.1322526259951695,
          -0.061051877640759325,
          0.008661417552659862,
          0.2881837666124472,
          0.4105775375356786,
          -0.2207637775445718,
          -0.13416559850871157,
          0.12145749146434182,
          0.05548241805029019,
          -0.0019359528263813448,
          -0.3100827526301532,
          0.09200162358795726,
          0.10405741832091116,
          0.05382342953176367,
          -0.04707540669000043,
          0.05703011111349894,
          -0.39493215242291557,
          0.018388195949175054,
          0.11686098365057647,
          0.03895794154268115,
          -0.02054856995744685,
          0.17738102536886416,
          0.1453978019193559,
          -0.14478504091184258,
          -0.042248024282935975,
          -0.11098524767540277,
          0.2608656042642282,
          0.08800369241229504,
          0.23907353851451268,
          0.031527113585327206,
          -0.371452174635903
        ],
        [
          -0.6727848413404992,
          0.14389004498438437,
          -0.08672580121316605,
          0.6447083191125725,
          1.700230284535957,
          -0.378460553694834,
          -0.0688214512279144,
          -0.40687022410570906,
          -0.42868069067768827,
          -0.16995280066722326,
          -0.3075822749315092,
          -0.29733389843813485,
          -0.45978092219368527,
          -0.3149405009796348,
          -0.5591439359036214,
          0.13881997249453334,
          -0.15212633634603742,
          0.017584959072331957,
          -0.34477953596203437,
          0.01020926656460283,
          -0.12238432006428333,
          -0.09125807544304891,
          -0.2546675408890401,
          -0.053985808124896444,
          0.14955210345463205,
          -0.21324022229633682,
          2.91158296081176,
          0.16078183546643088,
          0.007398080169222401,
          0.051877064414752365,
          0.1042039124700538,
          0.07881037730531562,
          -0.013115825522908247,
          0.06121499414867404,
          0.08677054967273376,
          0.04117586009206814,
          -0.10611502379161156,
          -0.029956693062735476,
          -0.7122428372004606,
          -0.11158565688331942,
          -0.05308671190659494,
          -0.000801164929935684,
          -0.07464248674133024,
          0.036992738342526046,
          0.03660002594951381,
          -0.3024062718805472,
          -0.2913742048684447,
          -0.2507222646968487,
          0.03719014140917786,
          -0.18466324337367182,
          -0.46112901419199553,
          0.1392312458589049,
          0.07043386699994372
        ],
        [
          0.16617022416053662,
          0.3382452035904149,
          1.0039526256376892,
          1.107462258757291,
          1.117706922794606,
          -0.3838076344075641,
          -0.43680933849076153,
          -0.5633921060316429,
          0.0013693643756113947,
          -0.2251623501978085,
          -1.0780030632377589,
          0.4236789752597006,
          -1.4031759871120126,
          -0.8255738076889004,
          -0.7311229316394249,
          -0.25842865928099207,
          0.023410249894940817,
          -0.048230358717674365,
          -0.04692217980349798,
          -0.041889459438589814,
          -0.142961465859655,
          0.6145878098083907,
          0.1478460459877476,
          0.494810256992928,
          -0.35942498904341674,
          -0.23623137288682158,
          0.2805041282996136,
          0.17554225378447508,
          -0.05556446595617382,
          0.016145775841330215,
          -0.03061295992641834,
          -0.11049729903728085,
          0.2925503528445046,
          -0.14959536512749474,
          -0.027760997448860632,
          -0.030493177280334047,
          -0.09476302725676397,
          0.05525951400440601,
          -0.06694354266067222,
          -0.0898121861347977,
          -0.03904718352166106,
          -0.008240755769358446,
          0.0037332196282085636,
          0.03600809148314009,
          -0.005015229964660748,
          -0.0312180100431451,
          -0.023173725865214136,
          -0.02369809439837578,
          -0.059259514776520146,
          -0.09488570535429598,
          0.16014901549796073,
          0.00006526471200533493,
          0.17347270290653144
        ],
        [
          -0.26304300993831453,
          -0.04234085950492079,
          -0.37751734752924637,
          -0.049187109025012166,
          -0.3495495204484915,
          -0.21623577143059086,
          -0.18943038125779116,
          -0.2502117045947008,
          -0.26916453789900197,
          -0.4106195691126202,
          0.31512180201602,
          0.36965072425481654,
          -0.02097345381557984,
          -0.16242318054617252,
          0.20658192285095617,
          -0.22218915397673492,
          0.09057475251688313,
          0.05746812031776572,
          0.3582631787267129,
          0.024635106370323543,
          -0.013099099358153173,
          -0.2540286944836091,
          0.23627367705342905,
          -0.10386558400446523,
          0.23105051343651287,
          -0.01584937984260778,
          -0.10129274278339821,
          -0.1850735525558255,
          -0.06567843322943304,
          -0.04993826274011268,
          -0.2169314203539604,
          -0.09871860416496907,
          0.04841014584363329,
          0.18683908123926696,
          -0.3965870357458413,
          0.16192504831772683,
          0.0134128087245036,
          -0.13030856505164115,
          -0.2530489091654606,
          -0.09918449972626903,
          0.13358359491894675,
          0.34463714163845466,
          0.06200703092136146,
          0.10625037119444392,
          0.1338581432896738,
          -0.4198740350926458,
          0.040820734179086854,
          -0.15565610391410245,
          -0.08123545423273526,
          0.09939170300407374,
          -0.24621970931266715,
          0.01635917031437801,
          0.38576480601434154
        ],
        [
          -0.05269225639227192,
          -0.002653456273343679,
          -0.13106297660528107,
          -0.2959546817794798,
          -0.04424638456953596,
          -0.20430731130195662,
          0.4906146098668205,
          -0.162395790181995,
          -0.18787505895415949,
          -0.047167243090244795,
          0.5885320513814101,
          -0.039591081345846664,
          0.15772707191681057,
          0.2978139435437623,
          0.35226384588494475,
          -0.02438275496070909,
          0.14950736036781068,
          0.12156633676768663,
          0.05556817169779579,
          0.08664967031407092,
          -0.11608147767253744,
          -0.19466179760018182,
          -0.32415403416863964,
          -0.3585959124320291,
          0.30153032391931633,
          -0.42480254509466187,
          0.2895332612477542,
          -0.6473772309543891,
          -0.12310774598285011,
          -0.12604189555490297,
          0.027421279163469092,
          0.029216115093974527,
          0.08201670660839516,
          -0.00792950829974939,
          -0.07419374523079325,
          -0.03817932188049927,
          0.24009271666299362,
          -0.20428798139245039,
          -0.5709715004283308,
          0.7171547797906191,
          0.029676918649560926,
          0.09715186399752225,
          0.07523747638430775,
          -0.2337759375785613,
          0.9411578166445199,
          0.019160673270778535,
          0.05151094472127566,
          0.03498171315668055,
          -0.23438264304348638,
          0.41392310607734206,
          -0.5361984366725632,
          -0.5845267439746163,
          -0.29573366756915614
        ],
        [
          0.7961555523664039,
          0.07066885889197115,
          0.2811550016226571,
          0.5361774071774814,
          -0.25434573790636433,
          -0.11179592950085293,
          -0.23068275617256973,
          0.21858323327798787,
          -0.6821382729199583,
          0.1560191824484087,
          -0.47557201853183534,
          -0.43814325738192483,
          0.916435290801039,
          -0.1833191057408394,
          0.7649768329756096,
          -0.9198073672127999,
          -0.03263560523940703,
          0.6603362137854782,
          -0.023764636591532048,
          0.05602710952776976,
          0.05504369832683836,
          -0.35147454900451364,
          -0.30974664764951526,
          -0.49582164408572055,
          -0.40455174822064943,
          -0.5430265780900202,
          -0.1781967061539547,
          -0.3143309507300669,
          0.09297421591364372,
          -0.0019896875936755852,
          0.12013988465811577,
          0.14618761612672218,
          -0.1410599522269973,
          0.2248774748382307,
          0.1585209250498311,
          0.19764601152812208,
          0.00242252609530198,
          0.0544192441007736,
          -0.3253058067985722,
          0.014183562771769881,
          0.06213988316788597,
          -0.002490587486565497,
          -0.09745766065389802,
          0.47179500213862136,
          -0.06371236994524267,
          0.031783133232163294,
          0.017739554300505316,
          -0.07952942706534348,
          0.21851782770512138,
          -0.04864361694742845,
          0.04414505797789201,
          -0.08256902588348873,
          0.4359206422272347
        ],
        [
          -0.5830080306089804,
          0.2839767305738766,
          -0.1442713362848183,
          -0.5385250162604422,
          0.17776861823877618,
          -0.5287730047146468,
          -0.2318875816171689,
          1.1746135712856125,
          0.4979013237336105,
          0.27789224919187233,
          -1.1032459231619072,
          1.6021134756957671,
          -0.25527336030427306,
          0.49890242200964985,
          0.22678520796806398,
          0.3001214440255118,
          -0.03723017390108952,
          0.13254607183254205,
          0.3811062191582227,
          -0.09817024026327147,
          -0.1966746256002664,
          -0.03559839070902827,
          -0.009933330860021915,
          0.18774157359936813,
          -0.09320210692016469,
          0.05232317784061093,
          -0.1447479214290443,
          -0.11635212868642049,
          -0.011322444934047599,
          -0.06331921629765662,
          0.029087958509271594,
          -0.011969858471684474,
          0.0719468318140047,
          0.21119421979535372,
          0.2611422242155254,
          0.15332967037285897,
          0.040172986977275046,
          0.04558716078813362,
          -0.2149163989166328,
          -0.16388931476864693,
          -0.14123629614415595,
          0.29947186442664114,
          -0.029430855856465692,
          0.9016242668250115,
          -0.2985639296626013,
          -0.043249208062607854,
          -0.058047367110496385,
          -0.08282954840803809,
          0.12195539349865499,
          -0.022429909364227143,
          -0.012754625348631853,
          -0.10100245360796299,
          -0.10769556682758474
        ],
        [
          0.01964551274653133,
          1.061497114486019,
          0.3334331118330846,
          0.6670213119240608,
          -0.19226007869541042,
          -0.29093521863776073,
          -0.02183065569597486,
          -0.3104472902817519,
          -0.2910084344012693,
          -0.20313416780606589,
          -0.9499674604860585,
          0.21337745392983248,
          -0.1387578957109439,
          0.5038678244942507,
          0.08235395171818873,
          -0.4377723747621394,
          0.22984259332953422,
          0.04587612144533073,
          0.017991776863641725,
          0.030422649300398105,
          -0.14792416700130898,
          -0.13334612339310534,
          0.03373075403480945,
          -0.059223971557016954,
          -0.373053681900511,
          -0.06708067782169413,
          -0.8143553151397394,
          -0.250028814329291,
          0.043940202736766236,
          -0.06008728144715401,
          -0.039770206850794194,
          -0.06781387429234911,
          0.26478249866160847,
          -0.26879073378989954,
          -0.24501639953983487,
          -0.2650041543204346,
          0.1814657937205327,
          -0.14983005259391063,
          1.8346755779245878,
          0.04365161912743971,
          0.07135544210854756,
          0.01625030726166763,
          0.0637200989227391,
          -0.3032161885028858,
          -0.01775103797290974,
          0.10278637324325444,
          0.05537642943436859,
          0.11470903890715928,
          -0.016466246935889488,
          0.0046145429958767996,
          -0.05088551590378085,
          -0.2617915645078897,
          -0.12329480204444435
        ],
        [
          0.1761690215311223,
          -0.11868161987804143,
          0.04271439768159159,
          -0.6142870009281205,
          -0.5564988134620207,
          -0.010170160355095131,
          -0.33101165545627204,
          -0.29827691593914357,
          0.24931488608403285,
          0.00035302469372450526,
          0.23776885848093834,
          0.031687478125512404,
          0.23146379834898304,
          -0.023124235885566377,
          -0.055265920738809,
          -0.09727740756397377,
          -0.23224169450926618,
          -0.332686999671798,
          -0.3419531115602644,
          -0.04167798016636864,
          -0.5865881326102143,
          -0.1780380936305521,
          -0.07152200799532374,
          -0.2099563807801302,
          -0.09331390375785954,
          -0.3689995906972245,
          2.3550043636799356,
          -0.1384733364574633,
          -0.11812301368616006,
          -0.03839651697890831,
          -0.09920098717109145,
          -0.046704065014669206,
          -0.014485833072930637,
          -0.06931505105716115,
          -0.04004609869362558,
          0.010133785717576557,
          0.024567136027093137,
          0.05372958196159307,
          -0.16110357188479674,
          -0.0751127497758444,
          -0.009649894852151373,
          -0.02226186728318503,
          -0.1123593806361137,
          -0.4301241179768596,
          -0.2701089135462595,
          -0.1520975461565705,
          -0.14299547801771884,
          -0.1389934608204443,
          0.137777198254451,
          0.18909376612322795,
          -0.29044733739200385,
          0.08780189642124611,
          0.13350330510810984
        ],
        [
          0.3330888699047656,
          0.33251568849703517,
          -0.10638146051312554,
          0.12105971090802105,
          0.06276707374745462,
          -0.007453501491754686,
          -0.18111558092488664,
          -0.10198012695586417,
          0.009579293397038818,
          -0.1795606882589819,
          -0.014126788781361307,
          -0.016538667907499565,
          -0.15546514603620082,
          0.08029617555270807,
          0.22741596913629625,
          -0.09852661643345405,
          -0.22748860738496138,
          -0.05944527893330573,
          0.43823642423270504,
          -0.2305242663174526,
          -0.029694155631649868,
